################################################################################
# Neural network connection values (weights and biases).
################################################################################
# Col  Name       Description
################################################################################
# 1    connection Neural network connection value.
# 2    t          Connection type (a = weight, b = bias).
# 3    index      Index enumerating weights.
# 4    l_s        Starting point layer (end point layer for biases).
# 5    n_s        Starting point neuron in starting layer (end point neuron for biases).
# 6    l_e        End point layer.
# 7    n_e        End point neuron in end layer.
################################################################################
#                      1 2         3     4     5     6     7
#             connection t     index   l_s   n_s   l_e   n_e
############################################################
  2.2132877122618153E-01 a         1     0     1     1     1
  3.0203292357256286E+00 a         2     0     1     1     2
  7.9880433244251414E-01 a         3     0     1     1     3
 -9.8544567980841091E-01 a         4     0     1     1     4
 -1.2985729247264727E-01 a         5     0     1     1     5
 -7.0127905893250975E-01 a         6     0     1     1     6
 -1.8875560616042625E-01 a         7     0     1     1     7
  4.9385832229934618E-01 a         8     0     1     1     8
 -7.5656801260061546E-01 a         9     0     1     1     9
  2.1620785348539626E-01 a        10     0     1     1    10
 -3.8793930093899548E-01 a        11     0     1     1    11
 -1.1469374793372770E-01 a        12     0     1     1    12
 -2.0729550427624144E-01 a        13     0     1     1    13
  1.7071005320886945E-01 a        14     0     1     1    14
 -5.1199337813848911E-01 a        15     0     1     1    15
 -3.1265622432480726E+00 a        16     0     2     1     1
  1.5830041500884120E+00 a        17     0     2     1     2
  6.7020740820958946E-01 a        18     0     2     1     3
  2.5680674578801717E+00 a        19     0     2     1     4
 -2.9328352425159004E-01 a        20     0     2     1     5
 -5.2230093107681537E+00 a        21     0     2     1     6
  2.3303518640726382E+00 a        22     0     2     1     7
 -1.4205311959894764E+00 a        23     0     2     1     8
  1.4147292052113227E+00 a        24     0     2     1     9
 -7.0537308127456066E-01 a        25     0     2     1    10
 -6.6038197448378055E-01 a        26     0     2     1    11
  3.7579898081207812E-02 a        27     0     2     1    12
  2.0839572177397736E+00 a        28     0     2     1    13
  1.9182354455108491E-01 a        29     0     2     1    14
  3.0221643211576064E+00 a        30     0     2     1    15
  2.6596023585384260E-01 a        31     0     3     1     1
  7.7110897159688985E-01 a        32     0     3     1     2
  6.4814787496649007E-01 a        33     0     3     1     3
  2.7099313844008601E+00 a        34     0     3     1     4
 -1.7808187457528990E+00 a        35     0     3     1     5
 -1.7929687329199726E+00 a        36     0     3     1     6
  2.1911832627857541E-01 a        37     0     3     1     7
  1.3508995063193161E+00 a        38     0     3     1     8
  1.6836185063190594E+00 a        39     0     3     1     9
 -1.6073730335804228E+00 a        40     0     3     1    10
  1.1037668375315304E+00 a        41     0     3     1    11
 -6.6018186913994414E-01 a        42     0     3     1    12
  6.5034243500579347E-01 a        43     0     3     1    13
 -1.3160749499289264E+00 a        44     0     3     1    14
 -2.2414568787014419E-01 a        45     0     3     1    15
  1.2659668734871454E-01 a        46     0     4     1     1
  8.6036346357009585E-01 a        47     0     4     1     2
 -4.0367053378625378E-01 a        48     0     4     1     3
  4.8154578377159957E-01 a        49     0     4     1     4
 -1.3041361356918011E+00 a        50     0     4     1     5
 -1.1606078087637807E-02 a        51     0     4     1     6
  4.5247731410497516E-01 a        52     0     4     1     7
  3.4638047323705223E-01 a        53     0     4     1     8
  8.6407715456651879E-02 a        54     0     4     1     9
 -6.8980783272100743E-01 a        55     0     4     1    10
  7.5553522046469879E-01 a        56     0     4     1    11
  7.1654462430202415E-01 a        57     0     4     1    12
 -9.9928674139568008E-01 a        58     0     4     1    13
  7.3627057729743250E-01 a        59     0     4     1    14
 -6.9181793517443491E-01 a        60     0     4     1    15
 -1.8545001046792350E-01 a        61     0     5     1     1
  1.2111601833994814E+00 a        62     0     5     1     2
  3.9585231372538543E-01 a        63     0     5     1     3
  3.0806414560567524E-01 a        64     0     5     1     4
 -8.7148560923350077E-02 a        65     0     5     1     5
 -3.8288401197172912E+00 a        66     0     5     1     6
 -5.3990309635389455E-01 a        67     0     5     1     7
  1.9653354718355764E-01 a        68     0     5     1     8
 -1.7474868754252776E-01 a        69     0     5     1     9
  7.9087431821041854E-01 a        70     0     5     1    10
 -1.4100701178512451E-01 a        71     0     5     1    11
  5.3155971710151295E-01 a        72     0     5     1    12
  4.7568281490790726E-01 a        73     0     5     1    13
 -8.6486448870455834E-01 a        74     0     5     1    14
  2.1409326575894454E+00 a        75     0     5     1    15
 -3.1928306692916864E-01 a        76     0     6     1     1
 -1.1728665007624571E-01 a        77     0     6     1     2
 -5.2599114849229622E-01 a        78     0     6     1     3
 -1.7971911804849608E-01 a        79     0     6     1     4
 -8.2739487713905335E-01 a        80     0     6     1     5
 -1.6842387551164077E+00 a        81     0     6     1     6
 -1.1386550007865794E+00 a        82     0     6     1     7
  2.6070356516077647E-01 a        83     0     6     1     8
 -3.2023491962305856E-01 a        84     0     6     1     9
  1.3838598370101163E+00 a        85     0     6     1    10
  3.2843558968110548E-01 a        86     0     6     1    11
 -6.2606103957339687E-01 a        87     0     6     1    12
  6.3894835530385852E-01 a        88     0     6     1    13
 -9.2697125110732703E-01 a        89     0     6     1    14
  7.9683930863745600E-01 a        90     0     6     1    15
 -6.2600762364761298E-01 a        91     0     7     1     1
 -1.5374073371528185E+00 a        92     0     7     1     2
 -4.3005929550841443E-01 a        93     0     7     1     3
  1.1232043293517440E+00 a        94     0     7     1     4
 -7.4368023445998943E-01 a        95     0     7     1     5
  6.2221768527133092E-01 a        96     0     7     1     6
  3.4581861517917090E-01 a        97     0     7     1     7
 -1.0956389276748852E+00 a        98     0     7     1     8
  1.3384784451076805E+00 a        99     0     7     1     9
  9.7432174130745142E-01 a       100     0     7     1    10
  5.9597798595968665E-01 a       101     0     7     1    11
 -5.7559201987387953E-01 a       102     0     7     1    12
  1.3441436943551928E+00 a       103     0     7     1    13
 -1.1631147082580822E+00 a       104     0     7     1    14
  7.5573798865785372E-02 a       105     0     7     1    15
  2.2461706152942051E+00 a       106     0     8     1     1
  2.2996216678281440E+00 a       107     0     8     1     2
 -9.5763641072472294E-01 a       108     0     8     1     3
 -8.3925397058581852E-01 a       109     0     8     1     4
 -4.3618910036211239E-01 a       110     0     8     1     5
  5.0611918304158920E-01 a       111     0     8     1     6
 -2.1930746895977151E+00 a       112     0     8     1     7
  8.5456004524009710E-01 a       113     0     8     1     8
 -1.2572248554950312E+00 a       114     0     8     1     9
  1.8798716746569009E+00 a       115     0     8     1    10
  5.1967269617129463E-01 a       116     0     8     1    11
  2.5742932138521157E-01 a       117     0     8     1    12
 -1.0007509123831619E+00 a       118     0     8     1    13
 -7.2655226664195538E-01 a       119     0     8     1    14
  2.0712970396158720E-01 a       120     0     8     1    15
 -9.1860748455732799E-01 a       121     0     9     1     1
  2.8094610045328477E-01 a       122     0     9     1     2
  4.9286816618953411E-01 a       123     0     9     1     3
 -2.2715701098848053E+00 a       124     0     9     1     4
 -7.6989289343785117E-01 a       125     0     9     1     5
  2.2446308829190853E+00 a       126     0     9     1     6
 -2.7188976968346884E-01 a       127     0     9     1     7
 -1.3792375699392176E+00 a       128     0     9     1     8
 -2.7581835322830783E+00 a       129     0     9     1     9
  3.7490975360428513E+00 a       130     0     9     1    10
 -3.0206560545417116E-01 a       131     0     9     1    11
  8.9066402031134850E-01 a       132     0     9     1    12
 -7.7392549775832625E-02 a       133     0     9     1    13
  4.7368175907416454E-01 a       134     0     9     1    14
  2.6421318562075278E-02 a       135     0     9     1    15
 -7.9152243554571411E-01 a       136     0    10     1     1
 -1.4168172594359356E+00 a       137     0    10     1     2
 -1.4022711501968790E-01 a       138     0    10     1     3
 -8.4479620146703498E-03 a       139     0    10     1     4
  4.1842090055731362E-01 a       140     0    10     1     5
 -2.8848666248593058E-01 a       141     0    10     1     6
 -1.6995638422476793E+00 a       142     0    10     1     7
 -6.1779270950915655E-01 a       143     0    10     1     8
  3.9705084158453163E-01 a       144     0    10     1     9
 -8.9237394604737663E-01 a       145     0    10     1    10
 -1.3248222516180388E+00 a       146     0    10     1    11
  1.8677690623654916E-01 a       147     0    10     1    12
  1.3604116304012215E+00 a       148     0    10     1    13
 -4.1698437727599257E-02 a       149     0    10     1    14
  1.7134183449004223E+00 a       150     0    10     1    15
  2.0462093070804626E+00 a       151     0    11     1     1
  9.3467955391973445E-01 a       152     0    11     1     2
 -8.2501322484472561E-02 a       153     0    11     1     3
 -1.6187532882378026E+00 a       154     0    11     1     4
 -3.1908657792131667E-01 a       155     0    11     1     5
  2.3812218285101290E+00 a       156     0    11     1     6
  2.4570895087678923E-01 a       157     0    11     1     7
  3.4155035351274637E-01 a       158     0    11     1     8
 -8.3794663032956884E-01 a       159     0    11     1     9
 -3.5835296426145020E+00 a       160     0    11     1    10
  1.0935824290767144E+00 a       161     0    11     1    11
 -1.0429790941185784E+00 a       162     0    11     1    12
 -4.9382123938493117E-01 a       163     0    11     1    13
 -2.5613963881165396E+00 a       164     0    11     1    14
 -8.2967156699254363E-01 a       165     0    11     1    15
 -9.5098958962812263E-01 a       166     0    12     1     1
  6.9766258250108526E-01 a       167     0    12     1     2
 -1.8246071462557307E+00 a       168     0    12     1     3
 -2.0280886008417611E+00 a       169     0    12     1     4
 -9.4044009835650333E-01 a       170     0    12     1     5
  3.1590207081348409E+00 a       171     0    12     1     6
  2.9528511840372111E+00 a       172     0    12     1     7
 -1.3459072779272729E+00 a       173     0    12     1     8
 -1.5066038704818254E+00 a       174     0    12     1     9
 -6.2113532971484400E+00 a       175     0    12     1    10
 -4.7358269120648222E-01 a       176     0    12     1    11
 -2.2166449468209621E+00 a       177     0    12     1    12
 -2.4005064219447214E+00 a       178     0    12     1    13
 -1.7443675426818159E-01 a       179     0    12     1    14
 -6.3930875567779777E-01 a       180     0    12     1    15
  1.2297048076177002E+00 a       181     0    13     1     1
  2.0224463194352671E+00 a       182     0    13     1     2
  2.3421579623340471E-02 a       183     0    13     1     3
 -3.3028393761468877E-01 a       184     0    13     1     4
  7.1925918362795527E-01 a       185     0    13     1     5
 -7.3270608043714969E-01 a       186     0    13     1     6
  7.9408004045702985E-01 a       187     0    13     1     7
  9.3896374385652592E-01 a       188     0    13     1     8
 -1.2257650952105537E+00 a       189     0    13     1     9
  5.9235038797305795E-01 a       190     0    13     1    10
 -2.7559207215742754E-01 a       191     0    13     1    11
 -4.9946778466250369E-01 a       192     0    13     1    12
 -1.5866525788152654E+00 a       193     0    13     1    13
  2.2239783986298205E-02 a       194     0    13     1    14
  7.8440756168044268E-01 a       195     0    13     1    15
 -1.8608903166304172E+00 a       196     0    14     1     1
  1.2346172751719058E+00 a       197     0    14     1     2
 -1.9983848950270804E+00 a       198     0    14     1     3
 -5.9386455760264534E-01 a       199     0    14     1     4
 -1.7449783061355331E+00 a       200     0    14     1     5
  3.1275920535033577E+00 a       201     0    14     1     6
 -5.6839058750339411E-01 a       202     0    14     1     7
  2.5741797203062360E+00 a       203     0    14     1     8
 -7.0087847734627151E-01 a       204     0    14     1     9
  2.4998608213866453E+00 a       205     0    14     1    10
 -8.7629718020730962E-01 a       206     0    14     1    11
 -2.7304185283763003E+00 a       207     0    14     1    12
  1.7264603843637358E+00 a       208     0    14     1    13
 -2.5875642401069293E-01 a       209     0    14     1    14
 -3.8921188295823983E+00 a       210     0    14     1    15
 -9.6765089672707683E-01 a       211     0    15     1     1
  1.6483829757788020E+00 a       212     0    15     1     2
  2.0419817042431814E+00 a       213     0    15     1     3
 -1.7786465274724356E-01 a       214     0    15     1     4
  1.4214390781034005E-02 a       215     0    15     1     5
  1.7078557880678260E+00 a       216     0    15     1     6
 -1.9733435119919538E+00 a       217     0    15     1     7
 -1.4561746608067143E+00 a       218     0    15     1     8
  1.3505644676809261E+00 a       219     0    15     1     9
  2.7795340589080393E+00 a       220     0    15     1    10
 -9.6921767896199762E-01 a       221     0    15     1    11
  1.3593297218022775E+00 a       222     0    15     1    12
  2.3421633189499418E+00 a       223     0    15     1    13
  2.1679676598712749E+00 a       224     0    15     1    14
 -1.4509226518268759E+00 a       225     0    15     1    15
 -1.4920575360103491E-01 a       226     0    16     1     1
 -2.9907181780172359E-02 a       227     0    16     1     2
  4.4594507192866167E-01 a       228     0    16     1     3
 -6.0757342183116791E-01 a       229     0    16     1     4
 -1.3361442378607016E+00 a       230     0    16     1     5
  6.6950816770341026E-01 a       231     0    16     1     6
  2.1551707655018817E-01 a       232     0    16     1     7
 -1.1442651931533562E-01 a       233     0    16     1     8
  4.6096229689864976E-01 a       234     0    16     1     9
 -4.2680415028566560E-01 a       235     0    16     1    10
  1.1881919956967599E+00 a       236     0    16     1    11
  1.4851181337719144E-01 a       237     0    16     1    12
  4.9453112069770355E-01 a       238     0    16     1    13
 -2.3065474310329145E-01 a       239     0    16     1    14
 -1.3000693618785120E+00 a       240     0    16     1    15
 -2.8366646893755658E+00 a       241     0    17     1     1
 -7.6292567512075604E-01 a       242     0    17     1     2
 -1.5495218055141047E-01 a       243     0    17     1     3
 -1.2245093326316714E+00 a       244     0    17     1     4
 -1.8751075756570146E+00 a       245     0    17     1     5
  8.4346139610067483E-01 a       246     0    17     1     6
  1.4816880261051690E+00 a       247     0    17     1     7
 -2.6332466888934758E+00 a       248     0    17     1     8
  2.5365820176605762E+00 a       249     0    17     1     9
 -1.7784816001272696E+00 a       250     0    17     1    10
  8.7348802831195504E-01 a       251     0    17     1    11
 -1.9256733502822851E+00 a       252     0    17     1    12
  2.0909870587752608E+00 a       253     0    17     1    13
  2.2025428985763465E-01 a       254     0    17     1    14
 -9.4778554912676516E-01 a       255     0    17     1    15
  1.8715445756675730E+00 a       256     0    18     1     1
 -1.6062830142806441E+00 a       257     0    18     1     2
 -9.4949295936898581E-01 a       258     0    18     1     3
  1.5074835803130915E+00 a       259     0    18     1     4
  2.4724306403984275E-01 a       260     0    18     1     5
 -1.6272525864791674E+00 a       261     0    18     1     6
 -7.9339390934944287E-01 a       262     0    18     1     7
  9.4678932434986030E-01 a       263     0    18     1     8
  6.7545458465812658E-01 a       264     0    18     1     9
 -4.0158202735850790E-01 a       265     0    18     1    10
  1.7147903155070856E+00 a       266     0    18     1    11
 -1.3794212477443120E+00 a       267     0    18     1    12
  3.9839231209130926E-01 a       268     0    18     1    13
 -2.0991564243030534E+00 a       269     0    18     1    14
  2.2680551538044916E-01 a       270     0    18     1    15
 -7.1235569257378362E-01 a       271     0    19     1     1
 -3.2671236696662387E-01 a       272     0    19     1     2
 -5.6549247477021514E-01 a       273     0    19     1     3
  3.2741839822526131E-01 a       274     0    19     1     4
  1.3584458194420554E+00 a       275     0    19     1     5
  2.8952740560276252E-01 a       276     0    19     1     6
 -1.9633127103350512E-01 a       277     0    19     1     7
 -2.9977561330897434E-01 a       278     0    19     1     8
  1.9707961885050107E-01 a       279     0    19     1     9
  2.3492413056654193E-01 a       280     0    19     1    10
 -9.8403926351460125E-01 a       281     0    19     1    11
 -3.1456986765813316E-01 a       282     0    19     1    12
  5.9878032814455151E-01 a       283     0    19     1    13
  5.1341551442619052E-02 a       284     0    19     1    14
 -4.5957069538704223E-02 a       285     0    19     1    15
  2.1692806816428027E+00 a       286     0    20     1     1
 -1.6952899560853527E+00 a       287     0    20     1     2
 -9.8355983124405033E-01 a       288     0    20     1     3
  1.0189028371624869E+00 a       289     0    20     1     4
  2.4734503049141177E+00 a       290     0    20     1     5
 -8.3494866120702749E-01 a       291     0    20     1     6
 -8.7248233521938845E-01 a       292     0    20     1     7
  4.2301751094090301E-01 a       293     0    20     1     8
 -9.5934830828725848E-01 a       294     0    20     1     9
  1.0690400068877446E+00 a       295     0    20     1    10
  2.3697560615495808E-01 a       296     0    20     1    11
  8.8026372072848835E-01 a       297     0    20     1    12
 -1.8307875473419064E+00 a       298     0    20     1    13
  1.1004334931471720E+00 a       299     0    20     1    14
 -1.3993791694494190E-01 a       300     0    20     1    15
 -5.0961487139319273E-01 a       301     0    21     1     1
  2.4970753423154718E-01 a       302     0    21     1     2
  6.8187664544440052E-01 a       303     0    21     1     3
 -1.1595382552111408E+00 a       304     0    21     1     4
 -4.7397536480307140E-01 a       305     0    21     1     5
  1.8440168199487630E-01 a       306     0    21     1     6
  2.7755704291669336E-01 a       307     0    21     1     7
 -4.0496664049199582E-01 a       308     0    21     1     8
 -7.2163700185591895E-01 a       309     0    21     1     9
  7.6425720160177971E-02 a       310     0    21     1    10
 -2.6876140004777360E-01 a       311     0    21     1    11
  1.3069023466625887E-01 a       312     0    21     1    12
 -1.1005718713759391E+00 a       313     0    21     1    13
  4.4948844272185506E-01 a       314     0    21     1    14
 -5.3276140547795048E-01 a       315     0    21     1    15
  3.7039311126029434E-01 a       316     0    22     1     1
  2.8704120290675362E-02 a       317     0    22     1     2
  1.3934665587024178E-01 a       318     0    22     1     3
  1.5281579982135106E-02 a       319     0    22     1     4
 -4.2900041297305302E-01 a       320     0    22     1     5
 -1.2219541948546292E-01 a       321     0    22     1     6
 -9.5476360193851875E-02 a       322     0    22     1     7
  1.4055368132204935E-01 a       323     0    22     1     8
 -2.1903241486684905E-02 a       324     0    22     1     9
 -6.7244408208816109E-02 a       325     0    22     1    10
  1.8835600077752199E-01 a       326     0    22     1    11
  9.6244550889476033E-02 a       327     0    22     1    12
 -2.5795441939522995E-01 a       328     0    22     1    13
  2.4197435429124645E-02 a       329     0    22     1    14
 -4.7743624721873151E-01 a       330     0    22     1    15
 -1.2403295886948258E+00 a       331     0    23     1     1
  9.0820566044610240E-01 a       332     0    23     1     2
  2.5587983463381503E-01 a       333     0    23     1     3
 -2.4246441191398746E-01 a       334     0    23     1     4
 -1.3507619514324685E+00 a       335     0    23     1     5
 -2.1270828983508366E-01 a       336     0    23     1     6
  2.1827965624813683E-01 a       337     0    23     1     7
  8.0953367960955744E-02 a       338     0    23     1     8
  1.9632769533528222E-01 a       339     0    23     1     9
 -2.7004382765308127E-01 a       340     0    23     1    10
 -4.5548872705861471E-01 a       341     0    23     1    11
  1.6531265721615329E-01 a       342     0    23     1    12
  4.9187696127524871E-01 a       343     0    23     1    13
 -2.7625911739411368E-01 a       344     0    23     1    14
  2.0318578472391147E-01 a       345     0    23     1    15
 -9.1056094719290298E-02 a       346     0    24     1     1
 -2.3374184182891733E-01 a       347     0    24     1     2
 -1.3852422313964180E-01 a       348     0    24     1     3
 -3.2991733117080556E-02 a       349     0    24     1     4
 -9.8330201522533647E-02 a       350     0    24     1     5
  2.6140187990969505E-01 a       351     0    24     1     6
  1.6099317960774520E-01 a       352     0    24     1     7
  8.0822769697862951E-02 a       353     0    24     1     8
  1.3500160407235945E-01 a       354     0    24     1     9
 -1.2117254253223492E-01 a       355     0    24     1    10
 -5.4245506385601529E-02 a       356     0    24     1    11
 -1.1044860830044576E-01 a       357     0    24     1    12
  3.1076884507434188E-01 a       358     0    24     1    13
 -7.0903312803713647E-02 a       359     0    24     1    14
  1.0317202895444169E-01 a       360     0    24     1    15
 -2.2424969512316703E-01 a       361     0    25     1     1
 -7.4036613863234058E-01 a       362     0    25     1     2
 -7.8094210932952657E-01 a       363     0    25     1     3
 -6.9237544705105447E-01 a       364     0    25     1     4
  8.4918051172409781E-01 a       365     0    25     1     5
  1.9655366552341794E-01 a       366     0    25     1     6
 -2.0802729690511676E-01 a       367     0    25     1     7
  5.6555833902701524E-02 a       368     0    25     1     8
  2.3088571850562906E-01 a       369     0    25     1     9
  7.4637810038839084E-02 a       370     0    25     1    10
 -2.4597338118318182E-01 a       371     0    25     1    11
 -1.9170081395573974E-01 a       372     0    25     1    12
  6.5837753401350130E-01 a       373     0    25     1    13
 -6.0184463606664762E-01 a       374     0    25     1    14
  7.8288899709086535E-02 a       375     0    25     1    15
 -4.3378040279287586E-02 a       376     0    26     1     1
  2.4063624572166860E+00 a       377     0    26     1     2
 -4.3635828195628423E-01 a       378     0    26     1     3
 -5.3678640588874749E-01 a       379     0    26     1     4
 -5.5866410544025347E-01 a       380     0    26     1     5
 -1.4968091756272721E+00 a       381     0    26     1     6
 -1.3358675994845695E-01 a       382     0    26     1     7
  4.2355984715650719E-01 a       383     0    26     1     8
 -1.0409431245092797E+00 a       384     0    26     1     9
 -1.7639881376477217E-02 a       385     0    26     1    10
  1.7055466148844986E-01 a       386     0    26     1    11
 -2.3134732655482684E-01 a       387     0    26     1    12
  1.1192432709740099E+00 a       388     0    26     1    13
 -8.2848585852381984E-01 a       389     0    26     1    14
  3.4416591256192441E-01 a       390     0    26     1    15
 -4.9850514461484152E-01 a       391     0    27     1     1
  1.6488037858689444E-01 a       392     0    27     1     2
  3.7968550193005046E-01 a       393     0    27     1     3
 -4.9635443215573760E-01 a       394     0    27     1     4
  1.9262916242687173E-01 a       395     0    27     1     5
  5.0766009278153901E-01 a       396     0    27     1     6
 -2.9515423567757865E-01 a       397     0    27     1     7
 -8.4372566415838471E-02 a       398     0    27     1     8
 -1.6328885685972749E-01 a       399     0    27     1     9
 -4.0093713965185851E-02 a       400     0    27     1    10
  3.8771893604832436E-01 a       401     0    27     1    11
 -1.3571556044915103E-01 a       402     0    27     1    12
 -3.9522673656460988E-01 a       403     0    27     1    13
 -2.7717451812182281E-01 a       404     0    27     1    14
 -5.7067637460607890E-01 a       405     0    27     1    15
  7.1427676565294285E-01 a       406     0    28     1     1
  4.4771861044313653E-02 a       407     0    28     1     2
  1.7246661223272604E+00 a       408     0    28     1     3
  2.1969798737341493E+00 a       409     0    28     1     4
 -3.7323660974811224E-01 a       410     0    28     1     5
  6.2225693495419820E-01 a       411     0    28     1     6
 -1.7058072217790696E-01 a       412     0    28     1     7
  1.3335518210545592E+00 a       413     0    28     1     8
  3.5914863493789828E-01 a       414     0    28     1     9
  4.2066038997005828E-01 a       415     0    28     1    10
  2.2210736756337175E+00 a       416     0    28     1    11
  1.7770479057313131E+00 a       417     0    28     1    12
 -1.9245328228900320E+00 a       418     0    28     1    13
 -9.3198897001066844E-02 a       419     0    28     1    14
 -1.0396235460386183E+00 a       420     0    28     1    15
  2.7255128787610999E-01 a       421     0    29     1     1
 -3.1601246833606939E-01 a       422     0    29     1     2
  5.3516120174096893E-01 a       423     0    29     1     3
 -2.3894695833402380E+00 a       424     0    29     1     4
 -2.1277853789804828E+00 a       425     0    29     1     5
 -1.0095745816884036E+00 a       426     0    29     1     6
 -1.7718243938940448E+00 a       427     0    29     1     7
 -8.1781848625265907E-01 a       428     0    29     1     8
 -4.9551195051593465E-02 a       429     0    29     1     9
 -1.4851137171784839E-01 a       430     0    29     1    10
  2.0012355790365839E+00 a       431     0    29     1    11
 -2.2650771090645212E+00 a       432     0    29     1    12
 -9.0784795669840568E-01 a       433     0    29     1    13
  5.9143363293606144E-01 a       434     0    29     1    14
 -9.8383743976764571E-01 a       435     0    29     1    15
  2.0308634369009773E+00 a       436     0    30     1     1
  4.8569450823957458E+00 a       437     0    30     1     2
 -1.0487113793571374E+00 a       438     0    30     1     3
  2.1667371113073743E+00 a       439     0    30     1     4
  5.4121719483841713E-01 a       440     0    30     1     5
  1.3078327506283554E+00 a       441     0    30     1     6
 -1.5190202382691909E+00 a       442     0    30     1     7
  1.2119624917847454E+00 a       443     0    30     1     8
  6.8450038568718941E-01 a       444     0    30     1     9
 -4.9154681864562672E-01 a       445     0    30     1    10
 -6.0571684261207359E+00 a       446     0    30     1    11
  4.4802934020648237E+00 a       447     0    30     1    12
 -5.0863914248359836E-02 a       448     0    30     1    13
  3.2962140074713497E+00 a       449     0    30     1    14
  4.1039410055130450E+00 a       450     0    30     1    15
  8.6805102609447168E-02 a       451     0    31     1     1
 -1.1114267308507084E-01 a       452     0    31     1     2
  2.6204565046529893E-01 a       453     0    31     1     3
  2.6561670752464811E-01 a       454     0    31     1     4
 -1.3457581614163829E+00 a       455     0    31     1     5
 -9.9325730089906528E-02 a       456     0    31     1     6
  1.2582406276252433E-02 a       457     0    31     1     7
 -2.5085729072587798E-01 a       458     0    31     1     8
  3.1688391227201940E-01 a       459     0    31     1     9
 -3.6278171405875997E-02 a       460     0    31     1    10
 -2.4589657164266507E-01 a       461     0    31     1    11
  4.1601764290847554E-01 a       462     0    31     1    12
 -6.1553157651393309E-01 a       463     0    31     1    13
  4.5362882247159941E-01 a       464     0    31     1    14
 -1.1454643840765737E-01 a       465     0    31     1    15
  5.7214365594870975E-01 a       466     0    32     1     1
  1.1925842278623455E+00 a       467     0    32     1     2
  4.7377919882577342E-02 a       468     0    32     1     3
 -8.0804475180445501E-01 a       469     0    32     1     4
  9.3995516542390434E-01 a       470     0    32     1     5
 -3.5798473473740833E-01 a       471     0    32     1     6
  2.0951798052111545E-01 a       472     0    32     1     7
  2.5562407367865997E-02 a       473     0    32     1     8
 -2.8020755812770431E-01 a       474     0    32     1     9
 -2.3604715353901216E-02 a       475     0    32     1    10
  5.4187938579032446E-01 a       476     0    32     1    11
  1.0967785503523766E-01 a       477     0    32     1    12
 -4.2932178799409998E-01 a       478     0    32     1    13
 -1.3047986001558706E-01 a       479     0    32     1    14
 -2.5161862022565290E-01 a       480     0    32     1    15
 -5.7281170330515115E-02 a       481     0    33     1     1
 -1.8965523994464725E-01 a       482     0    33     1     2
 -2.1006738956077167E-01 a       483     0    33     1     3
  3.2563988688952800E-01 a       484     0    33     1     4
 -1.9360169806590288E+00 a       485     0    33     1     5
  3.0802873844729062E-01 a       486     0    33     1     6
  6.3688399760816583E-01 a       487     0    33     1     7
  4.5862877411056352E-01 a       488     0    33     1     8
 -3.0015534140835681E-01 a       489     0    33     1     9
  4.3606224036593887E-02 a       490     0    33     1    10
 -2.8405262903018213E-02 a       491     0    33     1    11
  6.3831968966853905E-02 a       492     0    33     1    12
 -5.6902977171360940E-03 a       493     0    33     1    13
  3.6387678585151413E-02 a       494     0    33     1    14
  2.0537969263299733E+00 a       495     0    33     1    15
 -4.6531647698563416E-01 a       496     0    34     1     1
 -9.2392880781569520E-01 a       497     0    34     1     2
 -4.8188997070906625E-01 a       498     0    34     1     3
  1.6877983098562013E+00 a       499     0    34     1     4
  1.0349457486787068E+00 a       500     0    34     1     5
 -6.1536755640943275E-01 a       501     0    34     1     6
  1.8680269985521731E+00 a       502     0    34     1     7
 -1.8187912376137596E+00 a       503     0    34     1     8
  1.9425799448543066E-01 a       504     0    34     1     9
 -1.0883067092388699E-01 a       505     0    34     1    10
  1.3785749905048764E-01 a       506     0    34     1    11
  7.2880363296548512E-01 a       507     0    34     1    12
 -2.8592053037116312E+00 a       508     0    34     1    13
 -6.9220426988559702E-01 a       509     0    34     1    14
  5.2784583547797448E-01 a       510     0    34     1    15
 -3.0608505946612397E+00 a       511     0    35     1     1
 -1.8674394582438152E+00 a       512     0    35     1     2
  1.4526829189551277E-01 a       513     0    35     1     3
 -1.4534491299642043E+00 a       514     0    35     1     4
  1.4794014280317003E+00 a       515     0    35     1     5
 -6.9137031938815086E-01 a       516     0    35     1     6
  2.0260342486649190E+00 a       517     0    35     1     7
  1.8290251387408512E+00 a       518     0    35     1     8
 -1.0871797881314849E+00 a       519     0    35     1     9
 -1.0248774316334854E-01 a       520     0    35     1    10
  4.1580024658651232E-01 a       521     0    35     1    11
  2.1488875155006384E+00 a       522     0    35     1    12
 -1.8545583717832101E+00 a       523     0    35     1    13
  7.2055537470642461E-01 a       524     0    35     1    14
  6.7069289364795193E-01 a       525     0    35     1    15
 -3.5719840183941680E+00 a       526     0    36     1     1
 -1.8046158670257766E+00 a       527     0    36     1     2
 -2.0725240933752307E+00 a       528     0    36     1     3
 -1.2078507542593059E-01 a       529     0    36     1     4
  3.9342811808612104E+00 a       530     0    36     1     5
 -2.4559248280915731E+00 a       531     0    36     1     6
 -1.7633089616116806E+00 a       532     0    36     1     7
 -1.4976414837079119E-01 a       533     0    36     1     8
 -1.8016639895222804E+00 a       534     0    36     1     9
  1.8248324450657827E-01 a       535     0    36     1    10
  5.5626844879814275E-01 a       536     0    36     1    11
 -2.9219525700527669E+00 a       537     0    36     1    12
  3.4926763401455156E+00 a       538     0    36     1    13
 -1.6581344206372022E+00 a       539     0    36     1    14
  1.2784693566429293E+00 a       540     0    36     1    15
  1.2012130381900107E-01 a       541     0    37     1     1
 -7.6651158668244943E-02 a       542     0    37     1     2
  3.6214593161851549E-02 a       543     0    37     1     3
 -4.8056985558877626E-03 a       544     0    37     1     4
 -5.8515866173777875E-01 a       545     0    37     1     5
 -2.9228627903791737E-01 a       546     0    37     1     6
  1.1909413028907580E-01 a       547     0    37     1     7
 -3.4771456220775258E-02 a       548     0    37     1     8
  1.3501557394354182E-02 a       549     0    37     1     9
  2.2660564606234432E-02 a       550     0    37     1    10
  1.0847763982966110E-01 a       551     0    37     1    11
 -6.6785442493936045E-02 a       552     0    37     1    12
  4.1272495026697976E-02 a       553     0    37     1    13
  7.6729919549414341E-02 a       554     0    37     1    14
  4.1863384750968635E-01 a       555     0    37     1    15
  1.2757234908740278E-01 a       556     0    38     1     1
  2.7023637544764173E-01 a       557     0    38     1     2
  2.3175808509392834E-01 a       558     0    38     1     3
 -1.4485034864507193E-01 a       559     0    38     1     4
 -1.2579572203081243E-01 a       560     0    38     1     5
  2.2778928898092557E-01 a       561     0    38     1     6
 -4.4283106894602201E-02 a       562     0    38     1     7
 -3.0313436982712150E-01 a       563     0    38     1     8
 -1.4404032753570586E-01 a       564     0    38     1     9
 -3.7160267693082109E-02 a       565     0    38     1    10
  3.6534272822201369E-01 a       566     0    38     1    11
 -4.6829514512879289E-01 a       567     0    38     1    12
  1.2973517275595595E-01 a       568     0    38     1    13
  1.5611654620513074E-01 a       569     0    38     1    14
  7.8090418155425511E-03 a       570     0    38     1    15
 -1.4712045809287511E-01 a       571     0    39     1     1
 -5.1706295866140517E-01 a       572     0    39     1     2
  5.6391479247923336E-03 a       573     0    39     1     3
  4.8441198618043574E-01 a       574     0    39     1     4
  5.8857460192266076E-01 a       575     0    39     1     5
  4.9534692360322902E-02 a       576     0    39     1     6
  2.9391355763886566E-02 a       577     0    39     1     7
 -9.9585248552196692E-02 a       578     0    39     1     8
 -2.3386852735257330E-02 a       579     0    39     1     9
 -3.1615671047036588E-02 a       580     0    39     1    10
 -8.5414342825300360E-02 a       581     0    39     1    11
  1.2785126265270916E-01 a       582     0    39     1    12
  7.2701101574889529E-02 a       583     0    39     1    13
  2.4148640466790775E-02 a       584     0    39     1    14
 -3.2373478927680444E-01 a       585     0    39     1    15
  8.8426436883221460E-01 a       586     0    40     1     1
  4.3677242752822182E-01 a       587     0    40     1     2
 -1.3336202238122536E+00 a       588     0    40     1     3
  3.4511617684285606E-01 a       589     0    40     1     4
  8.8224609133374166E-01 a       590     0    40     1     5
  1.4876766346341939E+00 a       591     0    40     1     6
  1.7873951056165646E-01 a       592     0    40     1     7
 -1.6394817262469435E-01 a       593     0    40     1     8
  2.4396237991038652E-01 a       594     0    40     1     9
  1.6748543505725402E-01 a       595     0    40     1    10
 -2.2256347432838743E+00 a       596     0    40     1    11
 -9.6774652261237171E-01 a       597     0    40     1    12
 -1.3754228519524103E+00 a       598     0    40     1    13
  1.2554786868066403E+00 a       599     0    40     1    14
 -1.1460681154365848E+00 a       600     0    40     1    15
  5.9055136411312381E-01 a       601     0    41     1     1
 -7.9692785583148060E-02 a       602     0    41     1     2
  2.8100765444636971E-01 a       603     0    41     1     3
  1.0871236462820633E+00 a       604     0    41     1     4
  5.0432282472250356E-01 a       605     0    41     1     5
  5.3496299518657986E-01 a       606     0    41     1     6
 -2.8137413789786914E-01 a       607     0    41     1     7
 -4.5645964225068714E-01 a       608     0    41     1     8
 -1.5404990874607205E-01 a       609     0    41     1     9
 -5.6092438610252156E-02 a       610     0    41     1    10
  4.3548810976037944E-01 a       611     0    41     1    11
 -5.1877817060908127E-01 a       612     0    41     1    12
 -1.7894207294714526E-01 a       613     0    41     1    13
  7.1389471705666549E-02 a       614     0    41     1    14
 -3.7954784993806012E-01 a       615     0    41     1    15
 -7.5363867686625496E-01 a       616     0    42     1     1
 -3.2759042712093223E-01 a       617     0    42     1     2
 -1.9998108516664320E-01 a       618     0    42     1     3
  3.6848981532974123E-01 a       619     0    42     1     4
  2.9317537205138722E+00 a       620     0    42     1     5
  1.0228793474858137E-01 a       621     0    42     1     6
 -6.1307903921069429E-01 a       622     0    42     1     7
 -4.3636171282393726E-01 a       623     0    42     1     8
  8.4688606579796011E-01 a       624     0    42     1     9
  1.9799150367121157E-01 a       625     0    42     1    10
  2.4019346241718215E-01 a       626     0    42     1    11
 -3.7093285389596675E-01 a       627     0    42     1    12
  1.1002245955319163E+00 a       628     0    42     1    13
 -2.0318426345802783E+00 a       629     0    42     1    14
  1.0081083620200013E+00 a       630     0    42     1    15
  6.9169544308967212E-02 a       631     0    43     1     1
 -8.6148646518293603E-01 a       632     0    43     1     2
  1.1202152470015224E-01 a       633     0    43     1     3
 -1.0731025013141463E-01 a       634     0    43     1     4
 -3.2919398346517831E-01 a       635     0    43     1     5
  7.2277431847403345E-02 a       636     0    43     1     6
  1.6012854618944211E-01 a       637     0    43     1     7
 -4.2071426626591447E-02 a       638     0    43     1     8
 -2.4103908252015471E-01 a       639     0    43     1     9
 -6.8401585042307915E-03 a       640     0    43     1    10
  4.4369397907858793E-01 a       641     0    43     1    11
 -1.4065737528139270E-02 a       642     0    43     1    12
 -3.3742900626394945E-01 a       643     0    43     1    13
  1.5388324255057322E-03 a       644     0    43     1    14
 -2.3168093112244664E-01 a       645     0    43     1    15
 -2.5478887202304207E-01 a       646     0    44     1     1
 -2.1149735260260041E-01 a       647     0    44     1     2
 -1.7952317062491160E-01 a       648     0    44     1     3
  1.3005285162457791E+00 a       649     0    44     1     4
  6.3132412285211958E-01 a       650     0    44     1     5
 -2.6613336859484266E-01 a       651     0    44     1     6
 -4.1894686754427500E-02 a       652     0    44     1     7
  9.0298172768981153E-02 a       653     0    44     1     8
 -2.2702370539786276E-01 a       654     0    44     1     9
 -2.3378631107205016E-02 a       655     0    44     1    10
  2.1768990812509794E-02 a       656     0    44     1    11
  3.7539118761903967E-02 a       657     0    44     1    12
  5.7700912842734564E-01 a       658     0    44     1    13
  9.6705499467088396E-02 a       659     0    44     1    14
 -8.0198390947213247E-02 a       660     0    44     1    15
 -1.3350313712486298E-01 a       661     0    45     1     1
  1.1372882935791546E+00 a       662     0    45     1     2
  1.5754546575576620E-01 a       663     0    45     1     3
  6.4056151328208522E-01 a       664     0    45     1     4
  2.3852824320387245E-01 a       665     0    45     1     5
  1.1105769682968569E+00 a       666     0    45     1     6
 -2.1110856534518652E-01 a       667     0    45     1     7
 -1.9756466002386619E-01 a       668     0    45     1     8
  1.5541200221891069E-01 a       669     0    45     1     9
  7.2679140528529251E-02 a       670     0    45     1    10
 -2.5783678147688832E-01 a       671     0    45     1    11
 -1.6204544096982737E-01 a       672     0    45     1    12
  6.6118748105057884E-02 a       673     0    45     1    13
 -7.5995255730876132E-01 a       674     0    45     1    14
  4.1998912414503786E-01 a       675     0    45     1    15
 -5.8168790057612141E-01 a       676     0    46     1     1
  3.5496337674563533E-01 a       677     0    46     1     2
  2.8800289864834300E-01 a       678     0    46     1     3
 -1.7358049884432607E+00 a       679     0    46     1     4
  3.6219338632864564E+00 a       680     0    46     1     5
 -3.4412025954408737E-01 a       681     0    46     1     6
  1.5129078592277545E+00 a       682     0    46     1     7
 -3.3218705688103483E+00 a       683     0    46     1     8
 -2.9234050608379345E+00 a       684     0    46     1     9
 -7.6929452817196417E-02 a       685     0    46     1    10
 -3.2196364592345925E+00 a       686     0    46     1    11
 -5.2533806960178608E-01 a       687     0    46     1    12
 -3.0870828359614446E+00 a       688     0    46     1    13
  1.8023889848847390E+00 a       689     0    46     1    14
 -7.2639572768128680E-01 a       690     0    46     1    15
 -2.8653180537204154E-01 a       691     0    47     1     1
  5.5842210162460899E-03 a       692     0    47     1     2
  5.6313957331825690E-02 a       693     0    47     1     3
 -1.2451398671639897E-01 a       694     0    47     1     4
 -9.1987123831993711E-01 a       695     0    47     1     5
  4.3931031645139257E-02 a       696     0    47     1     6
 -5.0427983900480033E-01 a       697     0    47     1     7
 -1.0480652931233316E+00 a       698     0    47     1     8
 -1.4346654995616143E-01 a       699     0    47     1     9
 -8.6381398727979272E-02 a       700     0    47     1    10
 -5.3193789195491914E-01 a       701     0    47     1    11
 -4.5420568956848412E-01 a       702     0    47     1    12
  2.7457545810398015E-01 a       703     0    47     1    13
  6.2054720858716071E-02 a       704     0    47     1    14
  9.1861134829632729E-01 a       705     0    47     1    15
  6.2031116873651715E-01 a       706     0    48     1     1
 -6.5397165444630589E-01 a       707     0    48     1     2
 -1.5161276933020351E-01 a       708     0    48     1     3
  7.0004991713452869E-01 a       709     0    48     1     4
 -3.2514764766012618E+00 a       710     0    48     1     5
 -7.8853098923790624E-02 a       711     0    48     1     6
 -7.3901464588403820E-01 a       712     0    48     1     7
 -5.6299897494513318E-01 a       713     0    48     1     8
  5.6165147131701698E-01 a       714     0    48     1     9
  1.7415568279354872E-02 a       715     0    48     1    10
 -9.8357834783535647E-01 a       716     0    48     1    11
 -4.3447662490742517E-01 a       717     0    48     1    12
  8.9856756025499152E-01 a       718     0    48     1    13
 -1.5464406179910389E-01 a       719     0    48     1    14
  6.7741280267498233E-02 a       720     0    48     1    15
 -3.8153748137571268E-02 a       721     0    49     1     1
  4.5035111077014783E-01 a       722     0    49     1     2
 -8.0427782527154254E-02 a       723     0    49     1     3
  1.2920384034681009E+00 a       724     0    49     1     4
 -1.1397415521160502E-01 a       725     0    49     1     5
 -1.7466823325243694E+00 a       726     0    49     1     6
 -1.1456515913567318E-01 a       727     0    49     1     7
 -1.6295975250564751E-01 a       728     0    49     1     8
  5.9097203339858972E-01 a       729     0    49     1     9
  5.7812046007303754E-02 a       730     0    49     1    10
 -3.3457495806804816E-01 a       731     0    49     1    11
  6.9680400285351352E-01 a       732     0    49     1    12
  1.2678232661513655E-01 a       733     0    49     1    13
  4.6447578963972433E-02 a       734     0    49     1    14
  2.0648438730832822E-01 a       735     0    49     1    15
  3.7073600956163261E-01 a       736     0    50     1     1
 -6.9757303412981420E-01 a       737     0    50     1     2
  5.5188881791121269E-01 a       738     0    50     1     3
  8.7947152304655074E-01 a       739     0    50     1     4
  1.0526989084994880E+00 a       740     0    50     1     5
 -5.9521342716948888E-01 a       741     0    50     1     6
 -2.3242838341255553E-01 a       742     0    50     1     7
 -4.0734414813812514E-01 a       743     0    50     1     8
 -1.9946724640892050E-01 a       744     0    50     1     9
 -1.7066960280397425E-01 a       745     0    50     1    10
 -1.4739667790738680E+00 a       746     0    50     1    11
  5.9859052233229060E-01 a       747     0    50     1    12
 -4.6183780907629335E-01 a       748     0    50     1    13
  5.5647118410747909E-01 a       749     0    50     1    14
  4.5068163002383310E-01 a       750     0    50     1    15
 -4.7986233061027311E-02 a       751     0    51     1     1
 -3.5884820832229134E+00 a       752     0    51     1     2
  8.5212603526075947E-01 a       753     0    51     1     3
 -4.9442092227916523E-01 a       754     0    51     1     4
  1.4031220084109421E+00 a       755     0    51     1     5
  1.6348482192833127E+00 a       756     0    51     1     6
 -2.5039601849066889E-01 a       757     0    51     1     7
  7.7253890114624513E-01 a       758     0    51     1     8
  2.3195992283051073E-01 a       759     0    51     1     9
 -1.2026193366191285E-01 a       760     0    51     1    10
 -4.1495005135088892E-01 a       761     0    51     1    11
 -1.4229507340576975E+00 a       762     0    51     1    12
  2.2228057583887770E-01 a       763     0    51     1    13
 -1.7260795532002093E-01 a       764     0    51     1    14
 -5.6412144026366420E-02 a       765     0    51     1    15
 -1.8547798483413314E+00 a       766     0    52     1     1
 -2.0484105405357447E+00 a       767     0    52     1     2
  3.7277045421496706E+00 a       768     0    52     1     3
 -1.1143112560123209E+00 a       769     0    52     1     4
 -1.2541490657913530E+00 a       770     0    52     1     5
  3.6274633876975115E-01 a       771     0    52     1     6
 -1.7444703384409967E+00 a       772     0    52     1     7
 -1.6648028284982801E+00 a       773     0    52     1     8
  1.4443819257852910E+00 a       774     0    52     1     9
 -5.4280493273634781E-02 a       775     0    52     1    10
 -1.6773995916534334E+00 a       776     0    52     1    11
 -2.4188470431734088E+00 a       777     0    52     1    12
  1.3291469378111442E+00 a       778     0    52     1    13
  1.6618894260639250E+00 a       779     0    52     1    14
 -3.3462341560690778E-01 a       780     0    52     1    15
 -9.4058503687732531E-01 a       781     0    53     1     1
  1.1162920899758773E+00 a       782     0    53     1     2
  5.7270672289475499E-01 a       783     0    53     1     3
  1.9595118650445607E+00 a       784     0    53     1     4
  2.2139187488007472E-01 a       785     0    53     1     5
  1.6871300849714865E+00 a       786     0    53     1     6
 -2.9435158443896658E+00 a       787     0    53     1     7
 -1.4001329494647277E+00 a       788     0    53     1     8
  9.9822202873505206E-01 a       789     0    53     1     9
 -4.1813226384755942E-01 a       790     0    53     1    10
  1.6898716429698668E+00 a       791     0    53     1    11
 -1.2066834154167696E+00 a       792     0    53     1    12
 -5.8432347983660515E-01 a       793     0    53     1    13
  1.9631139040823764E-01 a       794     0    53     1    14
  1.0957510853616497E+00 a       795     0    53     1    15
  7.7178880606111877E-01 a       796     0    54     1     1
 -1.4920373104545548E+00 a       797     0    54     1     2
 -2.1153216779180957E+00 a       798     0    54     1     3
  1.3601979417368074E-01 a       799     0    54     1     4
 -1.8549509856787836E+00 a       800     0    54     1     5
 -2.1861542391818465E+00 a       801     0    54     1     6
 -2.8529108742813767E+00 a       802     0    54     1     7
 -2.1959140480595738E+00 a       803     0    54     1     8
 -2.6663115567757729E+00 a       804     0    54     1     9
 -1.1556326149946110E+00 a       805     0    54     1    10
 -2.2630438505596095E+00 a       806     0    54     1    11
  2.2625743243384471E+00 a       807     0    54     1    12
  9.0686188463164108E-01 a       808     0    54     1    13
  2.1178491724463657E+00 a       809     0    54     1    14
  5.4560411710449186E-01 a       810     0    54     1    15
  3.4640631252916651E-02 a       811     0    55     1     1
 -5.5427555927602998E-02 a       812     0    55     1     2
  7.0455904883112230E-01 a       813     0    55     1     3
  1.6259314930279389E-01 a       814     0    55     1     4
  8.4286996453644913E-01 a       815     0    55     1     5
  1.3524953807764017E+00 a       816     0    55     1     6
  7.1974458919824025E-01 a       817     0    55     1     7
  4.4647725277486540E-02 a       818     0    55     1     8
 -8.2345815945468814E-01 a       819     0    55     1     9
 -3.1790180446276871E-02 a       820     0    55     1    10
  5.2787470563349959E-01 a       821     0    55     1    11
 -2.6324023006562058E-01 a       822     0    55     1    12
 -7.6193752995271635E-01 a       823     0    55     1    13
  3.7452845531627699E-01 a       824     0    55     1    14
  6.6445539941574830E-02 a       825     0    55     1    15
 -1.2278381699457930E-01 a       826     0    56     1     1
 -1.1440479017034166E+00 a       827     0    56     1     2
 -4.7989464148555115E-02 a       828     0    56     1     3
  2.6512568562716643E+00 a       829     0    56     1     4
  6.8059516512909590E-01 a       830     0    56     1     5
  1.4913731188497359E+00 a       831     0    56     1     6
  5.7377464160056668E-01 a       832     0    56     1     7
  4.8902033122883221E-01 a       833     0    56     1     8
 -3.3237364955009112E-02 a       834     0    56     1     9
  9.2053745460181816E-02 a       835     0    56     1    10
 -3.6555231776089921E-03 a       836     0    56     1    11
  3.4737840747089921E-01 a       837     0    56     1    12
 -1.5074012809918111E-02 a       838     0    56     1    13
  2.1795783282065906E-01 a       839     0    56     1    14
  3.7538914586177885E-01 a       840     0    56     1    15
  1.0389004011512661E+00 a       841     0    57     1     1
 -9.5098993775118587E-02 a       842     0    57     1     2
 -5.4205756246782333E-01 a       843     0    57     1     3
 -1.1361361436657469E+00 a       844     0    57     1     4
  1.2187951176631497E+00 a       845     0    57     1     5
  2.0916546432946617E-01 a       846     0    57     1     6
 -2.6967941907533566E-01 a       847     0    57     1     7
 -3.6288536572233249E-01 a       848     0    57     1     8
 -4.7845286267234027E-01 a       849     0    57     1     9
  1.1893252082009434E-01 a       850     0    57     1    10
  8.5942836086841765E-02 a       851     0    57     1    11
  4.5720432243683384E-02 a       852     0    57     1    12
 -4.3322845971312285E-01 a       853     0    57     1    13
 -8.8627519272358302E-01 a       854     0    57     1    14
 -6.8839050153615911E-01 a       855     0    57     1    15
  1.1381970420360474E+00 a       856     0    58     1     1
 -1.5172720415336485E+00 a       857     0    58     1     2
  4.7543618851513159E-01 a       858     0    58     1     3
  1.3516049629857128E+00 a       859     0    58     1     4
  1.5715584840449270E-01 a       860     0    58     1     5
  1.3699079726192684E+00 a       861     0    58     1     6
  1.6907551959515312E+00 a       862     0    58     1     7
  2.8462025901160765E-01 a       863     0    58     1     8
  6.3700680308156299E-01 a       864     0    58     1     9
 -4.6916145532903664E-01 a       865     0    58     1    10
  3.0231687078476732E-01 a       866     0    58     1    11
 -1.4846771661878166E+00 a       867     0    58     1    12
 -1.6530210620874994E+00 a       868     0    58     1    13
 -7.1910455959059771E-01 a       869     0    58     1    14
 -9.6022377215255794E-01 a       870     0    58     1    15
  2.5274935681279405E+00 a       871     0    59     1     1
  4.2628302382584088E-01 a       872     0    59     1     2
  4.0676161539904926E-01 a       873     0    59     1     3
 -5.1607623646118306E-01 a       874     0    59     1     4
  2.4880796415901871E-01 a       875     0    59     1     5
  1.9084605378353419E+00 a       876     0    59     1     6
  1.8152515412966741E+00 a       877     0    59     1     7
  1.3659105935838697E-01 a       878     0    59     1     8
  7.7513179442367786E-01 a       879     0    59     1     9
  4.7364122366051892E-01 a       880     0    59     1    10
 -3.2296878220604635E+00 a       881     0    59     1    11
  1.0430451332721897E+00 a       882     0    59     1    12
  3.6104621563053185E-01 a       883     0    59     1    13
 -9.7923937602998390E-01 a       884     0    59     1    14
 -5.7162269050997849E-01 a       885     0    59     1    15
  1.0201918338351506E+00 a       886     0    60     1     1
 -9.3759853406958160E-01 a       887     0    60     1     2
  6.7062144379076216E-01 a       888     0    60     1     3
 -1.6450885676655516E+00 a       889     0    60     1     4
  5.4972543486195291E-01 a       890     0    60     1     5
  2.7263200412843194E+00 a       891     0    60     1     6
  9.9658938690548660E-01 a       892     0    60     1     7
  1.9391036748263779E+00 a       893     0    60     1     8
  8.9767781813731007E-01 a       894     0    60     1     9
  9.2382321677104251E-01 a       895     0    60     1    10
  1.7449179019160104E+00 a       896     0    60     1    11
 -4.2990892302707540E+00 a       897     0    60     1    12
  1.1582132761757400E+00 a       898     0    60     1    13
 -1.5305951010284849E-01 a       899     0    60     1    14
 -1.1634788571967849E+00 a       900     0    60     1    15
  2.6280708559932814E-01 a       901     0    61     1     1
 -1.1842680572161024E+00 a       902     0    61     1     2
  2.1709126663721899E-02 a       903     0    61     1     3
 -8.2545090722429271E-01 a       904     0    61     1     4
 -2.5003464021004104E-02 a       905     0    61     1     5
  1.1497895109094085E+00 a       906     0    61     1     6
 -4.0074044071146932E-02 a       907     0    61     1     7
 -1.3850040909043040E-02 a       908     0    61     1     8
 -3.1013755725093484E-01 a       909     0    61     1     9
 -1.7136892646102662E-02 a       910     0    61     1    10
  1.6575728913868507E-01 a       911     0    61     1    11
 -2.4622829413086450E-01 a       912     0    61     1    12
 -4.4398264910872048E-01 a       913     0    61     1    13
 -2.1786693615266792E-01 a       914     0    61     1    14
  1.1309479084291860E+00 a       915     0    61     1    15
 -1.4373519789755385E-01 a       916     0    62     1     1
 -3.6642118276992958E-01 a       917     0    62     1     2
 -2.1663139266263962E-01 a       918     0    62     1     3
 -1.0485307629624570E+00 a       919     0    62     1     4
 -9.7363481233496163E-01 a       920     0    62     1     5
  8.8793244092915127E-02 a       921     0    62     1     6
  7.3728410568807273E-03 a       922     0    62     1     7
  7.5294662645656221E-02 a       923     0    62     1     8
 -3.0727175117580618E-01 a       924     0    62     1     9
  9.8626851494249379E-02 a       925     0    62     1    10
  1.6634411655083963E+00 a       926     0    62     1    11
 -4.5904399897631049E-01 a       927     0    62     1    12
 -2.8244693013927580E-01 a       928     0    62     1    13
 -5.5031580518181478E-01 a       929     0    62     1    14
  1.7563245226399521E-01 a       930     0    62     1    15
  5.3475273771950139E-02 a       931     0    63     1     1
  9.5778916543714410E-01 a       932     0    63     1     2
 -6.3849930766134755E-01 a       933     0    63     1     3
 -1.4875526793317903E-01 a       934     0    63     1     4
  7.8199277379023924E-01 a       935     0    63     1     5
  1.4337600901228719E-02 a       936     0    63     1     6
  5.2428066683452727E-02 a       937     0    63     1     7
 -1.4855993813969923E-01 a       938     0    63     1     8
 -3.0353953937296008E-02 a       939     0    63     1     9
  3.0470968105909872E-02 a       940     0    63     1    10
 -4.7765696537288177E-01 a       941     0    63     1    11
  8.2203058678964136E-01 a       942     0    63     1    12
  4.2202788156605449E-02 a       943     0    63     1    13
  6.0786528459384259E-01 a       944     0    63     1    14
 -6.4592177269875806E-01 a       945     0    63     1    15
  8.8324594272401791E-01 a       946     0    64     1     1
 -9.9593710149383807E-01 a       947     0    64     1     2
  1.3956626420207681E+00 a       948     0    64     1     3
 -1.2837015649057835E+00 a       949     0    64     1     4
 -2.7393940784208470E+00 a       950     0    64     1     5
 -2.3405013869090454E+00 a       951     0    64     1     6
  7.4155003460886781E-01 a       952     0    64     1     7
 -6.6419679241906471E-01 a       953     0    64     1     8
 -7.6875873715921006E-01 a       954     0    64     1     9
 -5.6575368526448222E-01 a       955     0    64     1    10
 -1.7887108853718878E+00 a       956     0    64     1    11
  1.0326608439163012E+00 a       957     0    64     1    12
 -2.0444886218385099E+00 a       958     0    64     1    13
  2.6535732520016526E+00 a       959     0    64     1    14
  8.2801198498822004E-01 a       960     0    64     1    15
  4.1490023730266551E-01 a       961     0    65     1     1
 -6.1655359267299004E-01 a       962     0    65     1     2
 -4.2887564822338475E-01 a       963     0    65     1     3
 -6.4924034738181624E-01 a       964     0    65     1     4
  9.5673832843531009E-02 a       965     0    65     1     5
  2.0011646344462140E+00 a       966     0    65     1     6
  8.4150245074613639E-01 a       967     0    65     1     7
  1.3446086729503224E+00 a       968     0    65     1     8
 -5.5615583709389038E-01 a       969     0    65     1     9
  9.6050866459069656E-03 a       970     0    65     1    10
 -9.5676512637994260E-01 a       971     0    65     1    11
  1.0467177273871853E+00 a       972     0    65     1    12
 -7.4039782787459693E-02 a       973     0    65     1    13
  1.7151551789861421E+00 a       974     0    65     1    14
 -2.1858269689991849E-01 a       975     0    65     1    15
  6.5103615618498856E-01 a       976     0    66     1     1
  2.2269052506896099E+00 a       977     0    66     1     2
  5.1190870107337061E-01 a       978     0    66     1     3
 -7.3266275333556796E-01 a       979     0    66     1     4
 -9.3737278989232553E-01 a       980     0    66     1     5
  6.7293848290410707E-01 a       981     0    66     1     6
  1.8180073431564989E-01 a       982     0    66     1     7
  7.0864878404780773E-01 a       983     0    66     1     8
  4.6978695636464479E-01 a       984     0    66     1     9
  4.1802305980929888E-01 a       985     0    66     1    10
  2.3256100828827799E+00 a       986     0    66     1    11
 -1.3264752124259045E+00 a       987     0    66     1    12
 -1.1885082372440110E+00 a       988     0    66     1    13
 -7.7694958644548628E-01 a       989     0    66     1    14
  5.3714639194366232E-01 a       990     0    66     1    15
 -3.9158203343216103E-01 a       991     0    67     1     1
  6.0928797912376664E-01 a       992     0    67     1     2
 -7.2788365014998890E-01 a       993     0    67     1     3
 -3.5750558861149451E-01 a       994     0    67     1     4
  1.2954056047399349E+00 a       995     0    67     1     5
 -5.9357164100658721E-01 a       996     0    67     1     6
 -4.4793262962308911E-01 a       997     0    67     1     7
  4.0910029902358153E-01 a       998     0    67     1     8
  2.5556095312471006E-01 a       999     0    67     1     9
  3.8489970406731196E-02 a      1000     0    67     1    10
 -7.7286841264249428E-01 a      1001     0    67     1    11
 -1.0302467879943496E-01 a      1002     0    67     1    12
  1.0426796536567262E+00 a      1003     0    67     1    13
 -4.4421575079984360E-01 a      1004     0    67     1    14
  5.6035173106332259E-01 a      1005     0    67     1    15
 -5.0853646655652007E-01 a      1006     0    68     1     1
 -2.5443644895487725E+00 a      1007     0    68     1     2
 -1.8256986912895121E-01 a      1008     0    68     1     3
 -8.5562544658906503E-01 a      1009     0    68     1     4
 -4.2232715484515621E-01 a      1010     0    68     1     5
  2.5026191305789189E+00 a      1011     0    68     1     6
 -3.8095702804187842E-01 a      1012     0    68     1     7
 -3.3681345215001901E-01 a      1013     0    68     1     8
  3.9656580905394961E-01 a      1014     0    68     1     9
  3.5278103308384171E-02 a      1015     0    68     1    10
  1.0504506902432906E-01 a      1016     0    68     1    11
 -4.3521843766064788E-01 a      1017     0    68     1    12
  4.7691156696221378E-02 a      1018     0    68     1    13
 -7.2447500558285249E-01 a      1019     0    68     1    14
 -2.6712400493540150E-01 a      1020     0    68     1    15
 -3.8977244268652667E-01 a      1021     0    69     1     1
 -4.5117166714425133E-01 a      1022     0    69     1     2
  3.5256644746694946E-02 a      1023     0    69     1     3
 -4.4333914772356275E-01 a      1024     0    69     1     4
 -3.6873960643381326E-01 a      1025     0    69     1     5
 -2.4021356460944494E+00 a      1026     0    69     1     6
  2.3106013221257038E-01 a      1027     0    69     1     7
 -5.5483667456200404E-03 a      1028     0    69     1     8
  1.1922428682101338E-01 a      1029     0    69     1     9
 -4.8988305545529284E-02 a      1030     0    69     1    10
  3.1560595718155421E-01 a      1031     0    69     1    11
  9.2196624700212754E-02 a      1032     0    69     1    12
  2.8759912104672875E-01 a      1033     0    69     1    13
  8.0940659952847160E-01 a      1034     0    69     1    14
 -3.9000216022467032E-01 a      1035     0    69     1    15
  5.4449914321378046E-01 a      1036     0    70     1     1
 -6.5791953406115211E-01 a      1037     0    70     1     2
  3.7621908307381530E-01 a      1038     0    70     1     3
 -8.2181410428261314E-01 a      1039     0    70     1     4
  2.3583642624693463E-01 a      1040     0    70     1     5
  2.8976975925721997E+00 a      1041     0    70     1     6
 -2.9518098077146067E+00 a      1042     0    70     1     7
  2.1894365993603828E+00 a      1043     0    70     1     8
  5.0136461100011243E-01 a      1044     0    70     1     9
  1.5310771108205792E-01 a      1045     0    70     1    10
 -1.3080164955880011E-01 a      1046     0    70     1    11
 -3.9431452473581037E+00 a      1047     0    70     1    12
 -1.5829527337225755E+00 a      1048     0    70     1    13
 -9.0710879942093647E-01 a      1049     0    70     1    14
 -1.9012397368912408E+00 a      1050     0    70     1    15
  1.0138631246088457E-01 a      1051     0    71     1     1
  3.1137750853043572E-01 a      1052     0    71     1     2
 -6.2926497755709032E-01 a      1053     0    71     1     3
  1.0146265761717911E-01 a      1054     0    71     1     4
 -2.1712656818909556E-01 a      1055     0    71     1     5
 -8.8303789032753566E-01 a      1056     0    71     1     6
 -7.7289133610570426E-01 a      1057     0    71     1     7
  1.1176936078872621E-01 a      1058     0    71     1     8
  4.4556343585872360E-01 a      1059     0    71     1     9
  2.2877470330125535E-02 a      1060     0    71     1    10
  1.1592208737588234E+00 a      1061     0    71     1    11
 -1.0882320554950839E+00 a      1062     0    71     1    12
  8.5929562916685343E-01 a      1063     0    71     1    13
 -3.7678158798631983E-02 a      1064     0    71     1    14
 -1.8503651644995469E+00 a      1065     0    71     1    15
 -8.9114846673908499E-01 a      1066     0    72     1     1
  8.9177413879859824E-01 a      1067     0    72     1     2
  1.0075297609603082E+00 a      1068     0    72     1     3
  3.1543778672890999E-01 a      1069     0    72     1     4
  6.0118345800692881E+00 a      1070     0    72     1     5
  6.2150202637306862E-01 a      1071     0    72     1     6
  2.0136769566814077E+00 a      1072     0    72     1     7
  5.5406228691045212E-01 a      1073     0    72     1     8
  1.5011742129365842E+00 a      1074     0    72     1     9
 -4.0828563441738336E-01 a      1075     0    72     1    10
 -1.5187180463082899E+00 a      1076     0    72     1    11
  3.6601658531072432E+00 a      1077     0    72     1    12
 -1.7249561422465254E+00 a      1078     0    72     1    13
  1.9210505699638675E-01 a      1079     0    72     1    14
  5.3539005054879441E-01 a      1080     0    72     1    15
  4.0381113471326446E-01 a      1081     0    73     1     1
  8.9782510357160672E-02 a      1082     0    73     1     2
  2.6603038524702811E-02 a      1083     0    73     1     3
 -6.9846979439699985E-01 a      1084     0    73     1     4
 -2.5392828837957232E-01 a      1085     0    73     1     5
  8.9522971550734340E-02 a      1086     0    73     1     6
  1.1960518715899736E-01 a      1087     0    73     1     7
 -1.3739874884318748E-01 a      1088     0    73     1     8
 -5.1501824425072051E-01 a      1089     0    73     1     9
 -1.5892189728244469E-01 a      1090     0    73     1    10
 -6.2077070439993387E-02 a      1091     0    73     1    11
  9.5351275232390648E-02 a      1092     0    73     1    12
 -3.5264936432435046E-01 a      1093     0    73     1    13
  6.3490991382108142E-01 a      1094     0    73     1    14
 -5.0266994687737898E-01 a      1095     0    73     1    15
  3.6908485878667979E-01 a      1096     0    74     1     1
  5.1171271075342428E-01 a      1097     0    74     1     2
 -6.3402767194227982E-01 a      1098     0    74     1     3
 -1.7858662511526411E+00 a      1099     0    74     1     4
  3.3245524864298992E-02 a      1100     0    74     1     5
 -6.5418276558277966E-01 a      1101     0    74     1     6
  3.1667652760461273E-01 a      1102     0    74     1     7
  6.3775785756956871E-01 a      1103     0    74     1     8
  4.2593826035290477E-01 a      1104     0    74     1     9
  9.9401552440191956E-02 a      1105     0    74     1    10
  1.7325373690596035E-01 a      1106     0    74     1    11
  2.1814404491544689E-02 a      1107     0    74     1    12
  5.2140837753760711E-03 a      1108     0    74     1    13
  2.1515739072124249E-01 a      1109     0    74     1    14
 -3.6615845891084969E-01 a      1110     0    74     1    15
  8.0620693323014514E-01 a      1111     0    75     1     1
  8.8581937496828000E-01 a      1112     0    75     1     2
 -9.0937246584378972E-01 a      1113     0    75     1     3
  4.8499412049369839E-01 a      1114     0    75     1     4
  2.9809250430529138E-01 a      1115     0    75     1     5
 -5.7432321426167732E-01 a      1116     0    75     1     6
  2.6955447925555504E-01 a      1117     0    75     1     7
 -4.5113595569687048E-01 a      1118     0    75     1     8
 -8.8823339776288437E-02 a      1119     0    75     1     9
  9.8648651064850615E-02 a      1120     0    75     1    10
 -2.6330627412715985E-01 a      1121     0    75     1    11
  1.3549282886250613E+00 a      1122     0    75     1    12
  2.5902617846174103E-01 a      1123     0    75     1    13
  5.0788146146152825E-02 a      1124     0    75     1    14
 -4.2110489797639389E-01 a      1125     0    75     1    15
  3.4732934225842010E-01 a      1126     0    76     1     1
 -1.3354143080539784E+00 a      1127     0    76     1     2
 -3.2119630541444377E+00 a      1128     0    76     1     3
 -4.2377173751049485E-01 a      1129     0    76     1     4
  1.7652917016151598E-01 a      1130     0    76     1     5
  1.3285822750615583E+00 a      1131     0    76     1     6
 -6.3567321985025493E-01 a      1132     0    76     1     7
 -5.7602982077672532E-02 a      1133     0    76     1     8
 -9.7525087414233025E-01 a      1134     0    76     1     9
 -6.7616565740463364E-01 a      1135     0    76     1    10
 -2.2244718803174418E-01 a      1136     0    76     1    11
  1.8872777958304530E+00 a      1137     0    76     1    12
  1.3759032199731713E+00 a      1138     0    76     1    13
 -6.1013720679730508E-02 a      1139     0    76     1    14
  1.3513902959474016E+00 a      1140     0    76     1    15
 -3.0278916198443878E-01 a      1141     0    77     1     1
  3.5663110723017016E-01 a      1142     0    77     1     2
 -8.8076061669588623E-01 a      1143     0    77     1     3
 -2.0854008497390191E+00 a      1144     0    77     1     4
  2.7533483935282521E-01 a      1145     0    77     1     5
 -4.0686498686343686E+00 a      1146     0    77     1     6
  2.6177571119175829E+00 a      1147     0    77     1     7
  9.9656979981931260E-01 a      1148     0    77     1     8
 -1.4216145626026389E+00 a      1149     0    77     1     9
  3.6796445022046559E-01 a      1150     0    77     1    10
 -2.1676237331185358E-01 a      1151     0    77     1    11
  1.3877499387838588E+00 a      1152     0    77     1    12
  1.2972832420075933E+00 a      1153     0    77     1    13
 -1.2011606195106888E+00 a      1154     0    77     1    14
  5.5488876052470049E-01 a      1155     0    77     1    15
 -7.5057578862372654E-01 a      1156     0    78     1     1
 -1.1401388968198380E+00 a      1157     0    78     1     2
  2.0696494664324366E-01 a      1158     0    78     1     3
  2.4548544737636449E+00 a      1159     0    78     1     4
  1.2717651928654103E+00 a      1160     0    78     1     5
 -1.1197748441729620E+00 a      1161     0    78     1     6
  3.8492116551610391E+00 a      1162     0    78     1     7
  9.0912884278021133E-01 a      1163     0    78     1     8
 -4.5613609025491375E-01 a      1164     0    78     1     9
  1.0787664353339588E+00 a      1165     0    78     1    10
  5.5415382161720719E-02 a      1166     0    78     1    11
  7.3589033201915705E-02 a      1167     0    78     1    12
  1.2407647770030832E+00 a      1168     0    78     1    13
 -8.1017769758698388E-01 a      1169     0    78     1    14
 -7.9515395772589081E-01 a      1170     0    78     1    15
 -5.0983722105903095E-01 a      1171     0    79     1     1
  6.6632006648493100E-02 a      1172     0    79     1     2
 -2.2111453824745839E-01 a      1173     0    79     1     3
 -4.1709944683123457E-01 a      1174     0    79     1     4
  7.4143915139230143E-01 a      1175     0    79     1     5
 -4.2364275066343871E-01 a      1176     0    79     1     6
 -3.3987828169313999E-01 a      1177     0    79     1     7
  6.3195028788619512E-01 a      1178     0    79     1     8
  2.8278163360947317E-01 a      1179     0    79     1     9
  5.3425524064639858E-02 a      1180     0    79     1    10
 -4.0983323773823917E-02 a      1181     0    79     1    11
 -2.8137038601466108E-01 a      1182     0    79     1    12
  5.8189951370994264E-01 a      1183     0    79     1    13
 -3.3020167042535686E-01 a      1184     0    79     1    14
 -8.5248270947891303E-01 a      1185     0    79     1    15
 -1.3560541684393945E+00 a      1186     0    80     1     1
 -1.4085458696987019E-01 a      1187     0    80     1     2
  5.1516908420778840E-01 a      1188     0    80     1     3
 -7.7347335483402657E-01 a      1189     0    80     1     4
 -5.3840810021079599E-01 a      1190     0    80     1     5
  1.0650059125244851E+00 a      1191     0    80     1     6
 -5.0794696158471409E-01 a      1192     0    80     1     7
 -1.0010415925239167E+00 a      1193     0    80     1     8
  1.6379524763700826E+00 a      1194     0    80     1     9
  1.6438517713985173E-02 a      1195     0    80     1    10
 -2.1032292646754280E-02 a      1196     0    80     1    11
 -6.3283655346718404E-01 a      1197     0    80     1    12
 -2.9656069404827351E-01 a      1198     0    80     1    13
  2.8955095831114352E-01 a      1199     0    80     1    14
  2.1537291748281337E-01 a      1200     0    80     1    15
 -1.0079051145611493E+00 a      1201     0    81     1     1
  1.2019268571913160E+00 a      1202     0    81     1     2
  1.4301074529873251E-01 a      1203     0    81     1     3
  7.7949236431233881E-01 a      1204     0    81     1     4
  8.5070343458400519E-02 a      1205     0    81     1     5
 -8.3361704308892295E-02 a      1206     0    81     1     6
 -2.3010594297783168E-02 a      1207     0    81     1     7
 -1.4914207670402807E-01 a      1208     0    81     1     8
  1.2136257218817232E+00 a      1209     0    81     1     9
 -3.5877809648885033E-02 a      1210     0    81     1    10
 -5.4425557933561086E-01 a      1211     0    81     1    11
 -1.8670039957493792E-01 a      1212     0    81     1    12
  6.5124399967064517E-01 a      1213     0    81     1    13
  1.0462823615269481E+00 a      1214     0    81     1    14
  2.7041069852617738E-01 a      1215     0    81     1    15
  6.7855919587045355E-01 a      1216     0    82     1     1
  1.4609430671114554E-01 a      1217     0    82     1     2
 -2.9043781620407683E+00 a      1218     0    82     1     3
  2.1341797672661023E+00 a      1219     0    82     1     4
 -4.7568335308133092E-02 a      1220     0    82     1     5
  4.5265996928398083E-01 a      1221     0    82     1     6
  9.0289969764155953E-01 a      1222     0    82     1     7
 -1.0433726866073894E+00 a      1223     0    82     1     8
  3.9854954600530172E-02 a      1224     0    82     1     9
  1.3834767847983400E+00 a      1225     0    82     1    10
 -1.0901558292789609E-01 a      1226     0    82     1    11
  3.8114486541534647E+00 a      1227     0    82     1    12
  1.1500205867758366E+00 a      1228     0    82     1    13
 -1.3294466004856176E+00 a      1229     0    82     1    14
  1.8196100264800355E-01 a      1230     0    82     1    15
  2.2299004331290134E-01 a      1231     0    83     1     1
 -7.4148097371700405E-01 a      1232     0    83     1     2
 -3.7167084652319538E-01 a      1233     0    83     1     3
 -2.4923675377498744E-01 a      1234     0    83     1     4
 -9.0008151934261227E-01 a      1235     0    83     1     5
  5.3891142875954909E-02 a      1236     0    83     1     6
 -7.5788422017420953E-01 a      1237     0    83     1     7
 -3.5013451307219262E-01 a      1238     0    83     1     8
  1.5606940316838330E-01 a      1239     0    83     1     9
 -2.8681940016469926E-01 a      1240     0    83     1    10
 -4.1916407917940934E-01 a      1241     0    83     1    11
 -6.6076345364212852E-01 a      1242     0    83     1    12
 -2.1581189506761775E-01 a      1243     0    83     1    13
  1.5473085517064549E+00 a      1244     0    83     1    14
 -6.6009405726841963E-01 a      1245     0    83     1    15
  5.0458863228214390E-01 a      1246     0    84     1     1
  1.2131955007591057E-01 a      1247     0    84     1     2
  3.7215998131916974E+00 a      1248     0    84     1     3
 -1.1749121649886718E+00 a      1249     0    84     1     4
  8.8785432682432761E-02 a      1250     0    84     1     5
 -2.1059813650169770E-01 a      1251     0    84     1     6
  4.5686023849304808E-01 a      1252     0    84     1     7
 -1.2336749029559888E+00 a      1253     0    84     1     8
  3.9211823253350739E+00 a      1254     0    84     1     9
 -3.8413405525388711E-01 a      1255     0    84     1    10
  1.9092049169151402E+00 a      1256     0    84     1    11
 -1.4597678710388723E-01 a      1257     0    84     1    12
 -4.3082527613615191E+00 a      1258     0    84     1    13
 -1.9621973983040037E+00 a      1259     0    84     1    14
 -1.4528320557777188E-01 a      1260     0    84     1    15
 -2.9411791447187613E-01 a      1261     0    85     1     1
  9.6026944906715039E-01 a      1262     0    85     1     2
 -2.7101382426562202E-02 a      1263     0    85     1     3
  4.1788289930748151E-01 a      1264     0    85     1     4
  1.9602733779089360E-01 a      1265     0    85     1     5
 -7.5927313805430052E-01 a      1266     0    85     1     6
  5.0971140999798686E-02 a      1267     0    85     1     7
  8.8076337498477805E-02 a      1268     0    85     1     8
  1.8697914930144716E-01 a      1269     0    85     1     9
  6.0991054029162217E-02 a      1270     0    85     1    10
  1.2651099364993906E-01 a      1271     0    85     1    11
 -1.0417314927665848E-01 a      1272     0    85     1    12
  5.1770913165746868E-01 a      1273     0    85     1    13
 -8.4389242794897623E-02 a      1274     0    85     1    14
 -1.1418046961911088E+00 a      1275     0    85     1    15
  7.0471743220851091E-02 a      1276     0    86     1     1
  8.5600318791787366E-01 a      1277     0    86     1     2
  4.1283095264104058E-01 a      1278     0    86     1     3
  1.0556441670651653E+00 a      1279     0    86     1     4
  3.5902985205005233E-01 a      1280     0    86     1     5
 -2.5200178715195232E-01 a      1281     0    86     1     6
 -4.0683207070197548E-02 a      1282     0    86     1     7
 -2.2692449712783089E-01 a      1283     0    86     1     8
  1.6301539497287906E-02 a      1284     0    86     1     9
 -1.0216003343114889E-01 a      1285     0    86     1    10
 -1.0535698762321364E+00 a      1286     0    86     1    11
 -1.0316802377796494E-01 a      1287     0    86     1    12
  4.3083577157288161E-01 a      1288     0    86     1    13
  4.1910533123833765E-01 a      1289     0    86     1    14
 -4.3875363092652092E-01 a      1290     0    86     1    15
 -4.2417481582874755E-01 a      1291     0    87     1     1
 -2.2855131221353150E-01 a      1292     0    87     1     2
  6.0401272719029475E-01 a      1293     0    87     1     3
  1.2737205184488837E-01 a      1294     0    87     1     4
 -9.1813942010677052E-01 a      1295     0    87     1     5
 -3.4596863404268879E-01 a      1296     0    87     1     6
  3.6756159854310431E-02 a      1297     0    87     1     7
  1.3365961546289273E-01 a      1298     0    87     1     8
  8.7194587653729436E-02 a      1299     0    87     1     9
 -2.9058767205754548E-02 a      1300     0    87     1    10
  5.9007057171483324E-01 a      1301     0    87     1    11
 -6.1044944027672488E-01 a      1302     0    87     1    12
 -1.8463119104119380E-01 a      1303     0    87     1    13
 -2.7027654195681167E-01 a      1304     0    87     1    14
 -4.5510437117183467E-01 a      1305     0    87     1    15
  8.5454829604423410E-01 a      1306     0    88     1     1
  1.3007087274012319E+00 a      1307     0    88     1     2
 -2.0211977776655026E+00 a      1308     0    88     1     3
 -1.6396992030021873E+00 a      1309     0    88     1     4
 -1.0615075247269132E+00 a      1310     0    88     1     5
 -2.1144433281960180E+00 a      1311     0    88     1     6
 -2.7070417686988124E-01 a      1312     0    88     1     7
  2.6738518280955401E+00 a      1313     0    88     1     8
  7.4046918811010753E-01 a      1314     0    88     1     9
  8.6279152327586683E-01 a      1315     0    88     1    10
  4.6205607467226875E+00 a      1316     0    88     1    11
 -1.6162549143113660E+00 a      1317     0    88     1    12
 -4.9446933417983974E-01 a      1318     0    88     1    13
 -7.5512526845722983E-01 a      1319     0    88     1    14
  1.9205052221506118E+00 a      1320     0    88     1    15
  2.0309176706309409E-01 a      1321     0    89     1     1
 -2.4878975015965377E-01 a      1322     0    89     1     2
  5.2591649411324104E-01 a      1323     0    89     1     3
  1.1075663156546298E+00 a      1324     0    89     1     4
  1.0820100723011858E+00 a      1325     0    89     1     5
 -4.6166762045935972E-01 a      1326     0    89     1     6
 -8.9712274568369199E-01 a      1327     0    89     1     7
 -1.2217929154409803E+00 a      1328     0    89     1     8
  1.0024385531470619E+00 a      1329     0    89     1     9
 -1.2301442639839948E-02 a      1330     0    89     1    10
 -2.9451247501129402E-01 a      1331     0    89     1    11
 -1.1296046352286859E+00 a      1332     0    89     1    12
  1.0750888816418227E-02 a      1333     0    89     1    13
 -1.0629176358501642E+00 a      1334     0    89     1    14
 -8.0714176876942212E-01 a      1335     0    89     1    15
 -1.0067985953960883E+00 a      1336     0    90     1     1
  1.1620357254096008E+00 a      1337     0    90     1     2
  2.9376556618853888E-01 a      1338     0    90     1     3
  7.9852749260502465E-01 a      1339     0    90     1     4
  2.1470408921479063E+00 a      1340     0    90     1     5
 -7.2910236349570723E-01 a      1341     0    90     1     6
 -6.2414148713771392E-02 a      1342     0    90     1     7
 -2.0680383395368562E-01 a      1343     0    90     1     8
  4.7490660062848261E-01 a      1344     0    90     1     9
 -2.2804077307734200E-01 a      1345     0    90     1    10
 -3.7091303308111850E-01 a      1346     0    90     1    11
  1.2991531072015894E+00 a      1347     0    90     1    12
  2.2281109855188938E-01 a      1348     0    90     1    13
 -4.7172212190549190E-01 a      1349     0    90     1    14
  1.4366219318217224E+00 a      1350     0    90     1    15
  4.1981449169777912E-01 a      1351     0    91     1     1
  3.8934906415791426E-01 a      1352     0    91     1     2
  2.5306689295938595E-01 a      1353     0    91     1     3
  3.5962443655776610E-01 a      1354     0    91     1     4
 -3.6276302489119217E-01 a      1355     0    91     1     5
  3.4028053969549693E-01 a      1356     0    91     1     6
  5.0981579106569044E-02 a      1357     0    91     1     7
 -3.5934610200540240E-01 a      1358     0    91     1     8
  7.5275917220886432E-02 a      1359     0    91     1     9
 -5.0188330415811369E-04 a      1360     0    91     1    10
  1.8795673487174594E-01 a      1361     0    91     1    11
 -1.1945657027660637E-01 a      1362     0    91     1    12
  2.1804285007460331E-02 a      1363     0    91     1    13
 -3.7227084662644606E-02 a      1364     0    91     1    14
  2.0203140660048832E-01 a      1365     0    91     1    15
  6.7645649111654516E-01 a      1366     0    92     1     1
  1.5377228123071734E-01 a      1367     0    92     1     2
  1.4020486162157333E-01 a      1368     0    92     1     3
 -5.6012971882335361E-01 a      1369     0    92     1     4
  3.1666172371435558E-01 a      1370     0    92     1     5
 -1.6987832098344702E+00 a      1371     0    92     1     6
  2.8503808242209372E-01 a      1372     0    92     1     7
  2.0258838546824984E-01 a      1373     0    92     1     8
 -3.7334732459715592E-01 a      1374     0    92     1     9
 -8.1362356069997997E-03 a      1375     0    92     1    10
 -9.1979708205963084E-01 a      1376     0    92     1    11
  5.6429334079018512E-01 a      1377     0    92     1    12
 -4.0491400842300473E-01 a      1378     0    92     1    13
  4.2859339454628231E-01 a      1379     0    92     1    14
  3.9168042629726618E-02 a      1380     0    92     1    15
  8.8674442301423217E-01 a      1381     0    93     1     1
 -1.3032597382896396E+00 a      1382     0    93     1     2
  1.6356913888500768E-01 a      1383     0    93     1     3
 -1.7320420566451911E-01 a      1384     0    93     1     4
  3.8327405559832778E-01 a      1385     0    93     1     5
  3.4713798456288564E-01 a      1386     0    93     1     6
 -3.6291797307991785E-02 a      1387     0    93     1     7
  1.4529012464958999E-01 a      1388     0    93     1     8
 -5.4885844153517149E-01 a      1389     0    93     1     9
 -5.6905421658769009E-02 a      1390     0    93     1    10
  6.9779924238570690E-01 a      1391     0    93     1    11
  2.2236161542951621E-01 a      1392     0    93     1    12
 -5.7662506807044700E-01 a      1393     0    93     1    13
  8.2430844358175812E-02 a      1394     0    93     1    14
 -9.5179883820918409E-01 a      1395     0    93     1    15
 -9.0392620258744072E-01 a      1396     0    94     1     1
  9.0207054283626775E-01 a      1397     0    94     1     2
  1.2454865439723546E+00 a      1398     0    94     1     3
  1.7191459774279201E+00 a      1399     0    94     1     4
  1.9422729090242592E+00 a      1400     0    94     1     5
  1.8988630737896703E-01 a      1401     0    94     1     6
 -1.9306035237577275E+00 a      1402     0    94     1     7
 -1.0239423455752177E+00 a      1403     0    94     1     8
  3.1331676916241356E+00 a      1404     0    94     1     9
 -4.3996266630675585E-01 a      1405     0    94     1    10
  2.4516865771320089E+00 a      1406     0    94     1    11
  4.0463910318906633E+00 a      1407     0    94     1    12
  9.0505510401049367E+00 a      1408     0    94     1    13
  1.0666343431909764E+00 a      1409     0    94     1    14
 -2.2537746173714368E-01 a      1410     0    94     1    15
  9.6014550081334327E-01 a      1411     0    95     1     1
  3.4624590853746751E-01 a      1412     0    95     1     2
  3.6988870003297369E-02 a      1413     0    95     1     3
  1.9997770844042975E+00 a      1414     0    95     1     4
  1.1810559664243616E+00 a      1415     0    95     1     5
  9.6017048311076880E-01 a      1416     0    95     1     6
  2.3316260234019601E-01 a      1417     0    95     1     7
  8.9194137473539617E-02 a      1418     0    95     1     8
  6.5200918400566132E-02 a      1419     0    95     1     9
  1.3989139588712476E-01 a      1420     0    95     1    10
  7.5630314080937255E-01 a      1421     0    95     1    11
  8.1287103600434474E-01 a      1422     0    95     1    12
  3.6721071744325606E-01 a      1423     0    95     1    13
 -8.4817974400514817E-01 a      1424     0    95     1    14
  1.8293627470477958E-01 a      1425     0    95     1    15
  1.5874000236491264E+00 a      1426     0    96     1     1
 -1.1310182279945453E+00 a      1427     0    96     1     2
 -4.5063857736466861E-01 a      1428     0    96     1     3
  3.0155069445168892E-01 a      1429     0    96     1     4
 -3.7300030355551459E+00 a      1430     0    96     1     5
 -3.9042769840431057E-01 a      1431     0    96     1     6
 -1.9358269708862841E-02 a      1432     0    96     1     7
  5.0716736421015374E-01 a      1433     0    96     1     8
 -1.2971672693659766E+00 a      1434     0    96     1     9
  1.7443683949443115E-01 a      1435     0    96     1    10
  1.5560004126974023E+00 a      1436     0    96     1    11
  1.1851418438613624E-01 a      1437     0    96     1    12
 -9.6436330259915537E-01 a      1438     0    96     1    13
  7.2746228516013878E-01 a      1439     0    96     1    14
 -7.9992148614870795E-01 a      1440     0    96     1    15
  2.2862046391095661E-01 a      1441     0    97     1     1
  5.1281855951789190E-01 a      1442     0    97     1     2
  1.3202131578569554E+00 a      1443     0    97     1     3
 -7.2231003709652297E-02 a      1444     0    97     1     4
 -5.9054406508837232E-01 a      1445     0    97     1     5
  1.2090136544741510E+00 a      1446     0    97     1     6
 -5.5811211057130536E-02 a      1447     0    97     1     7
  9.7512286140021498E-02 a      1448     0    97     1     8
 -1.6657002931498846E-01 a      1449     0    97     1     9
 -2.2539339715106576E-03 a      1450     0    97     1    10
  6.5072198106222268E-01 a      1451     0    97     1    11
 -6.1560900553934372E-01 a      1452     0    97     1    12
 -9.3585407436240475E-01 a      1453     0    97     1    13
 -1.9270090267870857E-01 a      1454     0    97     1    14
 -1.2357079477287888E-01 a      1455     0    97     1    15
 -3.0301814763226548E-01 a      1456     0    98     1     1
 -1.3483923706459580E+00 a      1457     0    98     1     2
  2.0961477418627394E-01 a      1458     0    98     1     3
  2.4484698977171693E-01 a      1459     0    98     1     4
  9.1993699695141828E-01 a      1460     0    98     1     5
  7.9142413883170026E-01 a      1461     0    98     1     6
 -1.0404118320769340E-01 a      1462     0    98     1     7
 -9.7701278049654700E-02 a      1463     0    98     1     8
  4.0682929074941737E-01 a      1464     0    98     1     9
 -1.1035762532773837E-02 a      1465     0    98     1    10
 -1.2455229880749870E-01 a      1466     0    98     1    11
  5.4875604865065031E-01 a      1467     0    98     1    12
 -2.4945835972473981E-01 a      1468     0    98     1    13
 -9.0827930533020504E-02 a      1469     0    98     1    14
  1.5234985886938146E-02 a      1470     0    98     1    15
 -9.0766748007888542E-01 a      1471     0    99     1     1
  8.4300017816908257E-01 a      1472     0    99     1     2
 -1.0401503740170356E-01 a      1473     0    99     1     3
 -1.1207054136956891E+00 a      1474     0    99     1     4
 -6.1365950890249321E-01 a      1475     0    99     1     5
 -3.9283496431558068E-01 a      1476     0    99     1     6
  1.7033215474460700E-01 a      1477     0    99     1     7
  1.8513736128641078E-01 a      1478     0    99     1     8
  5.9122946427758664E-02 a      1479     0    99     1     9
  4.5264258988686003E-02 a      1480     0    99     1    10
  8.4829051493742050E-02 a      1481     0    99     1    11
 -3.8228371469968070E-01 a      1482     0    99     1    12
 -4.9822859395084212E-02 a      1483     0    99     1    13
  2.2159613772058928E-01 a      1484     0    99     1    14
 -5.7051623874820201E-01 a      1485     0    99     1    15
 -9.4892371807187648E-01 a      1486     0   100     1     1
  2.7354246627134549E-01 a      1487     0   100     1     2
  1.5133961149550390E+00 a      1488     0   100     1     3
  6.7737244962591225E-01 a      1489     0   100     1     4
  1.0424323534602320E+00 a      1490     0   100     1     5
 -1.7449998647877356E+00 a      1491     0   100     1     6
  3.3602525556395606E+00 a      1492     0   100     1     7
 -7.9397820503400152E-01 a      1493     0   100     1     8
 -5.0577332033785827E-01 a      1494     0   100     1     9
  4.1393283111068507E-01 a      1495     0   100     1    10
  3.8660254590989668E-01 a      1496     0   100     1    11
  2.9594559099687521E+00 a      1497     0   100     1    12
  1.5274841251464129E+00 a      1498     0   100     1    13
  2.2598193793948163E+00 a      1499     0   100     1    14
  1.9150193141517651E+00 a      1500     0   100     1    15
 -1.8438508980820072E+00 a      1501     0   101     1     1
  9.4274246953269907E-03 a      1502     0   101     1     2
 -7.2642014310255065E-01 a      1503     0   101     1     3
 -1.8686832435922844E+00 a      1504     0   101     1     4
 -1.7827587233394565E-01 a      1505     0   101     1     5
  1.4468798341238560E+00 a      1506     0   101     1     6
 -2.8406167200100463E-01 a      1507     0   101     1     7
  7.9406469627037701E-01 a      1508     0   101     1     8
  1.0977976403055472E+00 a      1509     0   101     1     9
  7.9156180792074732E-03 a      1510     0   101     1    10
 -2.1430244234319309E+00 a      1511     0   101     1    11
  2.6340508735156887E-01 a      1512     0   101     1    12
  3.1821907133462812E-01 a      1513     0   101     1    13
  5.4947952679693013E-01 a      1514     0   101     1    14
  5.6131399671793236E-01 a      1515     0   101     1    15
  5.1086445352621669E-02 a      1516     0   102     1     1
  1.2851664445315110E+00 a      1517     0   102     1     2
  8.3135014575095145E-01 a      1518     0   102     1     3
 -2.4750703287997977E+00 a      1519     0   102     1     4
 -1.3114256308521495E+00 a      1520     0   102     1     5
 -2.3443521990284302E-01 a      1521     0   102     1     6
  2.1473986388362318E-01 a      1522     0   102     1     7
  1.2825992082457289E+00 a      1523     0   102     1     8
  5.8380486144571787E-02 a      1524     0   102     1     9
 -3.9714976039527933E-01 a      1525     0   102     1    10
  2.4159194162726503E+00 a      1526     0   102     1    11
 -1.2374474273074261E+00 a      1527     0   102     1    12
 -2.0512952336835499E+00 a      1528     0   102     1    13
  1.5042633396307505E+00 a      1529     0   102     1    14
 -1.8568081760034996E-01 a      1530     0   102     1    15
  3.7164551704195925E-01 a      1531     0   103     1     1
 -7.2421758633112454E-02 a      1532     0   103     1     2
  1.1820831689080973E-01 a      1533     0   103     1     3
  7.4066043134398407E-01 a      1534     0   103     1     4
 -4.8053348658320527E-01 a      1535     0   103     1     5
 -1.9749689859523592E-01 a      1536     0   103     1     6
  2.6337990459757177E-01 a      1537     0   103     1     7
 -6.5373067523070794E-01 a      1538     0   103     1     8
 -4.9606759918303556E-01 a      1539     0   103     1     9
 -2.2616019282765718E-02 a      1540     0   103     1    10
  4.6524244270537035E-01 a      1541     0   103     1    11
  2.4401120208128280E-01 a      1542     0   103     1    12
 -2.4692414739547747E-01 a      1543     0   103     1    13
  2.5497526683322103E-01 a      1544     0   103     1    14
  4.5150023404990397E-01 a      1545     0   103     1    15
  1.1014739948285970E+00 a      1546     0   104     1     1
 -1.8035651406259703E+00 a      1547     0   104     1     2
  3.2166848901071354E-01 a      1548     0   104     1     3
  5.5681826021080161E-01 a      1549     0   104     1     4
  6.2044217169187388E-01 a      1550     0   104     1     5
  1.8533272358439616E+00 a      1551     0   104     1     6
  1.1658562737016474E-01 a      1552     0   104     1     7
 -1.8770439071582823E-01 a      1553     0   104     1     8
 -7.6989793859104327E-01 a      1554     0   104     1     9
 -3.5291710640298027E-02 a      1555     0   104     1    10
  1.5092494250022545E-01 a      1556     0   104     1    11
 -7.5954375028210996E-01 a      1557     0   104     1    12
 -3.8524822596606473E-01 a      1558     0   104     1    13
  4.4404409800622852E-01 a      1559     0   104     1    14
  1.4278675472598926E-01 a      1560     0   104     1    15
  7.3610349146563581E-01 a      1561     0   105     1     1
 -1.1754793025074777E+00 a      1562     0   105     1     2
  5.2945725672526499E-02 a      1563     0   105     1     3
  8.2400703694506516E-01 a      1564     0   105     1     4
  5.6011993782849478E-01 a      1565     0   105     1     5
 -1.9405031607606457E-01 a      1566     0   105     1     6
 -8.0248554011013898E-02 a      1567     0   105     1     7
  4.1313295094433794E-02 a      1568     0   105     1     8
 -1.5896761676903048E-01 a      1569     0   105     1     9
 -1.2299159004963065E-02 a      1570     0   105     1    10
 -2.7989512703819070E-02 a      1571     0   105     1    11
  2.9283213309971096E-01 a      1572     0   105     1    12
 -1.1446532470739983E-01 a      1573     0   105     1    13
 -1.3443730434332141E-01 a      1574     0   105     1    14
  3.2744210014860808E-01 a      1575     0   105     1    15
  4.9069661496600647E-01 a      1576     0   106     1     1
 -1.3750764819263026E+00 a      1577     0   106     1     2
 -8.3079981085407628E-01 a      1578     0   106     1     3
 -9.9099117506019441E-01 a      1579     0   106     1     4
 -2.2598243957271569E+00 a      1580     0   106     1     5
 -1.3071065167514671E+00 a      1581     0   106     1     6
 -2.2110853416864300E+00 a      1582     0   106     1     7
  1.1983562166700679E+00 a      1583     0   106     1     8
  3.2508951419694088E-01 a      1584     0   106     1     9
 -1.0385969925555165E+00 a      1585     0   106     1    10
  1.6203613789992144E+00 a      1586     0   106     1    11
  2.8383930179324874E+00 a      1587     0   106     1    12
 -4.8335381386602982E-01 a      1588     0   106     1    13
  9.5409267559223465E-01 a      1589     0   106     1    14
  8.4357277535783468E-02 a      1590     0   106     1    15
  4.8691428859853764E-01 a      1591     0   107     1     1
  1.0489429441255696E-01 a      1592     0   107     1     2
  4.0417646737130564E-01 a      1593     0   107     1     3
  3.5534059359451482E+00 a      1594     0   107     1     4
  1.3607663239854226E+00 a      1595     0   107     1     5
  1.0017470508672337E+00 a      1596     0   107     1     6
  5.3317419783504694E-01 a      1597     0   107     1     7
 -1.4262707536380803E-01 a      1598     0   107     1     8
 -6.5881464000632647E-02 a      1599     0   107     1     9
  5.2268584384031314E-02 a      1600     0   107     1    10
  6.4116986501392553E-02 a      1601     0   107     1    11
  7.9826742539899120E-01 a      1602     0   107     1    12
  7.1616782849565663E-01 a      1603     0   107     1    13
 -7.5498397594836864E-01 a      1604     0   107     1    14
 -1.1734137142399765E+00 a      1605     0   107     1    15
  2.9277497317694906E-01 a      1606     0   108     1     1
 -2.4642444029933817E+00 a      1607     0   108     1     2
 -7.3657839573614492E-01 a      1608     0   108     1     3
  1.1079911103158213E+00 a      1609     0   108     1     4
 -3.5036323034392161E+00 a      1610     0   108     1     5
  3.1199512461309770E-01 a      1611     0   108     1     6
  4.7561289670037810E-01 a      1612     0   108     1     7
 -1.3038040490251013E+00 a      1613     0   108     1     8
 -2.0168115829459996E+00 a      1614     0   108     1     9
  1.9801886174601027E-01 a      1615     0   108     1    10
  1.0539572701000381E+00 a      1616     0   108     1    11
  2.4387298883787037E-01 a      1617     0   108     1    12
  2.9768028316696976E-01 a      1618     0   108     1    13
 -5.1534760833991444E-01 a      1619     0   108     1    14
 -1.9443282052968940E+00 a      1620     0   108     1    15
 -6.1289560069623876E-02 a      1621     0   109     1     1
 -3.5469487237823605E-01 a      1622     0   109     1     2
 -1.7830806432191132E-01 a      1623     0   109     1     3
