################################################################################
# Neural network connection values (weights and biases).
################################################################################
# Col  Name       Description
################################################################################
# 1    connection Neural network connection value.
# 2    t          Connection type (a = weight, b = bias).
# 3    index      Index enumerating weights.
# 4    l_s        Starting point layer (end point layer for biases).
# 5    n_s        Starting point neuron in starting layer (end point neuron for biases).
# 6    l_e        End point layer.
# 7    n_e        End point neuron in end layer.
################################################################################
#                      1 2         3     4     5     6     7
#             connection t     index   l_s   n_s   l_e   n_e
############################################################
 -3.2021906448825227E-01 a         1     0     1     1     1
 -5.7647504974980723E-01 a         2     0     1     1     2
 -1.3016746853204602E+00 a         3     0     1     1     3
 -1.7713623764405690E+00 a         4     0     1     1     4
  7.5866230783987476E-01 a         5     0     1     1     5
  7.6241333808854572E-01 a         6     0     1     1     6
 -1.1346476883877608E+00 a         7     0     1     1     7
  1.2709743964479556E+00 a         8     0     1     1     8
  1.2508282970743887E+00 a         9     0     1     1     9
  1.0541583550311925E-02 a        10     0     1     1    10
  1.5111183516527611E+00 a        11     0     1     1    11
  4.7928175229008962E-01 a        12     0     1     1    12
 -1.4741446682285038E+00 a        13     0     1     1    13
  5.0122814974989605E-01 a        14     0     1     1    14
  6.3366699477294258E-02 a        15     0     1     1    15
  3.4018920193227331E-01 a        16     0     2     1     1
 -1.5256236071182585E+00 a        17     0     2     1     2
 -9.3688445440131873E-01 a        18     0     2     1     3
 -6.7029182318289271E-01 a        19     0     2     1     4
  1.8685717147268210E+00 a        20     0     2     1     5
  2.1914874529310495E+00 a        21     0     2     1     6
 -1.2193375881999138E+00 a        22     0     2     1     7
 -3.5677489554756764E-01 a        23     0     2     1     8
  6.3275465696422284E-01 a        24     0     2     1     9
  1.1415372885592170E+00 a        25     0     2     1    10
  1.1602080200355791E+00 a        26     0     2     1    11
  9.8675020845131378E-01 a        27     0     2     1    12
 -9.0670307636210312E-02 a        28     0     2     1    13
 -2.5325042511399154E+00 a        29     0     2     1    14
 -2.1871741802037352E+00 a        30     0     2     1    15
  4.9353077731656630E-01 a        31     0     3     1     1
  2.0826695975040490E+00 a        32     0     3     1     2
 -1.2000841377343758E+00 a        33     0     3     1     3
 -5.6966842133612419E+00 a        34     0     3     1     4
 -2.3085533941087033E+00 a        35     0     3     1     5
  1.5623477784294479E+00 a        36     0     3     1     6
 -3.5808041107430251E+00 a        37     0     3     1     7
  4.4176380695437176E+00 a        38     0     3     1     8
 -3.0142085538916010E+00 a        39     0     3     1     9
 -3.2527018831532262E+00 a        40     0     3     1    10
 -3.2057046473687252E+00 a        41     0     3     1    11
  8.8045009503718852E-02 a        42     0     3     1    12
 -3.4310567445890161E+00 a        43     0     3     1    13
 -3.9751217658760276E+00 a        44     0     3     1    14
 -3.5623535442294973E+00 a        45     0     3     1    15
  9.6929012328400765E-01 a        46     0     4     1     1
 -2.4148989154234018E-01 a        47     0     4     1     2
  5.9990862682775803E-01 a        48     0     4     1     3
  4.5691410148185572E+00 a        49     0     4     1     4
 -7.0800021670155713E-02 a        50     0     4     1     5
  5.4128126446549896E-01 a        51     0     4     1     6
 -5.4477100919343147E-01 a        52     0     4     1     7
  3.8592184867872265E-01 a        53     0     4     1     8
 -9.7796259996429424E-01 a        54     0     4     1     9
 -6.7433407928818956E-01 a        55     0     4     1    10
 -5.0911325519537187E-01 a        56     0     4     1    11
  2.9754252245594293E-01 a        57     0     4     1    12
  2.5695491303616875E+00 a        58     0     4     1    13
 -1.3384606842815576E+00 a        59     0     4     1    14
 -5.4019725562826482E-01 a        60     0     4     1    15
 -6.8030817843410196E-01 a        61     0     5     1     1
 -1.0055761957577636E+00 a        62     0     5     1     2
 -5.2106901169287090E-01 a        63     0     5     1     3
 -7.5144875052303040E-01 a        64     0     5     1     4
 -3.8245826605720590E-01 a        65     0     5     1     5
  3.8376502781141186E-01 a        66     0     5     1     6
 -1.7334977104808660E+00 a        67     0     5     1     7
 -1.0963047471620921E-01 a        68     0     5     1     8
 -8.0532792208815263E-01 a        69     0     5     1     9
 -5.4651667592147302E-01 a        70     0     5     1    10
  1.9520419996881218E+00 a        71     0     5     1    11
  4.0430389840167669E-01 a        72     0     5     1    12
 -1.2784749035616891E+00 a        73     0     5     1    13
  6.9150853756886554E-01 a        74     0     5     1    14
  1.0606057379430018E+00 a        75     0     5     1    15
 -7.5182543422290371E-01 a        76     0     6     1     1
 -2.5245423931002549E+00 a        77     0     6     1     2
  8.9599486546035467E-01 a        78     0     6     1     3
  1.3184441348125521E+01 a        79     0     6     1     4
  1.8282805724109130E+00 a        80     0     6     1     5
 -2.2861017899309326E+00 a        81     0     6     1     6
  4.4485315563780270E-01 a        82     0     6     1     7
  1.0412449888801341E+00 a        83     0     6     1     8
 -2.8781976695017311E+00 a        84     0     6     1     9
  3.0167640047090232E+00 a        85     0     6     1    10
  3.9741872021173283E+00 a        86     0     6     1    11
  1.6322132205473958E-01 a        87     0     6     1    12
  5.6314491471147390E+00 a        88     0     6     1    13
  3.2683427279516799E+00 a        89     0     6     1    14
  3.0583316314558497E+00 a        90     0     6     1    15
 -5.2302975918119288E-01 a        91     0     7     1     1
  6.7235925502577143E-01 a        92     0     7     1     2
  8.8166048118164553E-01 a        93     0     7     1     3
 -5.3047008476175801E+00 a        94     0     7     1     4
  6.9279953705878572E-01 a        95     0     7     1     5
 -4.9046444249977111E-01 a        96     0     7     1     6
 -4.9282427855314809E-01 a        97     0     7     1     7
 -1.5787741651230012E+00 a        98     0     7     1     8
 -1.2763387477742154E+00 a        99     0     7     1     9
  4.2941089213580380E-01 a       100     0     7     1    10
 -6.0131275299508857E-01 a       101     0     7     1    11
 -1.8908627024810867E-01 a       102     0     7     1    12
 -1.2832204305380370E+00 a       103     0     7     1    13
 -4.1689805330326146E-01 a       104     0     7     1    14
  5.7796174058014704E-01 a       105     0     7     1    15
 -4.4059896347231414E-01 a       106     0     8     1     1
 -4.0791160608678712E-01 a       107     0     8     1     2
  8.6998794674085766E-01 a       108     0     8     1     3
  2.6749555523496866E+00 a       109     0     8     1     4
 -1.1648709309530056E+00 a       110     0     8     1     5
  3.7915981117767206E-01 a       111     0     8     1     6
 -4.6540917617550065E-01 a       112     0     8     1     7
  9.2187141861086352E-01 a       113     0     8     1     8
 -9.2848539911513039E-01 a       114     0     8     1     9
 -4.3004687550775950E-01 a       115     0     8     1    10
 -7.1158143600136670E-01 a       116     0     8     1    11
  2.6387390881872208E-01 a       117     0     8     1    12
  1.0338145410823194E+00 a       118     0     8     1    13
  1.5593948957730008E+00 a       119     0     8     1    14
  1.1626106180875566E+00 a       120     0     8     1    15
 -2.4778830073135721E-01 a       121     0     9     1     1
 -4.8059792029705806E+00 a       122     0     9     1     2
  1.6707720167278635E+00 a       123     0     9     1     3
 -1.2224301175443221E+01 a       124     0     9     1     4
  3.5623619054380504E+00 a       125     0     9     1     5
 -5.1714871120056705E+00 a       126     0     9     1     6
  3.0687579826652529E+00 a       127     0     9     1     7
 -2.6943646895263260E+00 a       128     0     9     1     8
  1.1832555228787510E-02 a       129     0     9     1     9
  1.5650998947688681E+00 a       130     0     9     1    10
  2.6071648325537646E+00 a       131     0     9     1    11
 -1.5361722149746107E+00 a       132     0     9     1    12
 -2.3535613452890098E+00 a       133     0     9     1    13
  4.1804074482740763E+00 a       134     0     9     1    14
  4.7751453064646272E+00 a       135     0     9     1    15
 -2.9917893671778095E-01 a       136     0    10     1     1
  6.3318034545607871E-01 a       137     0    10     1     2
 -1.0224987543607293E-01 a       138     0    10     1     3
  3.9471374319169334E+00 a       139     0    10     1     4
  1.1595962090116270E-01 a       140     0    10     1     5
 -8.6224301841513207E-01 a       141     0    10     1     6
  1.7436235601805536E+00 a       142     0    10     1     7
  1.7331964993304410E+00 a       143     0    10     1     8
 -5.4207381844485258E-01 a       144     0    10     1     9
  8.9423975946806311E-01 a       145     0    10     1    10
 -1.0052145731417295E+00 a       146     0    10     1    11
 -6.1751644488097923E-01 a       147     0    10     1    12
  7.1910670310519023E-02 a       148     0    10     1    13
  1.9529719451476328E+00 a       149     0    10     1    14
  1.4779931024824158E-01 a       150     0    10     1    15
  2.3805946221634602E+00 a       151     0    11     1     1
  1.7249417059938894E+00 a       152     0    11     1     2
  7.4044657605813569E-01 a       153     0    11     1     3
 -1.7232322304759691E+00 a       154     0    11     1     4
  2.2142192399358134E+00 a       155     0    11     1     5
  9.4279670659600995E-02 a       156     0    11     1     6
 -2.9288285196450781E-01 a       157     0    11     1     7
 -1.0074728151149615E-01 a       158     0    11     1     8
  2.8134909379959627E-01 a       159     0    11     1     9
 -1.1364998700532585E+00 a       160     0    11     1    10
 -4.4059820378874734E+00 a       161     0    11     1    11
 -6.9604265398804516E-02 a       162     0    11     1    12
  1.0685554109432340E+00 a       163     0    11     1    13
  1.3072917174439773E+00 a       164     0    11     1    14
  1.0119448866342067E+00 a       165     0    11     1    15
  3.6734977574129442E+00 a       166     0    12     1     1
  6.2072913446312281E+00 a       167     0    12     1     2
  5.0313959573393552E-01 a       168     0    12     1     3
  6.2919246249917427E+00 a       169     0    12     1     4
 -5.4007676045226383E+00 a       170     0    12     1     5
  1.3694907896948143E+00 a       171     0    12     1     6
 -6.8644584958468025E-01 a       172     0    12     1     7
  1.2439669592075735E-01 a       173     0    12     1     8
  4.5698734869863467E+00 a       174     0    12     1     9
 -3.4502358026401376E+00 a       175     0    12     1    10
 -4.6887914358868850E+00 a       176     0    12     1    11
 -3.2103654932053924E+00 a       177     0    12     1    12
  1.8817562176387487E-01 a       178     0    12     1    13
 -8.1356149999508904E+00 a       179     0    12     1    14
 -6.2396900688481791E+00 a       180     0    12     1    15
  4.5555916718747175E-01 a       181     0    13     1     1
 -2.4513782914622556E-01 a       182     0    13     1     2
  5.2332886494434394E-01 a       183     0    13     1     3
 -2.0345766242111170E+00 a       184     0    13     1     4
 -1.3929802744951692E-02 a       185     0    13     1     5
  1.0635033159505025E+00 a       186     0    13     1     6
  2.1501377327726949E+00 a       187     0    13     1     7
 -7.6939469406474359E-01 a       188     0    13     1     8
  7.8642767100030742E-01 a       189     0    13     1     9
 -1.1209159649479574E+00 a       190     0    13     1    10
  6.6458412267563427E-01 a       191     0    13     1    11
 -4.0348832951866931E-01 a       192     0    13     1    12
  6.9009694322240314E-02 a       193     0    13     1    13
 -1.2083969303042825E+00 a       194     0    13     1    14
 -3.7334141678730798E-01 a       195     0    13     1    15
 -5.4130644359032232E-01 a       196     0    14     1     1
  3.5469346002885245E+00 a       197     0    14     1     2
  6.8108167913857187E-01 a       198     0    14     1     3
  5.3183566887674372E-01 a       199     0    14     1     4
 -7.5364328350606369E-01 a       200     0    14     1     5
  6.6109319310476611E-01 a       201     0    14     1     6
  1.3488393445291877E+00 a       202     0    14     1     7
  3.9166594866373045E-01 a       203     0    14     1     8
  1.8740476468014858E-01 a       204     0    14     1     9
 -4.6803487326681814E-01 a       205     0    14     1    10
  2.8518852371041414E+00 a       206     0    14     1    11
 -6.2090386132694397E-01 a       207     0    14     1    12
 -1.0036038959697402E+00 a       208     0    14     1    13
 -2.3086895695443759E+00 a       209     0    14     1    14
 -1.8316341915802690E+00 a       210     0    14     1    15
 -3.1974736657084808E+00 a       211     0    15     1     1
  9.9074023088611463E-01 a       212     0    15     1     2
 -1.0898343234613406E+00 a       213     0    15     1     3
 -2.4870781948224741E+00 a       214     0    15     1     4
  7.4047833759516646E+00 a       215     0    15     1     5
  9.7275906152668572E+00 a       216     0    15     1     6
  4.7401846173012502E-01 a       217     0    15     1     7
 -9.0883060293226114E-01 a       218     0    15     1     8
 -7.0290443211685416E-01 a       219     0    15     1     9
  2.1834869451043510E+00 a       220     0    15     1    10
 -2.2934823478644453E+00 a       221     0    15     1    11
  8.0069423118716436E+00 a       222     0    15     1    12
 -5.1066701020921479E-01 a       223     0    15     1    13
  6.9366435649896809E+00 a       224     0    15     1    14
  2.8522079578682225E+00 a       225     0    15     1    15
 -4.8869846208816053E-01 a       226     0    16     1     1
  7.6750281595215386E-01 a       227     0    16     1     2
 -9.8234602745432154E-01 a       228     0    16     1     3
  6.1191962375475217E-01 a       229     0    16     1     4
 -5.4842665186091422E-01 a       230     0    16     1     5
 -1.3814891814385437E+00 a       231     0    16     1     6
 -1.5377680770478297E+00 a       232     0    16     1     7
 -1.1799991488272856E+00 a       233     0    16     1     8
  2.7205102157428845E-01 a       234     0    16     1     9
  4.2220828723310538E-01 a       235     0    16     1    10
  3.2388732584616775E-01 a       236     0    16     1    11
  7.3637901210645162E-01 a       237     0    16     1    12
 -6.0028807529107116E-03 a       238     0    16     1    13
  4.8726808809246996E-01 a       239     0    16     1    14
  4.0183333543896353E-02 a       240     0    16     1    15
 -1.0855440876186770E+00 a       241     0    17     1     1
 -7.2164484857494826E-01 a       242     0    17     1     2
 -1.6497431600774328E+00 a       243     0    17     1     3
 -3.8385219277579480E-01 a       244     0    17     1     4
  3.3292556955921526E-01 a       245     0    17     1     5
 -1.8019314204796919E+00 a       246     0    17     1     6
  7.2782453008094039E-01 a       247     0    17     1     7
 -3.0371690098001147E-01 a       248     0    17     1     8
 -1.0118862157754800E+00 a       249     0    17     1     9
  1.5622115906119911E+00 a       250     0    17     1    10
 -2.5445348888709994E-02 a       251     0    17     1    11
 -2.7351401879684029E-01 a       252     0    17     1    12
 -7.7996047004189994E-02 a       253     0    17     1    13
  2.0264268769014748E+00 a       254     0    17     1    14
  6.3303690397438850E-01 a       255     0    17     1    15
  9.6999360041123539E-01 a       256     0    18     1     1
 -1.0813307619843893E+00 a       257     0    18     1     2
 -5.7002268876957396E-01 a       258     0    18     1     3
  5.8078056454240046E-01 a       259     0    18     1     4
 -3.6766952782118310E+00 a       260     0    18     1     5
 -8.3430382533589249E+00 a       261     0    18     1     6
  1.4093432078438139E-01 a       262     0    18     1     7
 -2.0802722611347870E+00 a       263     0    18     1     8
  1.9246327860177987E+00 a       264     0    18     1     9
 -1.8120878899828559E+00 a       265     0    18     1    10
  5.3667730584247533E+00 a       266     0    18     1    11
 -5.7821698601174685E+00 a       267     0    18     1    12
  6.2174457498081082E-01 a       268     0    18     1    13
 -2.4790332633174157E+00 a       269     0    18     1    14
 -9.8206127684455435E-01 a       270     0    18     1    15
  7.9839924475227683E-02 a       271     0    19     1     1
 -3.4774585302512073E-01 a       272     0    19     1     2
  3.9366640030992267E-01 a       273     0    19     1     3
 -2.5694133892934923E-01 a       274     0    19     1     4
  2.8018077088804894E-01 a       275     0    19     1     5
  4.8203148188454847E-01 a       276     0    19     1     6
  2.8890777719855942E-01 a       277     0    19     1     7
  6.5161558958016363E-01 a       278     0    19     1     8
 -4.8736102746126658E-01 a       279     0    19     1     9
 -8.3262896186926588E-02 a       280     0    19     1    10
 -1.3309992818078387E-01 a       281     0    19     1    11
 -2.9367373430128868E-01 a       282     0    19     1    12
 -2.3910127053185675E-03 a       283     0    19     1    13
 -1.0578998879736810E-01 a       284     0    19     1    14
  2.6353441562621260E-02 a       285     0    19     1    15
  2.7822564469145250E-01 a       286     0    20     1     1
 -6.9481394123901874E-01 a       287     0    20     1     2
  7.8714151455218762E-01 a       288     0    20     1     3
  1.7718907224474712E-02 a       289     0    20     1     4
  3.3266387948118686E-01 a       290     0    20     1     5
  1.3622279075102579E+00 a       291     0    20     1     6
  5.1960697194219274E-01 a       292     0    20     1     7
 -3.5010771452141304E-01 a       293     0    20     1     8
 -2.4040535573678279E-01 a       294     0    20     1     9
 -7.8456065015084531E-01 a       295     0    20     1    10
 -1.3134338901111414E-01 a       296     0    20     1    11
 -2.4201815095893392E-01 a       297     0    20     1    12
  3.0370114322508773E-01 a       298     0    20     1    13
 -8.3892962725989850E-01 a       299     0    20     1    14
  5.8097163469417318E-03 a       300     0    20     1    15
 -4.0013364320384726E-01 a       301     0    21     1     1
 -2.1431738601094921E-01 a       302     0    21     1     2
 -1.7227304252933048E-02 a       303     0    21     1     3
  2.6855107830384299E-02 a       304     0    21     1     4
  6.4429732858882738E-01 a       305     0    21     1     5
  2.3270564157632001E+00 a       306     0    21     1     6
  1.0079833895654453E+00 a       307     0    21     1     7
  1.2534016951475795E+00 a       308     0    21     1     8
 -1.0832975960600542E+00 a       309     0    21     1     9
  9.8429618660942308E-01 a       310     0    21     1    10
 -2.1971067269805551E+00 a       311     0    21     1    11
  4.2000308637860709E-02 a       312     0    21     1    12
 -2.1050018433216733E-01 a       313     0    21     1    13
  4.2280314790826479E-01 a       314     0    21     1    14
  6.3760548473309153E-01 a       315     0    21     1    15
  2.0906853827006539E-02 a       316     0    22     1     1
 -1.1084519867630370E-02 a       317     0    22     1     2
 -1.1039057602075451E-01 a       318     0    22     1     3
  8.0447075567235321E-02 a       319     0    22     1     4
 -9.8763298678000253E-02 a       320     0    22     1     5
 -5.1988008109277457E-02 a       321     0    22     1     6
  2.4744479670219848E-02 a       322     0    22     1     7
 -6.3850472654196785E-02 a       323     0    22     1     8
  1.9716823962632488E-01 a       324     0    22     1     9
  4.6944162179421579E-02 a       325     0    22     1    10
  2.6308858773671770E-02 a       326     0    22     1    11
  7.8118275945909005E-02 a       327     0    22     1    12
  3.4741876246302032E-02 a       328     0    22     1    13
 -2.3483270771004608E-02 a       329     0    22     1    14
 -1.5425886496649893E-02 a       330     0    22     1    15
 -5.1952963939933941E-02 a       331     0    23     1     1
  1.1169054464044130E-01 a       332     0    23     1     2
 -3.1261741890254219E-01 a       333     0    23     1     3
  1.9190664418257883E-02 a       334     0    23     1     4
 -8.5199468665362862E-02 a       335     0    23     1     5
 -1.2014691462512357E-01 a       336     0    23     1     6
 -2.6578453139025832E-01 a       337     0    23     1     7
  1.2098532490362346E-01 a       338     0    23     1     8
  1.8461845599358825E-01 a       339     0    23     1     9
  1.3084697590718616E-01 a       340     0    23     1    10
  7.1139458077609241E-02 a       341     0    23     1    11
  4.0940809030494726E-02 a       342     0    23     1    12
 -5.8165230693868239E-02 a       343     0    23     1    13
  1.0402981545933430E-01 a       344     0    23     1    14
 -5.1290439952713207E-02 a       345     0    23     1    15
 -2.2702810449401994E-01 a       346     0    24     1     1
  1.6209673136894354E-01 a       347     0    24     1     2
  2.8291737285905002E-02 a       348     0    24     1     3
  4.2928705131778768E-03 a       349     0    24     1     4
 -1.4549764186928152E-01 a       350     0    24     1     5
 -5.0215714138921548E-03 a       351     0    24     1     6
 -2.6622085448719240E-01 a       352     0    24     1     7
 -2.6104137804430239E-01 a       353     0    24     1     8
 -1.2079621606890790E-02 a       354     0    24     1     9
 -1.1644008236382453E-01 a       355     0    24     1    10
  6.7116270056536942E-01 a       356     0    24     1    11
  5.5430540552472207E-01 a       357     0    24     1    12
  3.0287272951068849E-02 a       358     0    24     1    13
 -5.4824131289713612E-02 a       359     0    24     1    14
 -8.2507038090930601E-02 a       360     0    24     1    15
  1.4882418078094001E-01 a       361     0    25     1     1
 -6.1623517713306097E-01 a       362     0    25     1     2
 -8.6427192203826303E-02 a       363     0    25     1     3
  4.8575731864837837E-02 a       364     0    25     1     4
  7.6712575791031112E-01 a       365     0    25     1     5
 -4.3463020983456141E-01 a       366     0    25     1     6
 -2.4945915715487046E-01 a       367     0    25     1     7
  5.6308364708848702E-01 a       368     0    25     1     8
  1.2091921604140978E+00 a       369     0    25     1     9
  6.1264374406494050E-02 a       370     0    25     1    10
  3.6293256211489949E-01 a       371     0    25     1    11
 -2.6769048077601831E-01 a       372     0    25     1    12
 -1.1515797287782975E-01 a       373     0    25     1    13
 -4.6346715730028555E-02 a       374     0    25     1    14
 -3.0309495265212627E-01 a       375     0    25     1    15
  1.0508252370778719E-01 a       376     0    26     1     1
 -1.2648465518022828E-01 a       377     0    26     1     2
 -3.1717692705160777E-01 a       378     0    26     1     3
  3.8295814240015227E-02 a       379     0    26     1     4
 -4.3300057637946610E-01 a       380     0    26     1     5
 -9.3085444824766578E-02 a       381     0    26     1     6
  1.8729903258184716E-01 a       382     0    26     1     7
 -2.7626553042693600E-02 a       383     0    26     1     8
 -2.3905660873305634E-01 a       384     0    26     1     9
  4.6696392656651382E-02 a       385     0    26     1    10
  5.5397007906977336E-01 a       386     0    26     1    11
 -1.3605951885221021E-01 a       387     0    26     1    12
  5.6100118063118411E-02 a       388     0    26     1    13
  8.0768946796622554E-02 a       389     0    26     1    14
  1.3098947396420879E-01 a       390     0    26     1    15
 -2.5475107830436766E-01 a       391     0    27     1     1
 -2.2007263380453188E+00 a       392     0    27     1     2
  1.0645880300711874E+00 a       393     0    27     1     3
  1.4019844445998550E-01 a       394     0    27     1     4
 -9.5302508008446563E-01 a       395     0    27     1     5
 -5.3160814569309334E-01 a       396     0    27     1     6
 -4.6812344491173841E-01 a       397     0    27     1     7
 -1.9185895419677090E+00 a       398     0    27     1     8
  6.1525091546787969E-01 a       399     0    27     1     9
  2.6884171897337650E-01 a       400     0    27     1    10
 -6.5175876793270404E-01 a       401     0    27     1    11
 -1.3017682391975183E+00 a       402     0    27     1    12
 -9.9157374900958412E-02 a       403     0    27     1    13
  2.0259166648843646E-01 a       404     0    27     1    14
 -1.3889858192044477E-01 a       405     0    27     1    15
 -5.3275053116244142E-01 a       406     0    28     1     1
  9.2304497910558370E-01 a       407     0    28     1     2
 -1.6968130475775269E+00 a       408     0    28     1     3
 -3.1638491593739188E-02 a       409     0    28     1     4
 -2.2484218813619212E+00 a       410     0    28     1     5
 -1.8048751395235390E+00 a       411     0    28     1     6
 -6.1710501472348822E-01 a       412     0    28     1     7
 -9.7151480652633138E-01 a       413     0    28     1     8
  5.9797465792847513E+00 a       414     0    28     1     9
  1.5708891573713775E+00 a       415     0    28     1    10
  3.0870233496752761E+00 a       416     0    28     1    11
  1.1914892109942914E+00 a       417     0    28     1    12
  1.1537286080325337E-01 a       418     0    28     1    13
 -7.2562999267369466E-01 a       419     0    28     1    14
  6.2645337667467060E-01 a       420     0    28     1    15
 -3.4166271042784069E+00 a       421     0    29     1     1
 -1.9826816162641703E+00 a       422     0    29     1     2
 -3.6804798525958327E+00 a       423     0    29     1     3
 -5.9534506819979949E-01 a       424     0    29     1     4
 -8.7253258381252052E-01 a       425     0    29     1     5
 -5.8462217391313420E-01 a       426     0    29     1     6
 -1.0428836004415485E+00 a       427     0    29     1     7
  6.1157663189320910E-01 a       428     0    29     1     8
 -2.4848046080968844E+00 a       429     0    29     1     9
 -1.5438483969028521E-01 a       430     0    29     1    10
 -2.0073371308128232E-01 a       431     0    29     1    11
  6.4532357607817781E-01 a       432     0    29     1    12
 -1.3273673892151086E+00 a       433     0    29     1    13
 -2.6235069782510806E-01 a       434     0    29     1    14
 -1.9341208089116753E+00 a       435     0    29     1    15
  4.1854426931244677E-03 a       436     0    30     1     1
 -6.0248613427381370E+00 a       437     0    30     1     2
 -4.9836109048747543E+00 a       438     0    30     1     3
 -6.1501424211708633E-01 a       439     0    30     1     4
 -4.3693964622940360E+00 a       440     0    30     1     5
 -7.2731771623563919E+00 a       441     0    30     1     6
 -2.3026571246711209E+00 a       442     0    30     1     7
  1.0981464364787588E+01 a       443     0    30     1     8
  1.0238995904163968E+00 a       444     0    30     1     9
  3.1505780246858839E+00 a       445     0    30     1    10
  3.7730500002670770E+00 a       446     0    30     1    11
 -2.0361510333553282E-01 a       447     0    30     1    12
  1.3014157366383336E-01 a       448     0    30     1    13
  1.9554260518620657E-02 a       449     0    30     1    14
 -3.9864136558203933E+00 a       450     0    30     1    15
 -1.4542015479464573E-01 a       451     0    31     1     1
 -3.7327423707130913E-01 a       452     0    31     1     2
 -6.6516671849767983E-01 a       453     0    31     1     3
  9.3372705661293326E-03 a       454     0    31     1     4
 -1.8711330015745922E-01 a       455     0    31     1     5
  2.5123334214165743E-01 a       456     0    31     1     6
 -7.3286341720912618E-01 a       457     0    31     1     7
  3.4990320979537681E-01 a       458     0    31     1     8
  9.2624477051279697E-01 a       459     0    31     1     9
  1.2588993095613818E-01 a       460     0    31     1    10
  8.7936273457890027E-02 a       461     0    31     1    11
  6.0803796016159550E-01 a       462     0    31     1    12
 -1.3646095943678868E-01 a       463     0    31     1    13
 -5.2328899712822022E-02 a       464     0    31     1    14
 -3.2314459010445279E-01 a       465     0    31     1    15
 -1.4303786411325126E-01 a       466     0    32     1     1
 -4.1095945287972641E-01 a       467     0    32     1     2
 -2.1898189105993340E-01 a       468     0    32     1     3
 -4.6616887660380895E-03 a       469     0    32     1     4
  2.1625259979649825E-01 a       470     0    32     1     5
 -6.4112693971569856E-01 a       471     0    32     1     6
  3.0825593574203680E-01 a       472     0    32     1     7
  3.3357656359335852E-02 a       473     0    32     1     8
  3.7887299408662101E-01 a       474     0    32     1     9
  6.6472558418199268E-02 a       475     0    32     1    10
  1.9397945215097803E-01 a       476     0    32     1    11
 -3.0782452698997859E-01 a       477     0    32     1    12
 -2.6598599316129519E-02 a       478     0    32     1    13
 -9.6479792033438150E-02 a       479     0    32     1    14
 -2.0670519091610523E-01 a       480     0    32     1    15
  3.4741209951508722E-01 a       481     0    33     1     1
  1.0887883385723280E+00 a       482     0    33     1     2
 -3.3250366821922966E-01 a       483     0    33     1     3
 -5.0309560322438529E-01 a       484     0    33     1     4
  7.4617122840855574E-02 a       485     0    33     1     5
 -8.5466171139442604E-01 a       486     0    33     1     6
 -1.4045484543639073E+00 a       487     0    33     1     7
 -1.0147251909983300E-02 a       488     0    33     1     8
 -7.3619630381089218E-01 a       489     0    33     1     9
 -1.7974158657576618E+00 a       490     0    33     1    10
  5.6112137228441672E-01 a       491     0    33     1    11
  9.9159344011057782E-01 a       492     0    33     1    12
  8.5704624057506762E-01 a       493     0    33     1    13
 -1.5892385964588401E-01 a       494     0    33     1    14
  1.7965473653099370E-01 a       495     0    33     1    15
  2.7037096630145152E-01 a       496     0    34     1     1
 -6.5341503287792102E-01 a       497     0    34     1     2
  2.6279361517046745E-01 a       498     0    34     1     3
  7.0374931204404370E-02 a       499     0    34     1     4
 -1.1058011806452388E+00 a       500     0    34     1     5
 -6.7698961818993164E-01 a       501     0    34     1     6
 -9.2707488365785540E-01 a       502     0    34     1     7
 -4.2851471535373514E-01 a       503     0    34     1     8
 -1.8796804143709942E+00 a       504     0    34     1     9
  6.2339100623868826E-01 a       505     0    34     1    10
 -6.5448865602042061E-01 a       506     0    34     1    11
  6.0216761815935782E-01 a       507     0    34     1    12
 -3.0207823618528615E-03 a       508     0    34     1    13
  1.2821266035414267E-01 a       509     0    34     1    14
 -2.2870409769162695E-01 a       510     0    34     1    15
  2.0552586461098250E+00 a       511     0    35     1     1
 -1.7828065523201647E-01 a       512     0    35     1     2
  3.2854238432663725E+00 a       513     0    35     1     3
  2.7737678440506359E-02 a       514     0    35     1     4
 -1.1396760624797224E+00 a       515     0    35     1     5
  1.8365089307977358E+00 a       516     0    35     1     6
 -3.4241951607417193E-02 a       517     0    35     1     7
 -2.3297735612336252E+00 a       518     0    35     1     8
  2.0338059356111078E+00 a       519     0    35     1     9
 -1.1244038251870596E+00 a       520     0    35     1    10
 -6.2479935672242104E-01 a       521     0    35     1    11
 -2.9130722400865636E+00 a       522     0    35     1    12
  6.3926532517110801E-01 a       523     0    35     1    13
  2.2008227801624680E+00 a       524     0    35     1    14
  3.9526140198829862E-01 a       525     0    35     1    15
  2.3771713357516593E-02 a       526     0    36     1     1
 -4.2171853624143711E+00 a       527     0    36     1     2
  2.9042678669754363E+00 a       528     0    36     1     3
  1.4997156107249545E+00 a       529     0    36     1     4
 -1.4810492662634173E-01 a       530     0    36     1     5
  6.0168690304017183E+00 a       531     0    36     1     6
  3.5685607786551582E-01 a       532     0    36     1     7
 -2.3876148647037523E+00 a       533     0    36     1     8
  3.5702184006748343E+00 a       534     0    36     1     9
 -6.5619389734563267E+00 a       535     0    36     1    10
 -4.9925069695630890E+00 a       536     0    36     1    11
 -2.9621943378849513E+00 a       537     0    36     1    12
  8.2673494841657413E-01 a       538     0    36     1    13
  3.2617054241827121E+00 a       539     0    36     1    14
  3.2739394028769411E+00 a       540     0    36     1    15
  1.5373844011776344E-01 a       541     0    37     1     1
  3.6877492460405739E-02 a       542     0    37     1     2
  1.1429551746335236E-01 a       543     0    37     1     3
 -8.9832409459773381E-03 a       544     0    37     1     4
  2.0057045381621280E-01 a       545     0    37     1     5
  2.3506295140373132E-01 a       546     0    37     1     6
 -8.4341680819270820E-03 a       547     0    37     1     7
  1.9250235322850109E-01 a       548     0    37     1     8
 -1.3101563497187896E-01 a       549     0    37     1     9
 -1.6920909389607522E-01 a       550     0    37     1    10
 -1.5459540906911557E-02 a       551     0    37     1    11
 -7.9414163858730874E-02 a       552     0    37     1    12
  2.2363205621047662E-02 a       553     0    37     1    13
  4.0032997517094035E-02 a       554     0    37     1    14
  6.1309678495358533E-03 a       555     0    37     1    15
  1.8618610389514659E-01 a       556     0    38     1     1
 -1.4542544089910489E-01 a       557     0    38     1     2
  6.9403966904196479E-02 a       558     0    38     1     3
 -2.0886941254560473E-03 a       559     0    38     1     4
  1.2007801097234364E-01 a       560     0    38     1     5
  2.9111453500256551E-01 a       561     0    38     1     6
 -1.1210583055134420E-01 a       562     0    38     1     7
  2.0018900937760153E-01 a       563     0    38     1     8
  2.4084825919447572E-01 a       564     0    38     1     9
 -1.3640435267373147E-01 a       565     0    38     1    10
  9.5260291492311286E-02 a       566     0    38     1    11
  1.3305360295760527E-01 a       567     0    38     1    12
 -4.8580724615899249E-03 a       568     0    38     1    13
  1.5248693437363453E-02 a       569     0    38     1    14
  3.5434703860862851E-02 a       570     0    38     1    15
  2.3076606806326302E-01 a       571     0    39     1     1
 -2.9236646434046731E-01 a       572     0    39     1     2
  7.2156223334897310E-02 a       573     0    39     1     3
 -1.0508629734857560E-03 a       574     0    39     1     4
  4.5145280243850294E-01 a       575     0    39     1     5
  4.9398887834297511E-01 a       576     0    39     1     6
 -6.7561577831368047E-01 a       577     0    39     1     7
  6.7241307584025545E-01 a       578     0    39     1     8
 -2.1627333399206244E-01 a       579     0    39     1     9
  6.6202719153259162E-02 a       580     0    39     1    10
  2.9931896762557819E-01 a       581     0    39     1    11
 -3.3148157535349532E-01 a       582     0    39     1    12
 -9.3382052710473062E-02 a       583     0    39     1    13
 -1.1700143070985485E-01 a       584     0    39     1    14
  6.2514816407694823E-03 a       585     0    39     1    15
  4.3097492636814527E-01 a       586     0    40     1     1
  3.7356423523022098E-01 a       587     0    40     1     2
  2.1561074031120075E-01 a       588     0    40     1     3
  3.8405629686899610E-02 a       589     0    40     1     4
  2.6453367985889253E-01 a       590     0    40     1     5
  9.0080080662041773E-01 a       591     0    40     1     6
  1.4669518672827757E+00 a       592     0    40     1     7
 -1.1574752421421544E+00 a       593     0    40     1     8
  1.5386355226728141E+00 a       594     0    40     1     9
 -4.6366021699903098E-01 a       595     0    40     1    10
  4.2088054695329813E-01 a       596     0    40     1    11
 -3.5443733346483325E-01 a       597     0    40     1    12
  1.0739789481201545E-01 a       598     0    40     1    13
  3.4754052805125163E-01 a       599     0    40     1    14
  4.2767121961518756E-01 a       600     0    40     1    15
  1.5737876946091334E+00 a       601     0    41     1     1
 -7.4110437251996508E-01 a       602     0    41     1     2
  1.8381023988224356E+00 a       603     0    41     1     3
  1.0483423667263030E-01 a       604     0    41     1     4
 -2.4560979252432849E+00 a       605     0    41     1     5
 -1.5962938175966919E+00 a       606     0    41     1     6
  2.0215918263200185E+00 a       607     0    41     1     7
  8.7255688243239393E-01 a       608     0    41     1     8
  3.2094697932012001E-01 a       609     0    41     1     9
 -7.1536068338497694E-01 a       610     0    41     1    10
 -4.5688297242650927E-01 a       611     0    41     1    11
 -5.2610523605736970E-01 a       612     0    41     1    12
  6.9458512173247666E-01 a       613     0    41     1    13
  4.3992613861008134E-01 a       614     0    41     1    14
  8.2822583019266927E-01 a       615     0    41     1    15
  3.2104348854129622E-01 a       616     0    42     1     1
 -1.9799054621687791E+00 a       617     0    42     1     2
  7.6464107461017478E-02 a       618     0    42     1     3
  7.9889565692551734E-02 a       619     0    42     1     4
 -1.9924008185863269E+00 a       620     0    42     1     5
  1.9767524497260587E+00 a       621     0    42     1     6
  2.3650292142821998E+00 a       622     0    42     1     7
 -2.7153978443390074E+00 a       623     0    42     1     8
  2.0997229135251700E+00 a       624     0    42     1     9
 -6.0073168823834100E-01 a       625     0    42     1    10
  2.2636281707047207E-01 a       626     0    42     1    11
  4.4380456884507309E+00 a       627     0    42     1    12
  3.8110064404284438E-01 a       628     0    42     1    13
  9.4498810819069398E-02 a       629     0    42     1    14
 -6.9632325390930094E-01 a       630     0    42     1    15
 -6.0121611564312463E-02 a       631     0    43     1     1
 -9.5236066006415904E-02 a       632     0    43     1     2
  1.4370366688714942E-01 a       633     0    43     1     3
 -2.4553723940954120E-02 a       634     0    43     1     4
  6.7574010102736934E-02 a       635     0    43     1     5
  2.2688353957917979E-02 a       636     0    43     1     6
 -2.3301309327402717E-01 a       637     0    43     1     7
 -1.9962466319804972E-01 a       638     0    43     1     8
 -4.5944248702792001E-01 a       639     0    43     1     9
 -1.6737814176639626E-01 a       640     0    43     1    10
  6.4796934570588688E-02 a       641     0    43     1    11
 -6.0818708080452533E-02 a       642     0    43     1    12
  3.2622139709388903E-02 a       643     0    43     1    13
 -4.5859552218551113E-02 a       644     0    43     1    14
  1.9059623663746608E-01 a       645     0    43     1    15
 -8.8655398746292344E-02 a       646     0    44     1     1
  6.6892132119367956E-04 a       647     0    44     1     2
 -7.8936602205111575E-02 a       648     0    44     1     3
 -3.5993694150400490E-02 a       649     0    44     1     4
  1.8419154226963280E-01 a       650     0    44     1     5
 -1.2714671074575151E-01 a       651     0    44     1     6
  5.6922476491715120E-02 a       652     0    44     1     7
  1.2197916528608733E-01 a       653     0    44     1     8
 -2.6602458282478064E-01 a       654     0    44     1     9
  2.6088644717673123E-02 a       655     0    44     1    10
 -7.8957792024640719E-02 a       656     0    44     1    11
 -2.3530776827150813E-02 a       657     0    44     1    12
 -1.2276709413889949E-03 a       658     0    44     1    13
 -1.0411314056500670E-01 a       659     0    44     1    14
 -1.4386789739298708E-01 a       660     0    44     1    15
 -1.9330527820116003E-01 a       661     0    45     1     1
 -8.6614304658394714E-01 a       662     0    45     1     2
 -3.0559464574322820E-01 a       663     0    45     1     3
  8.1923405947056896E-02 a       664     0    45     1     4
  3.4251858543252238E-02 a       665     0    45     1     5
 -2.9225681926294150E-01 a       666     0    45     1     6
  3.5444194214577612E-01 a       667     0    45     1     7
 -1.6812360259356499E-01 a       668     0    45     1     8
  1.6466958781117644E-01 a       669     0    45     1     9
  3.6656963264960551E-01 a       670     0    45     1    10
  7.2551697460735065E-01 a       671     0    45     1    11
 -7.8307278262326840E-01 a       672     0    45     1    12
 -4.1212617870463358E-01 a       673     0    45     1    13
 -1.6089745302465797E-01 a       674     0    45     1    14
 -2.7835100448983591E-01 a       675     0    45     1    15
 -2.1150455501076607E-01 a       676     0    46     1     1
  7.0203646906681905E-01 a       677     0    46     1     2
 -3.9434901250788454E-02 a       678     0    46     1     3
  1.8156657352515516E-02 a       679     0    46     1     4
  1.1091895479445320E+00 a       680     0    46     1     5
 -1.8483355911387406E-01 a       681     0    46     1     6
  7.2510469453814186E-01 a       682     0    46     1     7
  6.8879168320184425E-01 a       683     0    46     1     8
  2.7383943491376900E-01 a       684     0    46     1     9
 -2.0793668121306361E-01 a       685     0    46     1    10
  2.2769056139204560E-01 a       686     0    46     1    11
 -1.7356766724398598E-01 a       687     0    46     1    12
 -1.2014025625022540E-01 a       688     0    46     1    13
  8.2249593409858934E-02 a       689     0    46     1    14
 -1.1649966477528683E-02 a       690     0    46     1    15
 -3.5625482354479271E-01 a       691     0    47     1     1
  2.9462582304116780E-01 a       692     0    47     1     2
 -8.7308503592673303E-01 a       693     0    47     1     3
 -5.6877295498945191E-01 a       694     0    47     1     4
  9.9091127767152148E-02 a       695     0    47     1     5
 -3.0130654773125745E+00 a       696     0    47     1     6
  2.1854071465857414E+00 a       697     0    47     1     7
  2.9119783478825196E+00 a       698     0    47     1     8
 -3.8860265381832892E+00 a       699     0    47     1     9
 -2.0748502874877983E-01 a       700     0    47     1    10
  1.2783766795185336E+00 a       701     0    47     1    11
 -1.1724373078714956E+00 a       702     0    47     1    12
 -1.9300529448356796E-01 a       703     0    47     1    13
 -1.0536171735116797E+00 a       704     0    47     1    14
 -1.0661602240322690E+00 a       705     0    47     1    15
  1.9626962940646697E+00 a       706     0    48     1     1
 -2.1307954043546471E+00 a       707     0    48     1     2
 -1.9711410969140475E+00 a       708     0    48     1     3
 -2.1382116593927802E-01 a       709     0    48     1     4
  4.5376707091008134E-01 a       710     0    48     1     5
 -5.0079069311785684E-01 a       711     0    48     1     6
  4.8243640103143370E+00 a       712     0    48     1     7
  6.3186130487772703E+00 a       713     0    48     1     8
 -2.8290465840779468E+00 a       714     0    48     1     9
  2.4474027247513170E+00 a       715     0    48     1    10
  6.2231163907714286E+00 a       716     0    48     1    11
  2.9173111235655447E-01 a       717     0    48     1    12
  1.3691757044864166E+00 a       718     0    48     1    13
 -3.6919303095348615E+00 a       719     0    48     1    14
 -1.5883818679414714E+00 a       720     0    48     1    15
 -5.7519819670291217E-01 a       721     0    49     1     1
 -7.3028238620831787E-01 a       722     0    49     1     2
 -1.5347499314463217E-01 a       723     0    49     1     3
  2.5134214894317459E-02 a       724     0    49     1     4
  1.2443553559537799E+00 a       725     0    49     1     5
 -1.1220995949198487E+00 a       726     0    49     1     6
 -2.2580614461608339E-01 a       727     0    49     1     7
 -2.0325272302641956E-01 a       728     0    49     1     8
  9.8003080940555720E-01 a       729     0    49     1     9
  1.3923631252116317E-01 a       730     0    49     1    10
  2.2576398944447981E-01 a       731     0    49     1    11
 -6.7677160054161545E-01 a       732     0    49     1    12
 -2.4980398759730565E-01 a       733     0    49     1    13
 -2.4710969848259690E-01 a       734     0    49     1    14
 -3.4814605465593451E-01 a       735     0    49     1    15
 -6.0671893902110574E-01 a       736     0    50     1     1
 -2.7380243430127921E-01 a       737     0    50     1     2
 -4.7113657778195434E-01 a       738     0    50     1     3
 -3.1205765945205868E-02 a       739     0    50     1     4
  5.8661543116255599E-01 a       740     0    50     1     5
 -5.3111451152933586E-01 a       741     0    50     1     6
  1.0486108917404884E+00 a       742     0    50     1     7
  3.9805534769665335E-01 a       743     0    50     1     8
 -4.0949000774205202E-01 a       744     0    50     1     9
  6.1967048229267033E-02 a       745     0    50     1    10
  6.0436272871552355E-01 a       746     0    50     1    11
 -9.4036232228583080E-03 a       747     0    50     1    12
 -1.1221435344500683E-01 a       748     0    50     1    13
 -2.5837686780346908E-01 a       749     0    50     1    14
  9.5229655918819284E-03 a       750     0    50     1    15
 -4.5789638390945592E-01 a       751     0    51     1     1
  2.1457293430069027E+00 a       752     0    51     1     2
  1.2519599958999310E+00 a       753     0    51     1     3
  1.2312844171879868E-01 a       754     0    51     1     4
  1.3736355182903319E+00 a       755     0    51     1     5
 -6.0759441929583569E-01 a       756     0    51     1     6
  6.6916643625997296E-01 a       757     0    51     1     7
 -7.4749991727721377E-01 a       758     0    51     1     8
  6.7554645677020653E-01 a       759     0    51     1     9
 -5.7804733977775948E-02 a       760     0    51     1    10
 -1.6642959429848707E+00 a       761     0    51     1    11
 -2.0634132257015164E-01 a       762     0    51     1    12
 -3.0332124733093335E-02 a       763     0    51     1    13
  2.6699439829138139E-01 a       764     0    51     1    14
  2.8179134792330107E-01 a       765     0    51     1    15
 -2.4105161394147237E-01 a       766     0    52     1     1
  2.1677378027153140E+00 a       767     0    52     1     2
 -7.0376461795672840E-01 a       768     0    52     1     3
 -1.0535643026897815E-01 a       769     0    52     1     4
 -2.4748582382674154E+00 a       770     0    52     1     5
  3.6160177587137488E-01 a       771     0    52     1     6
  9.0608810266982553E-01 a       772     0    52     1     7
  7.4445223172137709E-01 a       773     0    52     1     8
 -1.4846092194664724E+00 a       774     0    52     1     9
  1.2748153089956036E+00 a       775     0    52     1    10
  1.2014517296709373E+00 a       776     0    52     1    11
  1.3056515117996965E+00 a       777     0    52     1    12
  1.8895950046482551E-01 a       778     0    52     1    13
 -6.6669395462159597E-01 a       779     0    52     1    14
  1.1108355057949011E+00 a       780     0    52     1    15
 -4.6299322603015081E-01 a       781     0    53     1     1
 -2.1716390777327801E+00 a       782     0    53     1     2
  6.7896774737915222E-01 a       783     0    53     1     3
  5.2030253725034781E-02 a       784     0    53     1     4
 -7.8598018120044610E-01 a       785     0    53     1     5
 -1.3149155544779451E-01 a       786     0    53     1     6
 -7.8606634944574649E-01 a       787     0    53     1     7
 -2.7909404683857419E-01 a       788     0    53     1     8
  6.0031080642349821E-01 a       789     0    53     1     9
 -2.6637286839904211E+00 a       790     0    53     1    10
  1.8756700397886533E-01 a       791     0    53     1    11
 -2.0296196082139786E+00 a       792     0    53     1    12
 -5.9559390259690426E-01 a       793     0    53     1    13
  1.6676073778854605E+00 a       794     0    53     1    14
  9.0633150064057288E-01 a       795     0    53     1    15
  4.3922147446308640E-01 a       796     0    54     1     1
  3.1995567616343712E-01 a       797     0    54     1     2
 -1.1992246988076598E+00 a       798     0    54     1     3
  3.3538183575647351E-01 a       799     0    54     1     4
  1.2143725868458506E+00 a       800     0    54     1     5
  8.0241236397911853E-01 a       801     0    54     1     6
  2.0797976302987373E+00 a       802     0    54     1     7
 -2.7040284987123736E-01 a       803     0    54     1     8
  6.9576633528127934E+00 a       804     0    54     1     9
 -4.5064270025920132E+00 a       805     0    54     1    10
  4.6813319140917908E+00 a       806     0    54     1    11
 -2.4739803962242419E+00 a       807     0    54     1    12
 -1.2165959235141417E+00 a       808     0    54     1    13
  2.3167596907568573E+00 a       809     0    54     1    14
  4.4194851786285527E-01 a       810     0    54     1    15
  7.0377802981067661E-01 a       811     0    55     1     1
  6.2519811029649230E-01 a       812     0    55     1     2
 -5.9268324343586060E-02 a       813     0    55     1     3
 -6.6859260373285267E-02 a       814     0    55     1     4
 -1.5187348580187956E+00 a       815     0    55     1     5
  1.1868027364662854E+00 a       816     0    55     1     6
  4.0004681738138281E-01 a       817     0    55     1     7
 -4.0315997504365986E-02 a       818     0    55     1     8
 -5.7096564302089825E-01 a       819     0    55     1     9
 -1.6917004100271960E-01 a       820     0    55     1    10
  1.5071366426133248E-01 a       821     0    55     1    11
  8.1134396606271753E-01 a       822     0    55     1    12
  3.1298761814954701E-01 a       823     0    55     1    13
  1.6919282528281343E-01 a       824     0    55     1    14
  3.6024943132627840E-01 a       825     0    55     1    15
  3.7106523500021188E-01 a       826     0    56     1     1
  1.5780950926258089E-01 a       827     0    56     1     2
  4.2924654378912541E-01 a       828     0    56     1     3
  6.8197240854372468E-02 a       829     0    56     1     4
 -4.5446165519472154E-01 a       830     0    56     1     5
 -5.5393737348873519E-02 a       831     0    56     1     6
 -7.2932378472195447E-01 a       832     0    56     1     7
 -7.5412675381180794E-01 a       833     0    56     1     8
  6.6156818006802731E-01 a       834     0    56     1     9
 -4.1451397634819087E-02 a       835     0    56     1    10
 -6.4238830847842143E-01 a       836     0    56     1    11
 -6.4293529833678892E-02 a       837     0    56     1    12
  1.3164487659989033E-02 a       838     0    56     1    13
  3.4571740815604080E-01 a       839     0    56     1    14
 -1.7634969130244799E-01 a       840     0    56     1    15
  3.2284778511820106E-01 a       841     0    57     1     1
 -9.9630001084803499E-01 a       842     0    57     1     2
 -1.3272217310372649E+00 a       843     0    57     1     3
 -3.2235643958856197E-01 a       844     0    57     1     4
 -9.9583978452342903E-01 a       845     0    57     1     5
  9.9398501862681343E-01 a       846     0    57     1     6
  7.9281246854143894E-01 a       847     0    57     1     7
 -4.7556113843912146E-01 a       848     0    57     1     8
 -2.2737285299737547E-01 a       849     0    57     1     9
 -9.5300991558441461E-01 a       850     0    57     1    10
  2.3903617340800656E+00 a       851     0    57     1    11
  4.5786125653127113E-01 a       852     0    57     1    12
  2.7342287407611648E-01 a       853     0    57     1    13
 -4.4299199600837391E-01 a       854     0    57     1    14
  2.9766180988792068E-01 a       855     0    57     1    15
 -6.1440220645232102E-01 a       856     0    58     1     1
 -1.5223671185370184E+00 a       857     0    58     1     2
  7.7168295842256374E-01 a       858     0    58     1     3
  2.9498345025102773E-02 a       859     0    58     1     4
  3.3031562561414898E+00 a       860     0    58     1     5
 -1.2942073309290048E+00 a       861     0    58     1     6
 -2.3800264150309566E-01 a       862     0    58     1     7
 -3.2007555861226509E+00 a       863     0    58     1     8
  4.2068509628185913E+00 a       864     0    58     1     9
 -9.0496421176917274E-01 a       865     0    58     1    10
 -8.6959796906792219E-01 a       866     0    58     1    11
 -1.3855881452131726E+00 a       867     0    58     1    12
 -3.0486102831767653E-01 a       868     0    58     1    13
  1.8023306206863671E-01 a       869     0    58     1    14
 -1.4587376732525188E+00 a       870     0    58     1    15
 -7.4427221872783644E-01 a       871     0    59     1     1
  1.5755644209104382E+00 a       872     0    59     1     2
  5.0519533806901651E-01 a       873     0    59     1     3
 -1.2785698945349299E-02 a       874     0    59     1     4
 -3.0222817671753405E-01 a       875     0    59     1     5
 -4.0631779186580532E+00 a       876     0    59     1     6
  1.0071201371337828E+00 a       877     0    59     1     7
 -7.4677200902532581E-01 a       878     0    59     1     8
 -8.0361197124124961E-01 a       879     0    59     1     9
  1.1684547646981978E+00 a       880     0    59     1    10
 -5.7330847018656406E-01 a       881     0    59     1    11
  5.8085891174646598E-01 a       882     0    59     1    12
  6.3980047152485198E-01 a       883     0    59     1    13
 -2.7907501454840278E-02 a       884     0    59     1    14
 -6.7213500238010448E-01 a       885     0    59     1    15
 -3.5183750257616558E-01 a       886     0    60     1     1
 -9.1015777762075754E+00 a       887     0    60     1     2
 -2.2464552836350431E+00 a       888     0    60     1     3
 -6.1300664814742345E-01 a       889     0    60     1     4
  3.4781234226746447E+00 a       890     0    60     1     5
  6.5097458132252974E+00 a       891     0    60     1     6
  1.1649940058870609E+00 a       892     0    60     1     7
 -4.4397368659394596E+00 a       893     0    60     1     8
  4.5818292338106517E+00 a       894     0    60     1     9
 -1.9892715662430314E+00 a       895     0    60     1    10
 -1.9178158880490039E+00 a       896     0    60     1    11
  2.7843721194176694E+00 a       897     0    60     1    12
  1.8958274133020243E+00 a       898     0    60     1    13
 -2.5703195150004947E+00 a       899     0    60     1    14
 -3.4514106777733828E+00 a       900     0    60     1    15
  2.6158336154001055E-01 a       901     0    61     1     1
  2.4057296126768057E-01 a       902     0    61     1     2
  1.5441174145248418E-01 a       903     0    61     1     3
  9.2751813996461881E-03 a       904     0    61     1     4
 -3.1706739708349080E-01 a       905     0    61     1     5
  5.1137805934222313E-01 a       906     0    61     1     6
 -1.3214255142444510E-02 a       907     0    61     1     7
  8.5087181673512424E-02 a       908     0    61     1     8
 -2.5526863605129191E-01 a       909     0    61     1     9
 -1.5033103765522363E-01 a       910     0    61     1    10
 -1.9553345428827409E-01 a       911     0    61     1    11
  1.7093701896632907E-01 a       912     0    61     1    12
  6.7270264934181243E-02 a       913     0    61     1    13
  1.7771407911813036E-01 a       914     0    61     1    14
  8.6767421529809055E-02 a       915     0    61     1    15
  3.4368641454517596E-01 a       916     0    62     1     1
  1.6589516770628704E-01 a       917     0    62     1     2
  2.4652731187115717E-01 a       918     0    62     1     3
  9.3717278473288337E-03 a       919     0    62     1     4
 -4.1326936391241670E-01 a       920     0    62     1     5
  1.4123791882918110E-01 a       921     0    62     1     6
 -4.1345395427760134E-01 a       922     0    62     1     7
  8.6828653777030348E-02 a       923     0    62     1     8
  2.3573295621677776E-01 a       924     0    62     1     9
 -9.9174000031033979E-02 a       925     0    62     1    10
 -3.2188825098558926E-01 a       926     0    62     1    11
 -1.0525425985070806E-02 a       927     0    62     1    12
  8.5391496209035134E-02 a       928     0    62     1    13
  1.3300145199836524E-01 a       929     0    62     1    14
  8.7704494815465495E-02 a       930     0    62     1    15
  4.3510678722919409E-02 a       931     0    63     1     1
 -1.2372236108262016E+00 a       932     0    63     1     2
 -3.7003692146652585E-03 a       933     0    63     1     3
  5.9521932672611876E-02 a       934     0    63     1     4
 -1.1618960109938103E+00 a       935     0    63     1     5
 -6.0492937735010255E-01 a       936     0    63     1     6
 -3.2224349886811804E-01 a       937     0    63     1     7
 -4.7511915178984711E-02 a       938     0    63     1     8
 -1.8339809270849733E-01 a       939     0    63     1     9
  1.7636905629589791E-01 a       940     0    63     1    10
 -2.4726161955618939E-01 a       941     0    63     1    11
 -3.2634410568133787E-01 a       942     0    63     1    12
 -9.3692273203033402E-02 a       943     0    63     1    13
  3.8491944759138047E-01 a       944     0    63     1    14
 -2.6221414810543942E-01 a       945     0    63     1    15
  4.7530710871148335E-01 a       946     0    64     1     1
 -5.9114663794179956E-01 a       947     0    64     1     2
  3.7325917831109563E-02 a       948     0    64     1     3
  7.1493217431469275E-02 a       949     0    64     1     4
  8.5630842217366854E-01 a       950     0    64     1     5
  4.3055493421828089E-01 a       951     0    64     1     6
  7.7037127800552718E-01 a       952     0    64     1     7
 -2.2072684396190631E-01 a       953     0    64     1     8
  1.4643636761245789E+00 a       954     0    64     1     9
 -9.2857283711351501E-01 a       955     0    64     1    10
 -4.3140327510752710E-02 a       956     0    64     1    11
 -6.9708857411177405E-01 a       957     0    64     1    12
 -2.9956498991925193E-02 a       958     0    64     1    13
  4.5418367330536713E-01 a       959     0    64     1    14
 -1.4375046000005967E-01 a       960     0    64     1    15
  1.2355336410637345E+00 a       961     0    65     1     1
 -3.5107492118460974E-02 a       962     0    65     1     2
  3.2947584777911282E-01 a       963     0    65     1     3
  2.6926703593690676E-01 a       964     0    65     1     4
 -8.5536802260288425E-01 a       965     0    65     1     5
  2.2048045364771522E+00 a       966     0    65     1     6
 -1.3476830763339820E+00 a       967     0    65     1     7
  1.4214999976571738E-01 a       968     0    65     1     8
  3.8098940800282970E-02 a       969     0    65     1     9
  7.5985912447556614E-01 a       970     0    65     1    10
 -1.1884522282238668E+00 a       971     0    65     1    11
  7.6075931032838995E-01 a       972     0    65     1    12
  1.3435881563076799E-01 a       973     0    65     1    13
  2.8367157757201844E-01 a       974     0    65     1    14
 -1.1077433084347235E-01 a       975     0    65     1    15
 -1.3461581907259590E+00 a       976     0    66     1     1
  5.7795853054110335E-01 a       977     0    66     1     2
 -4.4239085728932231E-01 a       978     0    66     1     3
  1.6287742405099764E-01 a       979     0    66     1     4
  3.1283967693643816E-01 a       980     0    66     1     5
 -1.1136002905178743E+00 a       981     0    66     1     6
  1.0284858464108233E+00 a       982     0    66     1     7
 -8.0730751322506644E-01 a       983     0    66     1     8
 -1.1216863554871797E+00 a       984     0    66     1     9
  3.4504125979717419E+00 a       985     0    66     1    10
 -2.2443913550177097E+00 a       986     0    66     1    11
  2.2837291983671926E+00 a       987     0    66     1    12
 -8.2611429511418130E-02 a       988     0    66     1    13
 -1.6889090426821354E-01 a       989     0    66     1    14
 -7.7838784001637151E-01 a       990     0    66     1    15
 -2.7524388600068067E-01 a       991     0    67     1     1
 -1.1331163660755333E-01 a       992     0    67     1     2
  2.2566906351125818E-01 a       993     0    67     1     3
  3.8723175759080089E-02 a       994     0    67     1     4
  6.3714488550292181E-01 a       995     0    67     1     5
 -3.7176483430904550E-01 a       996     0    67     1     6
  4.4199209935277861E-01 a       997     0    67     1     7
 -9.6432330502424349E-02 a       998     0    67     1     8
 -1.0537675047199874E-01 a       999     0    67     1     9
  1.5917520944616323E-01 a      1000     0    67     1    10
 -2.1845337295861572E-01 a      1001     0    67     1    11
 -5.8796467749702730E-01 a      1002     0    67     1    12
 -1.2249765712825843E-01 a      1003     0    67     1    13
 -3.8035749053157562E-02 a      1004     0    67     1    14
 -1.4496039872852245E-01 a      1005     0    67     1    15
  3.9562780392999068E-03 a      1006     0    68     1     1
  2.6811886218913550E-01 a      1007     0    68     1     2
 -1.9083901818788718E-02 a      1008     0    68     1     3
  2.5707390705503918E-03 a      1009     0    68     1     4
 -1.2346148031942183E-01 a      1010     0    68     1     5
  4.4313654647430040E-01 a      1011     0    68     1     6
  2.6294316507937621E-01 a      1012     0    68     1     7
  1.1021100397823083E-01 a      1013     0    68     1     8
 -1.8055379406483263E-01 a      1014     0    68     1     9
 -2.4839713042948762E-02 a      1015     0    68     1    10
  2.9318388647201360E-01 a      1016     0    68     1    11
  1.4776540004377078E-01 a      1017     0    68     1    12
  1.9586958930017936E-02 a      1018     0    68     1    13
  2.2045959957444406E-03 a      1019     0    68     1    14
  3.1774822492416666E-01 a      1020     0    68     1    15
  2.7983037862673164E-02 a      1021     0    69     1     1
  7.5531132650066235E-01 a      1022     0    69     1     2
  7.5473623420426639E-01 a      1023     0    69     1     3
  2.9529900697533101E-01 a      1024     0    69     1     4
 -1.8219229716774751E-01 a      1025     0    69     1     5
  4.5345377190473213E-01 a      1026     0    69     1     6
  9.0080119553314331E-01 a      1027     0    69     1     7
  3.9888970730025669E-01 a      1028     0    69     1     8
  3.8824086278293790E-01 a      1029     0    69     1     9
  1.4731841223603186E+00 a      1030     0    69     1    10
 -1.6665232483737693E+00 a      1031     0    69     1    11
  2.7258601508702643E-02 a      1032     0    69     1    12
 -2.4990687470550993E-01 a      1033     0    69     1    13
  4.4213711514914422E-01 a      1034     0    69     1    14
 -1.4638304968189869E-01 a      1035     0    69     1    15
  2.7470686963748747E-01 a      1036     0    70     1     1
  4.7524963548124871E-01 a      1037     0    70     1     2
 -4.0377088685938689E-01 a      1038     0    70     1     3
 -4.2026985473578103E-02 a      1039     0    70     1     4
 -1.7042408388714303E+00 a      1040     0    70     1     5
  7.5535458004715250E-01 a      1041     0    70     1     6
 -7.3530537548865849E-02 a      1042     0    70     1     7
 -9.3559556101026037E-02 a      1043     0    70     1     8
 -3.9051723022189005E-01 a      1044     0    70     1     9
  1.7002570773404999E-01 a      1045     0    70     1    10
  3.2653550530261777E-01 a      1046     0    70     1    11
  5.7883916707749816E-01 a      1047     0    70     1    12
  2.9147352517933334E-01 a      1048     0    70     1    13
 -1.0102029199669652E-01 a      1049     0    70     1    14
  5.6726301701863924E-01 a      1050     0    70     1    15
 -1.0796911493355721E-01 a      1051     0    71     1     1
  3.2027414590848662E+00 a      1052     0    71     1     2
 -1.2880302679143825E+00 a      1053     0    71     1     3
  1.6533105045456789E-01 a      1054     0    71     1     4
  1.0778175426479899E+00 a      1055     0    71     1     5
  1.4318825625971645E+00 a      1056     0    71     1     6
  2.5294760330850536E+00 a      1057     0    71     1     7
  4.5145802825796638E-01 a      1058     0    71     1     8
  2.0859152297880019E+00 a      1059     0    71     1     9
  1.1377868447525639E+00 a      1060     0    71     1    10
 -7.2916536263517495E-01 a      1061     0    71     1    11
  1.7174057114804251E+00 a      1062     0    71     1    12
  1.6506745910206153E-02 a      1063     0    71     1    13
 -1.0673118209224983E+00 a      1064     0    71     1    14
  7.8474960293855844E-01 a      1065     0    71     1    15
 -1.0037257365428383E+00 a      1066     0    72     1     1
  1.0927833659189012E+01 a      1067     0    72     1     2
  2.8208868213904799E+00 a      1068     0    72     1     3
 -3.3797353797010701E-03 a      1069     0    72     1     4
 -4.4379188147981239E+00 a      1070     0    72     1     5
 -3.3175646785262578E+00 a      1071     0    72     1     6
 -8.4744121820382627E+00 a      1072     0    72     1     7
 -4.5681459155151405E+00 a      1073     0    72     1     8
 -1.2866644899800561E+00 a      1074     0    72     1     9
  4.1919502668519630E+00 a      1075     0    72     1    10
 -3.6559900594775119E+00 a      1076     0    72     1    11
  1.8596230168322359E+00 a      1077     0    72     1    12
 -2.0802664701349407E+00 a      1078     0    72     1    13
  2.5692300820406642E+00 a      1079     0    72     1    14
  2.3773749480390238E+00 a      1080     0    72     1    15
  3.8908399461163673E-01 a      1081     0    73     1     1
  8.9289465058059003E-01 a      1082     0    73     1     2
 -1.1433694639979025E-01 a      1083     0    73     1     3
 -2.0133522224957557E-02 a      1084     0    73     1     4
 -1.6044182820205988E+00 a      1085     0    73     1     5
  7.5641006328367544E-01 a      1086     0    73     1     6
  4.8823217252127199E-01 a      1087     0    73     1     7
  2.7187510800309300E-01 a      1088     0    73     1     8
 -1.0197944224744844E+00 a      1089     0    73     1     9
  7.8924898700623594E-02 a      1090     0    73     1    10
 -2.9199509595676570E-01 a      1091     0    73     1    11
  5.9774099267739300E-01 a      1092     0    73     1    12
  2.3549924692871285E-01 a      1093     0    73     1    13
  1.9806210649012804E-01 a      1094     0    73     1    14
  2.4867567916099681E-01 a      1095     0    73     1    15
  2.9802411901835163E-01 a      1096     0    74     1     1
  4.9635863758827475E-01 a      1097     0    74     1     2
  2.7166274159357490E-01 a      1098     0    74     1     3
  2.9487664507241079E-02 a      1099     0    74     1     4
 -1.8635596822747744E-01 a      1100     0    74     1     5
  5.3979363014502610E-02 a      1101     0    74     1     6
 -4.4933961601131323E-01 a      1102     0    74     1     7
 -6.8043700671401486E-01 a      1103     0    74     1     8
  1.0938694188627989E+00 a      1104     0    74     1     9
 -5.1929647711317840E-02 a      1105     0    74     1    10
 -3.4499074627729898E-01 a      1106     0    74     1    11
  4.9821271783332399E-02 a      1107     0    74     1    12
  6.4804341798705090E-02 a      1108     0    74     1    13
  1.4139608434965067E-01 a      1109     0    74     1    14
 -3.3539828872002388E-03 a      1110     0    74     1    15
 -1.2469442440538642E-03 a      1111     0    75     1     1
  6.2382059135522483E-01 a      1112     0    75     1     2
 -1.1440095663120895E+00 a      1113     0    75     1     3
 -2.6013580409373305E-01 a      1114     0    75     1     4
 -5.3652974725140766E-02 a      1115     0    75     1     5
 -1.1205255748154033E+00 a      1116     0    75     1     6
 -4.1871272354209371E-01 a      1117     0    75     1     7
  2.0945467959418068E-01 a      1118     0    75     1     8
 -4.8296342297163353E-01 a      1119     0    75     1     9
 -8.5503131911063612E-01 a      1120     0    75     1    10
  1.4936505887334666E+00 a      1121     0    75     1    11
  7.5486464604341930E-01 a      1122     0    75     1    12
  3.6293585923775895E-01 a      1123     0    75     1    13
 -5.3827799952293909E-01 a      1124     0    75     1    14
 -7.4869475199266761E-02 a      1125     0    75     1    15
 -2.1937447451178382E-02 a      1126     0    76     1     1
 -2.0726155718552230E+00 a      1127     0    76     1     2
  1.1436386141066892E+00 a      1128     0    76     1     3
  1.4905135335418981E-01 a      1129     0    76     1     4
  1.4414699451811469E-01 a      1130     0    76     1     5
 -2.6316329198654160E+00 a      1131     0    76     1     6
 -1.2546102794516167E+00 a      1132     0    76     1     7
  2.6780704179563042E-01 a      1133     0    76     1     8
 -5.1271620605177697E+00 a      1134     0    76     1     9
  1.2052431015344146E-01 a      1135     0    76     1    10
 -2.3461686929111094E+00 a      1136     0    76     1    11
 -1.0412185866080512E+00 a      1137     0    76     1    12
 -4.4813784568525084E-02 a      1138     0    76     1    13
  5.0260170699179796E-01 a      1139     0    76     1    14
 -7.7363706597901094E-01 a      1140     0    76     1    15
 -2.4155393858391125E+00 a      1141     0    77     1     1
  8.2413940942547204E-01 a      1142     0    77     1     2
 -1.8466104647843182E+00 a      1143     0    77     1     3
 -9.6762823909437135E-02 a      1144     0    77     1     4
  3.1524040756162330E+00 a      1145     0    77     1     5
  3.0479983995478115E+00 a      1146     0    77     1     6
 -2.6635970434357954E-02 a      1147     0    77     1     7
  1.5238156092143551E+00 a      1148     0    77     1     8
 -8.4955761212091052E-01 a      1149     0    77     1     9
  3.6786736899257311E+00 a      1150     0    77     1    10
 -2.1288441591993830E+00 a      1151     0    77     1    11
 -8.0223044338181115E-01 a      1152     0    77     1    12
 -4.6114988085299091E-01 a      1153     0    77     1    13
 -2.0150807745818273E+00 a      1154     0    77     1    14
 -1.4964579886722200E+00 a      1155     0    77     1    15
 -5.6052311973608200E+00 a      1156     0    78     1     1
  7.6681044506272213E+00 a      1157     0    78     1     2
  1.2085292565191967E+00 a      1158     0    78     1     3
  6.2751981547848457E-01 a      1159     0    78     1     4
  4.5872138017619974E+00 a      1160     0    78     1     5
 -3.4836753549702251E+00 a      1161     0    78     1     6
 -1.0667518189096616E+00 a      1162     0    78     1     7
  3.4587133958065994E+00 a      1163     0    78     1     8
 -9.2318018632343062E+00 a      1164     0    78     1     9
  4.5210272419477517E+00 a      1165     0    78     1    10
 -3.5112969488283352E+00 a      1166     0    78     1    11
 -4.9158276289872429E+00 a      1167     0    78     1    12
 -5.1987754957950405E-01 a      1168     0    78     1    13
 -4.5905077547202766E-01 a      1169     0    78     1    14
  4.7129253525483028E+00 a      1170     0    78     1    15
 -6.7805086709764328E-01 a      1171     0    79     1     1
  1.8729576386989560E-01 a      1172     0    79     1     2
  8.2856491069870286E-01 a      1173     0    79     1     3
 -1.5909978973994692E-02 a      1174     0    79     1     4
  7.5296724649707636E-01 a      1175     0    79     1     5
 -5.9219184929976798E-01 a      1176     0    79     1     6
 -4.5570423558588223E-02 a      1177     0    79     1     7
 -1.1653131743499088E+00 a      1178     0    79     1     8
 -1.7616401735699894E+00 a      1179     0    79     1     9
 -2.0559051866806732E-01 a      1180     0    79     1    10
 -5.3436703792734785E-01 a      1181     0    79     1    11
 -8.6627548104328822E-01 a      1182     0    79     1    12
 -1.5930296825115882E-02 a      1183     0    79     1    13
 -8.1279153281989883E-03 a      1184     0    79     1    14
  4.2519018920127466E-01 a      1185     0    79     1    15
 -3.8397912996329525E-01 a      1186     0    80     1     1
  7.4547593322064317E-03 a      1187     0    80     1     2
  1.2454911016215196E-01 a      1188     0    80     1     3
 -9.4218554674731142E-02 a      1189     0    80     1     4
  3.4760066925850530E-01 a      1190     0    80     1     5
  6.4334091863280374E-01 a      1191     0    80     1     6
 -4.6373276372577754E-01 a      1192     0    80     1     7
  1.3659089022678728E-01 a      1193     0    80     1     8
 -8.1768928374742322E-01 a      1194     0    80     1     9
  5.8051090585795669E-02 a      1195     0    80     1    10
 -2.5046222220273179E-01 a      1196     0    80     1    11
  3.1515188561702895E-01 a      1197     0    80     1    12
 -1.6583081904728698E-02 a      1198     0    80     1    13
 -2.9117801418223216E-01 a      1199     0    80     1    14
  8.5261772434550950E-02 a      1200     0    80     1    15
  7.8120935430267598E-03 a      1201     0    81     1     1
  3.5338181768994181E-01 a      1202     0    81     1     2
 -3.9689107299606857E-01 a      1203     0    81     1     3
  4.4952905121285874E-01 a      1204     0    81     1     4
  8.4499099168872582E-01 a      1205     0    81     1     5
  3.0268725768439381E-01 a      1206     0    81     1     6
  3.7999366019894182E-01 a      1207     0    81     1     7
  3.1460111199576444E+00 a      1208     0    81     1     8
  1.9730151685935793E-01 a      1209     0    81     1     9
  2.3236582975997373E+00 a      1210     0    81     1    10
 -8.1924623314260558E-01 a      1211     0    81     1    11
 -5.5038980817220562E-01 a      1212     0    81     1    12
 -7.1751883972054786E-01 a      1213     0    81     1    13
  3.0746302967702704E-01 a      1214     0    81     1    14
 -4.1107189368603786E-01 a      1215     0    81     1    15
  6.9758793074938708E-01 a      1216     0    82     1     1
  9.7974588023257303E-01 a      1217     0    82     1     2
  5.1975902292527210E-01 a      1218     0    82     1     3
 -4.9286071443941301E-03 a      1219     0    82     1     4
  1.5593445994540893E+00 a      1220     0    82     1     5
  3.9501760578438385E+00 a      1221     0    82     1     6
  1.0103842890705672E+00 a      1222     0    82     1     7
  2.9269512930464452E+00 a      1223     0    82     1     8
 -3.5701122791814148E+00 a      1224     0    82     1     9
 -1.7138770768531015E+00 a      1225     0    82     1    10
 -4.2738182936968899E-01 a      1226     0    82     1    11
 -4.7606992023627348E-01 a      1227     0    82     1    12
  5.6096410444675650E-02 a      1228     0    82     1    13
  5.6097855822384668E-01 a      1229     0    82     1    14
  7.4748012784092732E-01 a      1230     0    82     1    15
  5.5017789339586800E+00 a      1231     0    83     1     1
 -1.9050438492732402E+00 a      1232     0    83     1     2
  3.2097558243372073E+00 a      1233     0    83     1     3
  6.0048559674315227E-01 a      1234     0    83     1     4
 -9.5800640621238731E-01 a      1235     0    83     1     5
 -1.3025643486969529E+00 a      1236     0    83     1     6
 -9.7370748222189862E-01 a      1237     0    83     1     7
 -4.2024254481902951E-01 a      1238     0    83     1     8
  3.3679990548757597E+00 a      1239     0    83     1     9
 -1.0468610694365499E+00 a      1240     0    83     1    10
  3.4441593350708826E+00 a      1241     0    83     1    11
  1.5369429848710063E+00 a      1242     0    83     1    12
  1.3680751121201089E+00 a      1243     0    83     1    13
 -1.1286542352999835E+00 a      1244     0    83     1    14
  3.0319480342837544E+00 a      1245     0    83     1    15
  3.9878427199115469E+00 a      1246     0    84     1     1
  2.1260188965427447E+00 a      1247     0    84     1     2
  3.8348308577655548E+00 a      1248     0    84     1     3
 -3.4232124805672931E-01 a      1249     0    84     1     4
 -2.8004062352071908E+00 a      1250     0    84     1     5
  1.3489205862733977E+00 a      1251     0    84     1     6
  2.7524024542939483E+00 a      1252     0    84     1     7
 -6.7422998134906820E+00 a      1253     0    84     1     8
 -3.4056520259206122E+00 a      1254     0    84     1     9
  2.2245999957338296E+00 a      1255     0    84     1    10
  3.5816692372911452E+00 a      1256     0    84     1    11
  1.6604831505032918E+00 a      1257     0    84     1    12
 -1.2406858300897634E+00 a      1258     0    84     1    13
 -1.8215757588551125E+00 a      1259     0    84     1    14
 -8.0197278156972862E-01 a      1260     0    84     1    15
 -2.5657143503494989E-01 a      1261     0    85     1     1
 -2.7009036501241335E-01 a      1262     0    85     1     2
 -1.2876837557909257E-01 a      1263     0    85     1     3
 -1.7295993236892443E-03 a      1264     0    85     1     4
  2.4914794603792306E-01 a      1265     0    85     1     5
 -4.2571395294867503E-01 a      1266     0    85     1     6
 -8.3329470258498350E-02 a      1267     0    85     1     7
 -2.1060148349578287E-01 a      1268     0    85     1     8
  3.1346356688036114E-01 a      1269     0    85     1     9
  1.8498277012814637E-01 a      1270     0    85     1    10
  2.0955403550429696E-01 a      1271     0    85     1    11
 -4.6587448523845290E-02 a      1272     0    85     1    12
 -6.9959231702690319E-02 a      1273     0    85     1    13
 -1.7424192252929485E-01 a      1274     0    85     1    14
 -3.4125186645384040E-02 a      1275     0    85     1    15
 -2.2939237541955201E-01 a      1276     0    86     1     1
 -2.8202882148641867E-01 a      1277     0    86     1     2
 -1.9834171908676507E-01 a      1278     0    86     1     3
 -6.4041312509126331E-03 a      1279     0    86     1     4
  2.7044335559481377E-02 a      1280     0    86     1     5
  4.1699854798225765E-02 a      1281     0    86     1     6
  3.3630987248090766E-01 a      1282     0    86     1     7
  5.4025171465307581E-02 a      1283     0    86     1     8
 -6.3718388796672820E-01 a      1284     0    86     1     9
  1.1126600739051409E-01 a      1285     0    86     1    10
  1.0186387120835702E-01 a      1286     0    86     1    11
 -7.7139327194109319E-02 a      1287     0    86     1    12
 -4.7030075825379700E-02 a      1288     0    86     1    13
 -7.6008772150291809E-02 a      1289     0    86     1    14
 -9.8030631163170664E-02 a      1290     0    86     1    15
  1.3596915950110156E-01 a      1291     0    87     1     1
  1.2127456533615560E-01 a      1292     0    87     1     2
 -4.7282305426886787E-02 a      1293     0    87     1     3
  3.6998906268763732E-02 a      1294     0    87     1     4
  7.5195331549385611E-02 a      1295     0    87     1     5
  1.4481779682466625E+00 a      1296     0    87     1     6
  1.5670068328099970E-02 a      1297     0    87     1     7
 -1.2997650566130395E-01 a      1298     0    87     1     8
  4.2424589112945471E-01 a      1299     0    87     1     9
  6.8837034919889628E-02 a      1300     0    87     1    10
 -2.1688608421591382E-01 a      1301     0    87     1    11
  3.8333793612835870E-01 a      1302     0    87     1    12
 -1.2117209710378617E-01 a      1303     0    87     1    13
 -1.4454179499912809E-01 a      1304     0    87     1    14
 -8.9454141556318196E-04 a      1305     0    87     1    15
 -5.0526912734103480E-01 a      1306     0    88     1     1
  9.5208574708033261E-02 a      1307     0    88     1     2
 -3.3124640105254921E-01 a      1308     0    88     1     3
 -9.8192370149389349E-02 a      1309     0    88     1     4
 -6.6390914332035589E-02 a      1310     0    88     1     5
  9.8528373031725058E-01 a      1311     0    88     1     6
 -1.0860959063161384E+00 a      1312     0    88     1     7
  1.2709879599912169E-01 a      1313     0    88     1     8
  9.6664698423264339E-01 a      1314     0    88     1     9
  2.2134145987418574E-01 a      1315     0    88     1    10
  2.1695671978879702E-01 a      1316     0    88     1    11
  9.0901436847951056E-01 a      1317     0    88     1    12
 -1.0066479133606218E-01 a      1318     0    88     1    13
 -4.1637704184540297E-01 a      1319     0    88     1    14
 -9.5673542586359850E-02 a      1320     0    88     1    15
 -5.2467436350251931E-02 a      1321     0    89     1     1
  1.0530595201308679E+00 a      1322     0    89     1     2
 -1.6023943389586190E-01 a      1323     0    89     1     3
 -2.2339134367737243E-01 a      1324     0    89     1     4
  3.4293635769245900E-01 a      1325     0    89     1     5
 -2.1599433315444538E+00 a      1326     0    89     1     6
  1.5471995476119642E+00 a      1327     0    89     1     7
 -1.9375763550088537E-01 a      1328     0    89     1     8
  1.8270458482642912E-01 a      1329     0    89     1     9
 -1.4472277369330468E+00 a      1330     0    89     1    10
  1.9847697287484491E+00 a      1331     0    89     1    11
  6.7812766492171428E-01 a      1332     0    89     1    12
  3.4011247647683984E-02 a      1333     0    89     1    13
 -8.4060084807777505E-02 a      1334     0    89     1    14
  2.9675930071793238E-01 a      1335     0    89     1    15
  2.3147324087764733E+00 a      1336     0    90     1     1
 -6.0391072945160607E-01 a      1337     0    90     1     2
  8.2319844836211853E-01 a      1338     0    90     1     3
 -6.1033690174959920E-01 a      1339     0    90     1     4
 -3.0278023756509156E+00 a      1340     0    90     1     5
  1.5164668751491457E+00 a      1341     0    90     1     6
  3.1979193216619967E-01 a      1342     0    90     1     7
  1.0833908970598314E+00 a      1343     0    90     1     8
 -4.5686586408580454E-01 a      1344     0    90     1     9
 -3.8268539171874516E+00 a      1345     0    90     1    10
 -1.7627938262824841E-01 a      1346     0    90     1    11
  1.6714854460649216E+00 a      1347     0    90     1    12
  9.4232633256553144E-01 a      1348     0    90     1    13
 -4.1803130316759157E-01 a      1349     0    90     1    14
 -2.6246163282757218E-01 a      1350     0    90     1    15
  4.3733842412650248E-01 a      1351     0    91     1     1
  2.1410596237199681E-01 a      1352     0    91     1     2
 -1.9580786137742337E-01 a      1353     0    91     1     3
  2.1227733359526890E-02 a      1354     0    91     1     4
 -3.9635490443518351E-01 a      1355     0    91     1     5
  5.5458947772742111E-03 a      1356     0    91     1     6
  4.2317917379947632E-02 a      1357     0    91     1     7
  3.5122260268440908E-01 a      1358     0    91     1     8
  7.7841511964179499E-01 a      1359     0    91     1     9
  1.5393715126332166E-01 a      1360     0    91     1    10
  2.2532058297003793E-01 a      1361     0    91     1    11
  3.2417301935676346E-01 a      1362     0    91     1    12
  6.8735757836749636E-02 a      1363     0    91     1    13
  6.2439475233430811E-02 a      1364     0    91     1    14
 -1.5248494290223927E-01 a      1365     0    91     1    15
  1.8571982665194722E-01 a      1366     0    92     1     1
  5.0526056531251341E-02 a      1367     0    92     1     2
  1.1781796393086987E-01 a      1368     0    92     1     3
  4.0064373763674256E-02 a      1369     0    92     1     4
 -1.7063104743848231E-01 a      1370     0    92     1     5
 -2.3424372865455505E-02 a      1371     0    92     1     6
 -1.7505648162050821E-01 a      1372     0    92     1     7
 -3.0438017976045156E-02 a      1373     0    92     1     8
  2.5387286610518450E-01 a      1374     0    92     1     9
 -2.3817466252349165E-02 a      1375     0    92     1    10
 -5.3238683814324637E-02 a      1376     0    92     1    11
  7.2288131519668382E-03 a      1377     0    92     1    12
  8.8306189263265451E-03 a      1378     0    92     1    13
  1.4237596273089384E-01 a      1379     0    92     1    14
  3.2653753737503899E-02 a      1380     0    92     1    15
 -7.3614810656539353E-02 a      1381     0    93     1     1
 -2.2907049804415588E-01 a      1382     0    93     1     2
  3.2375485385128033E-01 a      1383     0    93     1     3
  4.9024819729326340E-03 a      1384     0    93     1     4
 -8.5172491364029393E-02 a      1385     0    93     1     5
  5.7584218841929224E-01 a      1386     0    93     1     6
 -1.0485377874215522E+00 a      1387     0    93     1     7
 -9.5175459488038239E-01 a      1388     0    93     1     8
  3.9780268365909777E-01 a      1389     0    93     1     9
 -7.6118665043000000E-01 a      1390     0    93     1    10
 -3.3353292654217812E-02 a      1391     0    93     1    11
  8.1021843185904074E-01 a      1392     0    93     1    12
  2.7026298405717109E-01 a      1393     0    93     1    13
 -1.6413960344682371E-01 a      1394     0    93     1    14
  5.1115730739734044E-01 a      1395     0    93     1    15
 -5.2639862304514937E-02 a      1396     0    94     1     1
 -5.9328719078663184E-01 a      1397     0    94     1     2
  1.5288703098413256E-01 a      1398     0    94     1     3
 -5.8544276737051329E-02 a      1399     0    94     1     4
 -4.5909291561951343E-01 a      1400     0    94     1     5
 -4.7207922489017995E-01 a      1401     0    94     1     6
 -4.6610248118125797E-01 a      1402     0    94     1     7
 -4.0769368414565821E-01 a      1403     0    94     1     8
  3.4775640288421950E-02 a      1404     0    94     1     9
  2.3692986679440611E-01 a      1405     0    94     1    10
 -2.1548842988291711E-01 a      1406     0    94     1    11
 -2.6139187665078789E-01 a      1407     0    94     1    12
  1.9666920346685223E-02 a      1408     0    94     1    13
 -1.5151390001489909E-01 a      1409     0    94     1    14
 -8.9854676780718096E-02 a      1410     0    94     1    15
 -2.1699088885509950E+00 a      1411     0    95     1     1
 -1.6688331567695298E+00 a      1412     0    95     1     2
 -1.5273769497067109E+00 a      1413     0    95     1     3
  3.8809871757985887E-01 a      1414     0    95     1     4
  5.5094684069057553E-01 a      1415     0    95     1     5
  1.1967653829577403E+00 a      1416     0    95     1     6
 -2.1646780585587311E+00 a      1417     0    95     1     7
 -1.0011237074645918E+00 a      1418     0    95     1     8
  7.3499063652092034E-01 a      1419     0    95     1     9
  8.8682878947672972E-01 a      1420     0    95     1    10
 -3.0343986270565565E-01 a      1421     0    95     1    11
  6.1851972546984746E-01 a      1422     0    95     1    12
 -6.8081932220542130E-01 a      1423     0    95     1    13
  7.8381258805171616E-01 a      1424     0    95     1    14
 -5.3605156398971998E-01 a      1425     0    95     1    15
 -2.0071537673627224E+00 a      1426     0    96     1     1
  2.3367616271161387E+00 a      1427     0    96     1     2
 -1.2838833279020201E+00 a      1428     0    96     1     3
 -8.7933381491607093E-02 a      1429     0    96     1     4
  3.7831197191947985E+00 a      1430     0    96     1     5
 -2.1126079517243830E+00 a      1431     0    96     1     6
 -1.1866580628558538E+00 a      1432     0    96     1     7
 -7.3793840290995272E-01 a      1433     0    96     1     8
 -4.5045410154799881E-01 a      1434     0    96     1     9
 -1.7644695241509130E+00 a      1435     0    96     1    10
 -7.7876348622128755E-01 a      1436     0    96     1    11
  1.8106520044064753E-01 a      1437     0    96     1    12
 -1.4395008991149491E-01 a      1438     0    96     1    13
  9.9921210862416210E-01 a      1439     0    96     1    14
  7.5400242104697068E-01 a      1440     0    96     1    15
 -4.2366223639773265E-01 a      1441     0    97     1     1
 -2.7253075213383099E-01 a      1442     0    97     1     2
  2.4449699657152588E-02 a      1443     0    97     1     3
  1.0999291432325130E-02 a      1444     0    97     1     4
  1.5607366717938981E-01 a      1445     0    97     1     5
 -3.7803077159581544E-03 a      1446     0    97     1     6
 -1.5219812404148234E-01 a      1447     0    97     1     7
 -6.1350633321243164E-01 a      1448     0    97     1     8
 -2.8339961617780712E-01 a      1449     0    97     1     9
  1.9115061536938285E-02 a      1450     0    97     1    10
 -1.1689357137309614E-01 a      1451     0    97     1    11
  8.4263849892960013E-02 a      1452     0    97     1    12
 -1.1065000995849282E-01 a      1453     0    97     1    13
 -4.3934400175896116E-02 a      1454     0    97     1    14
  8.1112470052309912E-02 a      1455     0    97     1    15
 -3.4709444119821631E-01 a      1456     0    98     1     1
 -6.0641343860706409E-01 a      1457     0    98     1     2
 -6.2594227146274439E-02 a      1458     0    98     1     3
 -2.4039742509278161E-02 a      1459     0    98     1     4
  2.1521571875301621E-01 a      1460     0    98     1     5
  1.5142382078277250E-01 a      1461     0    98     1     6
  1.7741538611585103E-02 a      1462     0    98     1     7
  1.5222775926646023E-01 a      1463     0    98     1     8
 -7.2657962614695293E-01 a      1464     0    98     1     9
 -2.8356459509308183E-02 a      1465     0    98     1    10
 -2.1036050023371711E-01 a      1466     0    98     1    11
 -2.6854737882748220E-01 a      1467     0    98     1    12
 -3.9811117944325798E-02 a      1468     0    98     1    13
 -6.2594796398679764E-02 a      1469     0    98     1    14
 -1.6503203468549710E-01 a      1470     0    98     1    15
  2.0430485422426586E-01 a      1471     0    99     1     1
 -4.7854461864128683E-01 a      1472     0    99     1     2
 -9.8867691982786846E-02 a      1473     0    99     1     3
  1.1995985738771149E-01 a      1474     0    99     1     4
 -8.9576920574426422E-01 a      1475     0    99     1     5
  1.1347663856385841E+00 a      1476     0    99     1     6
 -4.7861890437573223E-01 a      1477     0    99     1     7
 -5.2640447254690681E-01 a      1478     0    99     1     8
 -2.1513840855311636E-01 a      1479     0    99     1     9
  3.6238799263488902E-01 a      1480     0    99     1    10
 -3.5251924348863195E-01 a      1481     0    99     1    11
  3.9570338743051658E-01 a      1482     0    99     1    12
 -6.8790176188442451E-02 a      1483     0    99     1    13
  2.6361452003004193E-01 a      1484     0    99     1    14
 -5.1508197056917950E-03 a      1485     0    99     1    15
  4.0512735519637838E-01 a      1486     0   100     1     1
  2.0774958637969073E-02 a      1487     0   100     1     2
  4.2282644746800872E-02 a      1488     0   100     1     3
  1.8722596841903257E-03 a      1489     0   100     1     4
  6.6746573035338008E-01 a      1490     0   100     1     5
  2.7772899900493546E+00 a      1491     0   100     1     6
 -2.2022364509976526E+00 a      1492     0   100     1     7
  3.1481276199521457E-01 a      1493     0   100     1     8
  2.6702257488418163E-01 a      1494     0   100     1     9
 -7.6375060951693929E-01 a      1495     0   100     1    10
 -2.9640656551966094E-01 a      1496     0   100     1    11
  5.9488704443018081E-01 a      1497     0   100     1    12
 -1.6013094927033136E-01 a      1498     0   100     1    13
  7.3628938998993421E-02 a      1499     0   100     1    14
 -4.9035827880252680E-01 a      1500     0   100     1    15
  1.4663653489445785E+00 a      1501     0   101     1     1
  9.3823383328762677E-01 a      1502     0   101     1     2
  1.2612756726973484E+00 a      1503     0   101     1     3
  1.2188346143216142E-01 a      1504     0   101     1     4
 -1.2827497102782376E-01 a      1505     0   101     1     5
 -3.6902165704265862E-02 a      1506     0   101     1     6
 -2.1951791893830905E+00 a      1507     0   101     1     7
  2.4070969911938050E-01 a      1508     0   101     1     8
 -1.6775860489828458E+00 a      1509     0   101     1     9
 -4.5199092610765557E-01 a      1510     0   101     1    10
  5.0605281596486318E-01 a      1511     0   101     1    11
  1.6982153484384881E+00 a      1512     0   101     1    12
 -1.2628093628820194E-01 a      1513     0   101     1    13
  9.1170467115240339E-01 a      1514     0   101     1    14
  6.0797455793001165E-01 a      1515     0   101     1    15
  3.9421644081941629E+00 a      1516     0   102     1     1
 -1.7388952855498543E+00 a      1517     0   102     1     2
  1.1166156733243255E+00 a      1518     0   102     1     3
 -2.3351768714745344E-01 a      1519     0   102     1     4
 -3.8310597598091134E-01 a      1520     0   102     1     5
  3.5271723434597830E+00 a      1521     0   102     1     6
 -5.8343680305320698E+00 a      1522     0   102     1     7
  2.5626300570571341E+00 a      1523     0   102     1     8
 -5.2765536426305326E-01 a      1524     0   102     1     9
 -8.1623297940033879E-01 a      1525     0   102     1    10
  2.5756944235151669E+00 a      1526     0   102     1    11
 -4.8361937787556766E+00 a      1527     0   102     1    12
 -1.4420030964285019E-01 a      1528     0   102     1    13
  8.7155734188182343E-01 a      1529     0   102     1    14
  1.3998299224829483E-01 a      1530     0   102     1    15
  3.7572164788596168E-01 a      1531     0   103     1     1
  2.3201338197560645E-01 a      1532     0   103     1     2
 -1.6510854220000040E-01 a      1533     0   103     1     3
 -1.6893262632780036E-02 a      1534     0   103     1     4
 -7.1369541804722353E-02 a      1535     0   103     1     5
  1.9140392823121116E-01 a      1536     0   103     1     6
  1.1726344856193119E-01 a      1537     0   103     1     7
  5.6119303344866434E-01 a      1538     0   103     1     8
  6.1495850061150115E-01 a      1539     0   103     1     9
 -3.1780785696044367E-02 a      1540     0   103     1    10
  1.9447912218490074E-01 a      1541     0   103     1    11
  1.7453873657299765E-01 a      1542     0   103     1    12
  6.7567804844702123E-02 a      1543     0   103     1    13
 -1.9087950174697426E-02 a      1544     0   103     1    14
 -1.1716059317145183E-01 a      1545     0   103     1    15
  3.5004280856150244E-01 a      1546     0   104     1     1
  3.9578828622320544E-01 a      1547     0   104     1     2
  1.6409472088306779E-01 a      1548     0   104     1     3
  2.8543029102588387E-02 a      1549     0   104     1     4
  6.3497056146256128E-02 a      1550     0   104     1     5
 -5.0248697876713246E-02 a      1551     0   104     1     6
  2.5509498399277936E-01 a      1552     0   104     1     7
  3.4525281772694610E-01 a      1553     0   104     1     8
  3.0726819867905997E-01 a      1554     0   104     1     9
 -9.8921540388038007E-02 a      1555     0   104     1    10
  5.1116137837180491E-04 a      1556     0   104     1    11
  4.8233132101494013E-02 a      1557     0   104     1    12
  8.2789714557834522E-03 a      1558     0   104     1    13
  9.1399746682925831E-02 a      1559     0   104     1    14
  1.0328405803194625E-01 a      1560     0   104     1    15
  1.7470529194114687E-01 a      1561     0   105     1     1
  1.9139347843912507E-02 a      1562     0   105     1     2
  3.2739621722680257E-01 a      1563     0   105     1     3
 -1.6875640520242766E-01 a      1564     0   105     1     4
  9.0530170271115107E-01 a      1565     0   105     1     5
  5.2184258191692001E-01 a      1566     0   105     1     6
  1.7505680114671563E-02 a      1567     0   105     1     7
  5.4681407714732710E-01 a      1568     0   105     1     8
 -1.3900595413170366E-01 a      1569     0   105     1     9
 -9.0173215745012580E-01 a      1570     0   105     1    10
  2.5442743723063516E-01 a      1571     0   105     1    11
  3.1269398498063122E-01 a      1572     0   105     1    12
  7.7763481600762491E-02 a      1573     0   105     1    13
 -1.6910094036798309E-01 a      1574     0   105     1    14
  1.8496747325876614E-01 a      1575     0   105     1    15
 -4.9012434092793361E-01 a      1576     0   106     1     1
 -4.3792958298175177E-01 a      1577     0   106     1     2
  9.0425815031234785E-02 a      1578     0   106     1     3
 -1.1486536045426844E-01 a      1579     0   106     1     4
  2.7029732209060681E-01 a      1580     0   106     1     5
 -2.2645386772278084E+00 a      1581     0   106     1     6
  1.8012518510910960E+00 a      1582     0   106     1     7
 -1.1570423598537509E+00 a      1583     0   106     1     8
  9.5706653735813596E-01 a      1584     0   106     1     9
  1.3478310985365505E-01 a      1585     0   106     1    10
 -6.1590672753375109E-01 a      1586     0   106     1    11
 -1.6344914532144691E-01 a      1587     0   106     1    12
  1.5489836690839358E-02 a      1588     0   106     1    13
 -2.1547350996546230E-01 a      1589     0   106     1    14
 -1.3112801186239895E-01 a      1590     0   106     1    15
 -1.1913535474833001E+00 a      1591     0   107     1     1
  9.9333375403530400E-01 a      1592     0   107     1     2
 -1.3641333471174912E+00 a      1593     0   107     1     3
 -9.6830094478466550E-02 a      1594     0   107     1     4
  8.4437365600940872E-01 a      1595     0   107     1     5
  1.2641840625314773E+00 a      1596     0   107     1     6
  1.7010441031237380E+00 a      1597     0   107     1     7
 -2.9436472075012909E-01 a      1598     0   107     1     8
  1.8428928185341995E+00 a      1599     0   107     1     9
 -4.1685522756921239E-01 a      1600     0   107     1    10
  2.1190939200346823E-01 a      1601     0   107     1    11
 -4.5620722145489900E-02 a      1602     0   107     1    12
  1.1906515038095447E-01 a      1603     0   107     1    13
 -3.0026839360108165E-01 a      1604     0   107     1    14
 -6.7010267798028211E-01 a      1605     0   107     1    15
 -2.6967808300827150E+00 a      1606     0   108     1     1
  3.4578775877469128E+00 a      1607     0   108     1     2
 -1.1187395576226618E+00 a      1608     0   108     1     3
  8.0111976458652992E-02 a      1609     0   108     1     4
  2.3659395562293200E+00 a      1610     0   108     1     5
 -9.2306690107878708E-01 a      1611     0   108     1     6
 -2.0103381125246586E-01 a      1612     0   108     1     7
 -6.0978205284142426E+00 a      1613     0   108     1     8
  4.3009359418677695E-01 a      1614     0   108     1     9
 -1.7568457774572515E+00 a      1615     0   108     1    10
 -2.5566436535307298E+00 a      1616     0   108     1    11
  5.3997058864442398E+00 a      1617     0   108     1    12
  3.4361431517746771E-01 a      1618     0   108     1    13
 -9.5475517841159696E-01 a      1619     0   108     1    14
 -2.8785364946015235E-01 a      1620     0   108     1    15
  7.9566397686074028E-02 a      1621     0   109     1     1
  1.8489670211757397E-01 a      1622     0   109     1     2
  2.7396867058192172E-02 a      1623     0   109     1     3
