################################################################################
# Neural network connection values (weights and biases).
################################################################################
# Col  Name       Description
################################################################################
# 1    connection Neural network connection value.
# 2    t          Connection type (a = weight, b = bias).
# 3    index      Index enumerating weights.
# 4    l_s        Starting point layer (end point layer for biases).
# 5    n_s        Starting point neuron in starting layer (end point neuron for biases).
# 6    l_e        End point layer.
# 7    n_e        End point neuron in end layer.
################################################################################
#                      1 2         3     4     5     6     7
#             connection t     index   l_s   n_s   l_e   n_e
############################################################
  7.4557381842709070E-01 a         1     0     1     1     1
  2.8269757858966638E+00 a         2     0     1     1     2
  1.7362221147441156E-01 a         3     0     1     1     3
  9.6183796838260915E-01 a         4     0     1     1     4
  2.2734994671683877E+00 a         5     0     1     1     5
 -5.9312506600980575E-01 a         6     0     1     1     6
  6.6374756416813241E-01 a         7     0     1     1     7
 -8.7148594373754129E-01 a         8     0     1     1     8
 -1.9267622720255959E-01 a         9     0     1     1     9
 -5.5209162603101647E-01 a        10     0     1     1    10
 -5.9432091988455427E-01 a        11     0     1     1    11
 -1.5334919854070068E+00 a        12     0     1     1    12
  1.4032991335542555E-01 a        13     0     1     1    13
  3.4907631009201495E-01 a        14     0     1     1    14
 -1.5096178319066791E+00 a        15     0     1     1    15
  2.5040350200340233E-01 a        16     0     2     1     1
 -9.1600509069814395E-01 a        17     0     2     1     2
 -8.1582784027443289E-01 a        18     0     2     1     3
  4.8300540024718958E-01 a        19     0     2     1     4
  1.1809371326491691E+00 a        20     0     2     1     5
 -1.6094736402860607E-01 a        21     0     2     1     6
  5.1715525866926804E-01 a        22     0     2     1     7
  9.5425428046653482E-01 a        23     0     2     1     8
 -1.5720362020743617E-01 a        24     0     2     1     9
 -1.6366540352104780E-01 a        25     0     2     1    10
  1.1216863526211474E+00 a        26     0     2     1    11
 -6.9503145665563748E-01 a        27     0     2     1    12
 -2.2915186234835674E-01 a        28     0     2     1    13
  3.4748618790915836E-01 a        29     0     2     1    14
 -1.1704508779306106E+00 a        30     0     2     1    15
 -9.8858844391927014E-01 a        31     0     3     1     1
 -9.5697303980710546E-01 a        32     0     3     1     2
 -3.0520614278971130E+00 a        33     0     3     1     3
 -9.9854708477241994E-01 a        34     0     3     1     4
  2.0916092635944503E+00 a        35     0     3     1     5
  2.2001009074282676E+00 a        36     0     3     1     6
 -8.3857689459654983E-01 a        37     0     3     1     7
  4.4679456161256192E+00 a        38     0     3     1     8
 -6.9102766993138887E-02 a        39     0     3     1     9
  8.1276380508973756E-01 a        40     0     3     1    10
  9.7964418779692730E-01 a        41     0     3     1    11
 -5.1377763394172238E-01 a        42     0     3     1    12
  8.0227191251315610E-01 a        43     0     3     1    13
 -2.9915841540679824E+00 a        44     0     3     1    14
  1.6361340796118072E-03 a        45     0     3     1    15
 -8.9673525946763766E-01 a        46     0     4     1     1
  7.5115093243129682E-01 a        47     0     4     1     2
  7.1578686104176537E-01 a        48     0     4     1     3
 -6.7605418662853867E-01 a        49     0     4     1     4
  9.8409444764752896E-01 a        50     0     4     1     5
 -1.7438642980171132E-01 a        51     0     4     1     6
  1.5658250382220236E+00 a        52     0     4     1     7
  4.0859877120977750E-01 a        53     0     4     1     8
 -4.9585548905542359E-01 a        54     0     4     1     9
 -4.6820659140025611E-01 a        55     0     4     1    10
 -9.4763373512338733E-01 a        56     0     4     1    11
  4.3018326084941411E-01 a        57     0     4     1    12
  7.4405214757642224E-02 a        58     0     4     1    13
  1.5988418883477031E+00 a        59     0     4     1    14
 -5.3512792646393914E-02 a        60     0     4     1    15
  9.0743579500171007E-02 a        61     0     5     1     1
 -4.2553975622738149E-01 a        62     0     5     1     2
 -4.2658855954164970E-01 a        63     0     5     1     3
  6.4287253210002626E-01 a        64     0     5     1     4
  1.8394078895059010E+00 a        65     0     5     1     5
 -9.2437174051434678E-01 a        66     0     5     1     6
  4.2928403733746073E-01 a        67     0     5     1     7
 -3.6076046177085813E-01 a        68     0     5     1     8
  1.1846543010639736E-01 a        69     0     5     1     9
 -1.6215727248792944E-01 a        70     0     5     1    10
  3.6298877796100588E-03 a        71     0     5     1    11
  5.3786314508017441E-01 a        72     0     5     1    12
 -5.6853334485442020E-01 a        73     0     5     1    13
  4.4746056383136487E-02 a        74     0     5     1    14
 -1.5447456163539333E+00 a        75     0     5     1    15
  4.5367174586797815E-01 a        76     0     6     1     1
 -4.9042110235156761E-01 a        77     0     6     1     2
 -1.6892149910818983E+00 a        78     0     6     1     3
  5.1641661161787711E-01 a        79     0     6     1     4
  1.6106970787496331E+00 a        80     0     6     1     5
  2.4582615108008081E+00 a        81     0     6     1     6
 -2.0017407437661738E+00 a        82     0     6     1     7
  2.0379393751223907E+00 a        83     0     6     1     8
  3.5841265977582865E-01 a        84     0     6     1     9
  4.9869428860182163E-01 a        85     0     6     1    10
  8.1394183772480000E-01 a        86     0     6     1    11
  8.4785043831913820E-01 a        87     0     6     1    12
  5.4852319918696013E-01 a        88     0     6     1    13
 -1.4473384175628716E+00 a        89     0     6     1    14
  5.0195489558559669E-01 a        90     0     6     1    15
 -6.5315790713822403E-02 a        91     0     7     1     1
 -2.7357946372512432E+00 a        92     0     7     1     2
 -5.5173933085277660E-01 a        93     0     7     1     3
 -6.2814130415843022E-02 a        94     0     7     1     4
 -1.3808428117929619E+00 a        95     0     7     1     5
  2.8210560072575736E-01 a        96     0     7     1     6
 -1.0212140846836886E+00 a        97     0     7     1     7
  1.8440627837845498E+00 a        98     0     7     1     8
 -2.7293780071947504E-01 a        99     0     7     1     9
  7.9893497024026705E-01 a       100     0     7     1    10
 -2.6732808102826267E-01 a       101     0     7     1    11
  1.8252305792956682E+00 a       102     0     7     1    12
 -4.9314636609859347E-01 a       103     0     7     1    13
  8.5614571340731194E-01 a       104     0     7     1    14
 -2.0854175911805836E-01 a       105     0     7     1    15
  5.2162830165808378E-03 a       106     0     8     1     1
  1.1319715930397316E+00 a       107     0     8     1     2
 -5.8009780203376315E-01 a       108     0     8     1     3
 -1.2963596720295198E+00 a       109     0     8     1     4
 -1.1195338596462310E+00 a       110     0     8     1     5
 -1.2419840901555574E+00 a       111     0     8     1     6
 -4.0954104823338416E-01 a       112     0     8     1     7
 -3.7739652245901978E-01 a       113     0     8     1     8
 -4.4437778542289384E-02 a       114     0     8     1     9
  1.4727651219861002E-01 a       115     0     8     1    10
 -2.1858793859404160E-02 a       116     0     8     1    11
  6.9323103722367607E-01 a       117     0     8     1    12
  1.1719947949920131E-01 a       118     0     8     1    13
 -2.3600469721613107E-01 a       119     0     8     1    14
 -2.3066356203080640E-01 a       120     0     8     1    15
  9.3209352905379506E-01 a       121     0     9     1     1
 -7.2759861038571794E-01 a       122     0     9     1     2
 -8.4337787582379198E-01 a       123     0     9     1     3
 -6.8314687646500982E-01 a       124     0     9     1     4
  2.0321665048727615E+00 a       125     0     9     1     5
  6.2440968658133356E-01 a       126     0     9     1     6
 -1.1106344748097816E+00 a       127     0     9     1     7
 -2.9208838926091740E+00 a       128     0     9     1     8
  6.2393865010138172E-01 a       129     0     9     1     9
  1.7729789359372733E-01 a       130     0     9     1    10
  1.1510208402247094E-01 a       131     0     9     1    11
  2.0577217705810985E-01 a       132     0     9     1    12
 -5.0955996150199590E-01 a       133     0     9     1    13
 -7.5861975865276099E-01 a       134     0     9     1    14
 -6.8208050227872896E-01 a       135     0     9     1    15
 -4.6214343344082465E-01 a       136     0    10     1     1
 -2.2070984309544635E+00 a       137     0    10     1     2
 -1.0277193558968385E+00 a       138     0    10     1     3
 -1.1684525936799317E+00 a       139     0    10     1     4
 -2.7180717666326855E+00 a       140     0    10     1     5
  8.6607875876876439E-01 a       141     0    10     1     6
 -1.4863030975788400E+00 a       142     0    10     1     7
  1.4650148878298169E-02 a       143     0    10     1     8
  7.2457539877254451E-02 a       144     0    10     1     9
  3.6110107376905415E-01 a       145     0    10     1    10
  7.0071579498599690E-01 a       146     0    10     1    11
  8.6707498874222377E-01 a       147     0    10     1    12
  1.1900875771380286E+00 a       148     0    10     1    13
 -5.0088230321848881E-01 a       149     0    10     1    14
 -1.3136216312773044E+00 a       150     0    10     1    15
 -9.1612853610013723E-01 a       151     0    11     1     1
  9.1419611063026718E-01 a       152     0    11     1     2
 -3.4512849575969834E-01 a       153     0    11     1     3
  7.3657574674079840E-01 a       154     0    11     1     4
 -1.9869799589495327E+00 a       155     0    11     1     5
  7.1242019883204999E-01 a       156     0    11     1     6
 -1.0039731311373850E+00 a       157     0    11     1     7
 -6.6948424236502624E-01 a       158     0    11     1     8
  1.0145647212464268E+00 a       159     0    11     1     9
  7.1344900410517803E-02 a       160     0    11     1    10
 -7.0521955094274047E-01 a       161     0    11     1    11
  4.3548680247458599E-01 a       162     0    11     1    12
  4.6209651155625714E-01 a       163     0    11     1    13
  1.1574871689027075E-01 a       164     0    11     1    14
  1.1578002842635970E+00 a       165     0    11     1    15
  1.0496849552550724E+00 a       166     0    12     1     1
  9.9495547058788686E-02 a       167     0    12     1     2
  1.7161598571530772E+00 a       168     0    12     1     3
 -3.5879503119584438E-01 a       169     0    12     1     4
 -1.2212432792714520E+00 a       170     0    12     1     5
 -2.6259947928454515E+00 a       171     0    12     1     6
  7.9815257606078815E-01 a       172     0    12     1     7
 -4.1224144527023636E+00 a       173     0    12     1     8
  1.7234167412252416E-01 a       174     0    12     1     9
 -2.0663384409042565E-01 a       175     0    12     1    10
 -5.7675851584024596E-01 a       176     0    12     1    11
  1.0318408237785446E+00 a       177     0    12     1    12
 -5.0374901327958088E-01 a       178     0    12     1    13
  1.5978000130649612E+00 a       179     0    12     1    14
  2.8667437727471046E-01 a       180     0    12     1    15
  1.9094675921744699E+00 a       181     0    13     1     1
  1.2748323806205706E+00 a       182     0    13     1     2
  2.3480186428623573E-01 a       183     0    13     1     3
 -3.4014754006116393E-01 a       184     0    13     1     4
 -3.2902460039867071E-01 a       185     0    13     1     5
  5.7551031953721976E-01 a       186     0    13     1     6
 -1.3689494049825737E-01 a       187     0    13     1     7
 -1.4553881129092923E+00 a       188     0    13     1     8
  3.5258745724521096E-01 a       189     0    13     1     9
  2.7913840078820146E-01 a       190     0    13     1    10
  2.7580957212147474E+00 a       191     0    13     1    11
 -3.4881533856423084E+00 a       192     0    13     1    12
 -1.5573067865859960E-01 a       193     0    13     1    13
 -6.2731098437445620E-01 a       194     0    13     1    14
  9.0602410225567909E-01 a       195     0    13     1    15
  6.1572830745338469E-01 a       196     0    14     1     1
 -2.4207867637070765E-01 a       197     0    14     1     2
 -2.4536453985200618E-01 a       198     0    14     1     3
  1.3363404776456343E-02 a       199     0    14     1     4
 -1.8614397329413559E+00 a       200     0    14     1     5
  1.4929996969927852E+00 a       201     0    14     1     6
  1.5471827605718208E-01 a       202     0    14     1     7
  1.1404207482740127E+00 a       203     0    14     1     8
 -2.9611141711609673E-01 a       204     0    14     1     9
 -9.4394760512271247E-01 a       205     0    14     1    10
  1.5414907587654095E-01 a       206     0    14     1    11
 -2.3892970082452165E+00 a       207     0    14     1    12
 -8.9906053918845763E-02 a       208     0    14     1    13
  1.8092627497413552E-01 a       209     0    14     1    14
  1.5903906668471319E+00 a       210     0    14     1    15
 -5.1263647894852363E-03 a       211     0    15     1     1
 -6.4021521033990936E-01 a       212     0    15     1     2
  3.5559308371985257E+00 a       213     0    15     1     3
  4.2360514555952933E-01 a       214     0    15     1     4
 -1.6964254715155476E+00 a       215     0    15     1     5
 -2.8548661630227419E+00 a       216     0    15     1     6
  1.4835625819382114E+00 a       217     0    15     1     7
 -2.6927106866887853E+00 a       218     0    15     1     8
 -8.2568647737083400E-01 a       219     0    15     1     9
 -7.2503425443687874E-01 a       220     0    15     1    10
 -6.4152682811943018E-01 a       221     0    15     1    11
 -9.0704524534911790E-01 a       222     0    15     1    12
 -1.4054192777622798E+00 a       223     0    15     1    13
  2.4878209655773484E+00 a       224     0    15     1    14
 -7.1349293950673232E-01 a       225     0    15     1    15
 -1.6147844352442524E+00 a       226     0    16     1     1
  9.6783779937399672E-01 a       227     0    16     1     2
  2.6618757686119127E-01 a       228     0    16     1     3
  1.7225442536688975E+00 a       229     0    16     1     4
  2.0380588252519334E+00 a       230     0    16     1     5
  9.4155935800895552E-01 a       231     0    16     1     6
  2.8167782989822125E+00 a       232     0    16     1     7
  8.4779574754779735E-02 a       233     0    16     1     8
  8.1782188325079486E-01 a       234     0    16     1     9
 -6.9230718062338381E-01 a       235     0    16     1    10
  1.1525823542457611E-01 a       236     0    16     1    11
  3.1818831090741480E+00 a       237     0    16     1    12
 -2.1732621466200075E+00 a       238     0    16     1    13
 -2.6497890961892600E-02 a       239     0    16     1    14
  3.4344097625358447E+00 a       240     0    16     1    15
  4.9559645007620279E-01 a       241     0    17     1     1
 -1.3196388730531090E+00 a       242     0    17     1     2
  2.1072736925721012E+00 a       243     0    17     1     3
 -1.3726360737862024E+00 a       244     0    17     1     4
  1.7203034496173293E+00 a       245     0    17     1     5
  1.0086982708790033E+00 a       246     0    17     1     6
 -9.2622316615685962E-01 a       247     0    17     1     7
 -1.4170570950866153E+00 a       248     0    17     1     8
  3.1506647547576738E-01 a       249     0    17     1     9
  1.4130436597590810E+00 a       250     0    17     1    10
  2.4632618773698414E-01 a       251     0    17     1    11
  2.6333311437305746E+00 a       252     0    17     1    12
 -5.9728372136697538E-01 a       253     0    17     1    13
  1.3143699269514402E+00 a       254     0    17     1    14
 -3.4831776078232340E-01 a       255     0    17     1    15
 -4.7543147882975545E-01 a       256     0    18     1     1
  1.5533784969843607E+00 a       257     0    18     1     2
  1.9106356871383789E+00 a       258     0    18     1     3
  6.4040511526120891E-01 a       259     0    18     1     4
 -2.0213337873901902E+00 a       260     0    18     1     5
 -1.6652598666566913E+00 a       261     0    18     1     6
  9.0458073544570972E-01 a       262     0    18     1     7
  1.7579033752452680E+00 a       263     0    18     1     8
  6.0330691801055901E-02 a       264     0    18     1     9
 -5.7011548515112287E-01 a       265     0    18     1    10
 -1.2651549795533852E+00 a       266     0    18     1    11
  1.5351245609481303E+00 a       267     0    18     1    12
 -4.5130984719674638E-01 a       268     0    18     1    13
  1.7720466654028395E+00 a       269     0    18     1    14
 -2.2308517855331016E+00 a       270     0    18     1    15
  1.6415186480232014E+00 a       271     0    19     1     1
 -1.2265894520318941E+00 a       272     0    19     1     2
  3.1541792410519176E+00 a       273     0    19     1     3
 -1.6672467115035081E-01 a       274     0    19     1     4
  4.0185146762723063E+00 a       275     0    19     1     5
 -1.2396624404406160E+00 a       276     0    19     1     6
  1.4687882263106882E+00 a       277     0    19     1     7
  1.2898917830395367E+00 a       278     0    19     1     8
 -6.9939877562763195E-02 a       279     0    19     1     9
 -3.2188838820454108E-01 a       280     0    19     1    10
 -1.1169196309208719E+01 a       281     0    19     1    11
 -2.7799061292384799E+00 a       282     0    19     1    12
  9.6301217582359111E-01 a       283     0    19     1    13
  1.1628605839651598E+00 a       284     0    19     1    14
 -2.3813353484015165E+00 a       285     0    19     1    15
 -5.6970193558180726E-01 a       286     0    20     1     1
  6.2001919868335176E-01 a       287     0    20     1     2
  8.5779805146804866E-01 a       288     0    20     1     3
  1.8846066599817020E+00 a       289     0    20     1     4
  8.7145110894709532E-01 a       290     0    20     1     5
 -5.7280575491737200E-02 a       291     0    20     1     6
  1.6097890463317883E+00 a       292     0    20     1     7
  5.8189399990497070E-01 a       293     0    20     1     8
 -2.3530867679085848E-01 a       294     0    20     1     9
 -1.6357339248470060E+00 a       295     0    20     1    10
 -1.2533199091989644E+00 a       296     0    20     1    11
 -1.5247898901315118E+00 a       297     0    20     1    12
  4.7541924393523516E-01 a       298     0    20     1    13
 -2.3876894719195492E+00 a       299     0    20     1    14
 -4.4420000318106645E-01 a       300     0    20     1    15
  1.2070138549133271E+00 a       301     0    21     1     1
 -1.2262388808021436E+00 a       302     0    21     1     2
  9.2863111265975740E-01 a       303     0    21     1     3
 -6.0043974600816763E-01 a       304     0    21     1     4
  1.1101792189783615E+00 a       305     0    21     1     5
  3.4275896893091029E-01 a       306     0    21     1     6
 -1.3565580156024695E+00 a       307     0    21     1     7
  1.4598787110414366E+00 a       308     0    21     1     8
  2.4255255124005974E+00 a       309     0    21     1     9
  7.8188350673480156E-01 a       310     0    21     1    10
  8.6086595180977776E-01 a       311     0    21     1    11
 -7.0904873040673932E-01 a       312     0    21     1    12
  3.2475977116914878E+00 a       313     0    21     1    13
 -2.2068463879478655E+00 a       314     0    21     1    14
  1.8415580528958797E+00 a       315     0    21     1    15
 -2.9004766251106950E-01 a       316     0    22     1     1
  7.4216875113398140E-01 a       317     0    22     1     2
 -3.5259910783290422E+00 a       318     0    22     1     3
 -1.7245732317415028E+00 a       319     0    22     1     4
 -2.7264392694676878E+00 a       320     0    22     1     5
  9.6849758875722458E-01 a       321     0    22     1     6
 -1.5457824783102265E+00 a       322     0    22     1     7
  8.5436365141070469E-01 a       323     0    22     1     8
 -7.9955422729746295E-01 a       324     0    22     1     9
  1.5911078763037985E+00 a       325     0    22     1    10
  7.7211822072429284E+00 a       326     0    22     1    11
  2.1221113461548544E+00 a       327     0    22     1    12
  1.8401267517709423E+00 a       328     0    22     1    13
 -2.1320958329223386E-01 a       329     0    22     1    14
 -7.8281675589015032E-01 a       330     0    22     1    15
  4.5498098566209200E-01 a       331     0    23     1     1
 -7.5631163912278421E-02 a       332     0    23     1     2
 -8.6666307446453916E-01 a       333     0    23     1     3
 -6.8640139421654234E-01 a       334     0    23     1     4
  8.5005453360498986E-02 a       335     0    23     1     5
 -3.4559203736761229E-01 a       336     0    23     1     6
 -4.2676306686473675E-01 a       337     0    23     1     7
 -2.2036734968902263E-01 a       338     0    23     1     8
  1.6048779319496137E-01 a       339     0    23     1     9
  6.6457696387102916E-01 a       340     0    23     1    10
  7.0404188452326255E-01 a       341     0    23     1    11
  5.3149945086472128E-01 a       342     0    23     1    12
  1.5269612690494413E-01 a       343     0    23     1    13
  1.0783830067745075E+00 a       344     0    23     1    14
  1.0782270128097954E-01 a       345     0    23     1    15
 -3.9907216093124087E-01 a       346     0    24     1     1
  2.1669195603101121E-01 a       347     0    24     1     2
 -6.9520964850118561E-01 a       348     0    24     1     3
 -1.9091612933681928E-02 a       349     0    24     1     4
 -3.6705599650507925E-01 a       350     0    24     1     5
  6.5160035392664073E-01 a       351     0    24     1     6
  5.3908200699022468E-01 a       352     0    24     1     7
 -4.2511523676027180E-01 a       353     0    24     1     8
 -6.1200873935486566E-01 a       354     0    24     1     9
 -2.2593519783236157E-01 a       355     0    24     1    10
 -6.2011140885464049E-02 a       356     0    24     1    11
  2.5483054750774131E-01 a       357     0    24     1    12
 -1.0145717542074464E+00 a       358     0    24     1    13
 -6.4055235676396136E-02 a       359     0    24     1    14
 -4.2465365081097545E-01 a       360     0    24     1    15
  2.4686175121250310E-02 a       361     0    25     1     1
  2.1713224851244002E-02 a       362     0    25     1     2
 -1.5658339297482398E+00 a       363     0    25     1     3
 -2.2656247332384480E+00 a       364     0    25     1     4
  2.6432463635719805E+00 a       365     0    25     1     5
 -2.6050644177103766E+00 a       366     0    25     1     6
 -5.8149184682919286E-01 a       367     0    25     1     7
  1.3603590293056893E+00 a       368     0    25     1     8
 -4.6806910223167231E-01 a       369     0    25     1     9
  9.0820331446132729E-01 a       370     0    25     1    10
 -1.3820194466465810E-01 a       371     0    25     1    11
 -1.1571446322044132E-01 a       372     0    25     1    12
  7.7897136837455760E-01 a       373     0    25     1    13
 -2.3211032414085810E+00 a       374     0    25     1    14
  2.8690355149265939E-01 a       375     0    25     1    15
  3.0732838306956067E-02 a       376     0    26     1     1
  1.4978318106378519E-01 a       377     0    26     1     2
 -3.0717584314271357E-01 a       378     0    26     1     3
  1.6958210122333237E-01 a       379     0    26     1     4
 -3.5823641011491680E-01 a       380     0    26     1     5
 -9.5460365588490567E-02 a       381     0    26     1     6
  6.9161780147090748E-02 a       382     0    26     1     7
  9.9453276994782971E-02 a       383     0    26     1     8
  1.1960243472088342E-01 a       384     0    26     1     9
 -5.5253618815396970E-02 a       385     0    26     1    10
 -1.1243096308860479E-01 a       386     0    26     1    11
 -7.0991709058708624E-04 a       387     0    26     1    12
 -2.4838455027025660E-01 a       388     0    26     1    13
 -6.0288747828420131E-01 a       389     0    26     1    14
  1.4925003729522102E-01 a       390     0    26     1    15
  5.0377751708321705E-02 a       391     0    27     1     1
 -1.8005229999308214E-01 a       392     0    27     1     2
  5.0626335100854103E-01 a       393     0    27     1     3
  3.6604509130005292E-01 a       394     0    27     1     4
 -1.4955739889813033E+00 a       395     0    27     1     5
  8.7790590046495587E-02 a       396     0    27     1     6
  2.3964962902155737E-01 a       397     0    27     1     7
 -3.7833342649562084E-02 a       398     0    27     1     8
  8.4505834587975004E-02 a       399     0    27     1     9
 -2.3082289347907566E-02 a       400     0    27     1    10
 -6.9847741065633073E-01 a       401     0    27     1    11
 -1.0573928864306555E-01 a       402     0    27     1    12
 -5.5033556352265756E-01 a       403     0    27     1    13
  4.6714794460573345E-01 a       404     0    27     1    14
 -6.6198942295108487E-01 a       405     0    27     1    15
  8.1864525255139417E-02 a       406     0    28     1     1
  4.4929401059618307E-01 a       407     0    28     1     2
 -2.6046263623867227E-01 a       408     0    28     1     3
  5.3669310798998948E-01 a       409     0    28     1     4
  4.3825491250671217E-01 a       410     0    28     1     5
 -3.9949907236257043E-01 a       411     0    28     1     6
 -1.3930937062820270E-01 a       412     0    28     1     7
 -9.2899619424014257E-01 a       413     0    28     1     8
 -7.8315326912542416E-01 a       414     0    28     1     9
  2.3847796084702585E-01 a       415     0    28     1    10
  1.5942837557599210E-01 a       416     0    28     1    11
 -4.4482181000628680E-02 a       417     0    28     1    12
 -1.5515920974275596E-01 a       418     0    28     1    13
 -1.0288723805542663E-01 a       419     0    28     1    14
  6.9590155660673303E-01 a       420     0    28     1    15
 -7.0329799702057910E-02 a       421     0    29     1     1
 -2.9606441770329550E-01 a       422     0    29     1     2
  4.5896003021508025E-01 a       423     0    29     1     3
 -2.4154885118790376E-01 a       424     0    29     1     4
 -7.0333807319956942E-01 a       425     0    29     1     5
 -1.8310849391145420E-01 a       426     0    29     1     6
 -1.7371591486625096E-01 a       427     0    29     1     7
  5.4205671445531334E-01 a       428     0    29     1     8
 -1.2579303469499340E-02 a       429     0    29     1     9
 -1.5096834155209810E-01 a       430     0    29     1    10
 -8.7769670732719929E-01 a       431     0    29     1    11
  1.6082709596777212E-02 a       432     0    29     1    12
 -1.0722296888386346E-01 a       433     0    29     1    13
 -5.8757596541117896E-01 a       434     0    29     1    14
  2.4687057329417864E-01 a       435     0    29     1    15
  8.9604579319756700E-03 a       436     0    30     1     1
 -1.9670727558079211E+00 a       437     0    30     1     2
  3.0487604226241122E-01 a       438     0    30     1     3
  1.1437085705077961E+00 a       439     0    30     1     4
  1.6531181396775868E-01 a       440     0    30     1     5
 -1.7485243902401930E+00 a       441     0    30     1     6
  1.7522716998800687E+00 a       442     0    30     1     7
 -2.3257996859245914E-02 a       443     0    30     1     8
  2.0339829506029625E-01 a       444     0    30     1     9
  7.2786927159520187E-01 a       445     0    30     1    10
  2.2392913349862535E+00 a       446     0    30     1    11
 -1.8455556621325711E-02 a       447     0    30     1    12
  8.4400604404098101E-01 a       448     0    30     1    13
 -4.5838934021903249E-01 a       449     0    30     1    14
  1.8731279039741031E-01 a       450     0    30     1    15
 -2.7616931863445895E-02 a       451     0    31     1     1
  4.0387056045680236E-01 a       452     0    31     1     2
  2.3162489559309276E+00 a       453     0    31     1     3
 -3.6805832191438070E-01 a       454     0    31     1     4
  4.8764337476257591E-01 a       455     0    31     1     5
 -5.8152301550041630E-01 a       456     0    31     1     6
  5.4983101761835851E-01 a       457     0    31     1     7
 -9.1378992888173327E-01 a       458     0    31     1     8
  4.8074943561885530E-01 a       459     0    31     1     9
 -4.8534533492673376E-01 a       460     0    31     1    10
  1.1893014319703508E+00 a       461     0    31     1    11
  1.1749209112881488E-01 a       462     0    31     1    12
  4.6084925243532099E-01 a       463     0    31     1    13
  2.8448947685222938E+00 a       464     0    31     1    14
 -2.9566802471952567E+00 a       465     0    31     1    15
 -2.2918985253008550E-01 a       466     0    32     1     1
 -2.3155685342110724E-02 a       467     0    32     1     2
  1.2359320277925570E+00 a       468     0    32     1     3
  2.1481022376505771E-01 a       469     0    32     1     4
  1.1438848355865829E-01 a       470     0    32     1     5
  3.9060005371732170E-01 a       471     0    32     1     6
 -1.8902867352915764E-01 a       472     0    32     1     7
 -1.2160472100950359E-02 a       473     0    32     1     8
 -9.0556394470783386E-01 a       474     0    32     1     9
 -8.8032126965603821E-02 a       475     0    32     1    10
 -3.0428173807417025E-01 a       476     0    32     1    11
 -1.2735408685461152E-02 a       477     0    32     1    12
  3.9929137200194892E-01 a       478     0    32     1    13
  2.4474230649963105E-01 a       479     0    32     1    14
  2.4378484493344676E-02 a       480     0    32     1    15
  3.8820650203816322E-03 a       481     0    33     1     1
  6.5103409157968040E-01 a       482     0    33     1     2
  1.6653890782871855E-01 a       483     0    33     1     3
  4.0577732862799892E-01 a       484     0    33     1     4
  1.4208036374776281E+00 a       485     0    33     1     5
  2.9136585304175938E-01 a       486     0    33     1     6
 -4.6209808684739323E-01 a       487     0    33     1     7
  1.0981701348699660E+00 a       488     0    33     1     8
 -1.7907841128976268E-01 a       489     0    33     1     9
  2.8462276530511804E-01 a       490     0    33     1    10
 -8.2377658644095700E-02 a       491     0    33     1    11
  1.3502350377398864E-01 a       492     0    33     1    12
  1.4379862335690381E+00 a       493     0    33     1    13
 -1.4995986615544574E+00 a       494     0    33     1    14
  2.9723950464178839E-01 a       495     0    33     1    15
 -3.1942935890854712E-01 a       496     0    34     1     1
 -1.2684548241000476E-01 a       497     0    34     1     2
  1.3557425864962112E-02 a       498     0    34     1     3
 -5.7962424924977396E-01 a       499     0    34     1     4
  9.5239332716733641E-02 a       500     0    34     1     5
 -6.0218403605706672E-01 a       501     0    34     1     6
  4.1818400126879963E-02 a       502     0    34     1     7
  1.1461324335741412E+00 a       503     0    34     1     8
  2.1767539343183456E-01 a       504     0    34     1     9
  5.5954026345913832E-01 a       505     0    34     1    10
  6.4320622869278143E-01 a       506     0    34     1    11
  3.1524098784772719E-02 a       507     0    34     1    12
 -3.0789222712185188E-01 a       508     0    34     1    13
  1.7834142476828729E-01 a       509     0    34     1    14
 -4.4129128063955192E-01 a       510     0    34     1    15
  1.7337161041024005E-01 a       511     0    35     1     1
 -2.5745695752318681E-01 a       512     0    35     1     2
  6.6781977039259788E-01 a       513     0    35     1     3
 -1.8438181261628042E-01 a       514     0    35     1     4
  5.4460290302560899E-01 a       515     0    35     1     5
  4.6216482813133475E-01 a       516     0    35     1     6
  2.7354266839820185E-01 a       517     0    35     1     7
 -5.5729884759355242E-01 a       518     0    35     1     8
  1.3540254507443839E-01 a       519     0    35     1     9
  2.3157954793565058E-01 a       520     0    35     1    10
  5.3991179195471772E-01 a       521     0    35     1    11
 -1.8034291288918655E-01 a       522     0    35     1    12
  1.6754350352650407E-01 a       523     0    35     1    13
 -5.0551277947259876E-01 a       524     0    35     1    14
 -2.0890578473606511E-01 a       525     0    35     1    15
 -5.5713120715343445E-01 a       526     0    36     1     1
  3.7254679147127594E-02 a       527     0    36     1     2
 -1.7678113648174161E+00 a       528     0    36     1     3
  3.5947790271842672E-01 a       529     0    36     1     4
  1.3592031972070586E+00 a       530     0    36     1     5
 -1.0512040338053432E+00 a       531     0    36     1     6
  2.5939706252905675E-01 a       532     0    36     1     7
  1.1546344741376187E-01 a       533     0    36     1     8
  6.4759319076782784E-01 a       534     0    36     1     9
  4.5766501146130584E-01 a       535     0    36     1    10
 -8.7557797606119969E-01 a       536     0    36     1    11
 -5.6207717210266261E-01 a       537     0    36     1    12
 -9.8971859904355819E-01 a       538     0    36     1    13
  3.4477844420399933E-01 a       539     0    36     1    14
 -7.5923934269811100E-01 a       540     0    36     1    15
  6.5020868905166812E-02 a       541     0    37     1     1
 -5.1861391198220641E-02 a       542     0    37     1     2
  7.2800240034934416E-01 a       543     0    37     1     3
  5.2717713200881602E-02 a       544     0    37     1     4
 -2.6049388660644861E-02 a       545     0    37     1     5
 -7.7332030615657077E-01 a       546     0    37     1     6
  2.3907962647735461E+00 a       547     0    37     1     7
 -1.1331292932561217E-02 a       548     0    37     1     8
  2.2866916656302372E-01 a       549     0    37     1     9
  1.4245412010131103E-01 a       550     0    37     1    10
 -1.8943460220384026E-01 a       551     0    37     1    11
 -7.9392185760446335E-03 a       552     0    37     1    12
  1.8860826673523176E-01 a       553     0    37     1    13
 -1.0643472646693918E-01 a       554     0    37     1    14
  2.5422510724210629E-01 a       555     0    37     1    15
  9.5718217195371732E-04 a       556     0    38     1     1
 -1.8820928290475849E-02 a       557     0    38     1     2
 -1.1165451781476869E-01 a       558     0    38     1     3
  1.6131091730292101E-02 a       559     0    38     1     4
 -1.4876818856910007E-01 a       560     0    38     1     5
 -7.2119236944423917E-02 a       561     0    38     1     6
  1.7276811912700155E-01 a       562     0    38     1     7
 -4.9386404998051740E-03 a       563     0    38     1     8
  1.6897696555364234E-02 a       564     0    38     1     9
 -1.9701712838779526E-03 a       565     0    38     1    10
 -4.1919755982086485E-02 a       566     0    38     1    11
  6.6218796786189629E-03 a       567     0    38     1    12
  3.9470431300857402E-02 a       568     0    38     1    13
 -2.4660444952379218E-01 a       569     0    38     1    14
  7.4381152290467434E-02 a       570     0    38     1    15
 -2.7574063195841100E-02 a       571     0    39     1     1
  1.6331769328334942E-02 a       572     0    39     1     2
  1.4584365410241465E-01 a       573     0    39     1     3
  1.4113349706866130E-01 a       574     0    39     1     4
  6.3811089137978239E-01 a       575     0    39     1     5
  3.3072200371652527E-01 a       576     0    39     1     6
  3.2177966884867637E-01 a       577     0    39     1     7
 -1.4478186484643416E-01 a       578     0    39     1     8
  8.8996133697314170E-02 a       579     0    39     1     9
 -1.0857330973608495E-01 a       580     0    39     1    10
  6.8180410780635609E-02 a       581     0    39     1    11
  1.7865633591811838E-02 a       582     0    39     1    12
 -4.0661345238934285E-03 a       583     0    39     1    13
  2.9661767458055724E-02 a       584     0    39     1    14
  1.5892004740811011E-01 a       585     0    39     1    15
 -9.6949384718606382E-02 a       586     0    40     1     1
  7.6211455408545029E-02 a       587     0    40     1     2
  1.0841586275294510E-01 a       588     0    40     1     3
 -2.0454702296969444E-02 a       589     0    40     1     4
  1.6973396981423255E-01 a       590     0    40     1     5
 -2.7066237704240231E-01 a       591     0    40     1     6
  2.3027562710236546E-01 a       592     0    40     1     7
 -1.2095166645108942E-01 a       593     0    40     1     8
  3.4673382416410978E-02 a       594     0    40     1     9
  8.3914121534195113E-02 a       595     0    40     1    10
  2.1777089588889940E-02 a       596     0    40     1    11
 -3.7615520208073829E-02 a       597     0    40     1    12
  2.3033442883074937E-01 a       598     0    40     1    13
  4.0286297087088141E-02 a       599     0    40     1    14
 -8.5341070118459178E-02 a       600     0    40     1    15
  7.8974692813970487E-04 a       601     0    41     1     1
 -1.0731931839285951E-01 a       602     0    41     1     2
 -1.1132541533931795E-01 a       603     0    41     1     3
  8.3587661767205154E-02 a       604     0    41     1     4
 -1.8795718291462268E-01 a       605     0    41     1     5
 -1.1565399906595748E-01 a       606     0    41     1     6
  2.8892378786151726E-03 a       607     0    41     1     7
  4.2303779790650045E-02 a       608     0    41     1     8
 -2.9169260480899750E-01 a       609     0    41     1     9
  8.3582406566386200E-02 a       610     0    41     1    10
 -9.6759501515653407E-02 a       611     0    41     1    11
  1.4386231649621203E-02 a       612     0    41     1    12
  3.6867535144134542E-03 a       613     0    41     1    13
  1.6163335521955227E-01 a       614     0    41     1    14
 -6.1918020438398357E-02 a       615     0    41     1    15
  2.5256794877316961E-02 a       616     0    42     1     1
 -1.5467769612238630E-01 a       617     0    42     1     2
 -1.0235522606149217E+00 a       618     0    42     1     3
  3.2771176714530548E-01 a       619     0    42     1     4
 -6.6215514847386070E-01 a       620     0    42     1     5
 -2.7997155450098526E-01 a       621     0    42     1     6
  4.9222780823619458E-02 a       622     0    42     1     7
  1.2437003689840137E-01 a       623     0    42     1     8
  4.2370137263717862E-02 a       624     0    42     1     9
 -1.8064846720062377E-01 a       625     0    42     1    10
 -2.0238256629535339E-01 a       626     0    42     1    11
 -1.7793505557161565E-02 a       627     0    42     1    12
 -3.4919752828736950E-01 a       628     0    42     1    13
  2.3909683476488949E-01 a       629     0    42     1    14
 -4.0679289976307834E-02 a       630     0    42     1    15
 -1.0961223303565705E-01 a       631     0    43     1     1
 -5.3533519530020868E-01 a       632     0    43     1     2
 -5.4005410391370834E+00 a       633     0    43     1     3
 -6.6824404506321899E-01 a       634     0    43     1     4
 -1.4239557851805653E+00 a       635     0    43     1     5
  1.0232221033130742E+00 a       636     0    43     1     6
 -1.1618609835023805E+00 a       637     0    43     1     7
  5.0702458901931140E-02 a       638     0    43     1     8
 -5.7279433227254795E-01 a       639     0    43     1     9
  4.4949098716124758E-01 a       640     0    43     1    10
 -8.5596043486450821E-02 a       641     0    43     1    11
 -2.2666480096621133E-01 a       642     0    43     1    12
  2.6369284276350963E-01 a       643     0    43     1    13
 -9.2669436466294963E-01 a       644     0    43     1    14
  1.1868652482067937E-01 a       645     0    43     1    15
  1.3407258719443946E-01 a       646     0    44     1     1
 -2.1218711295999831E-01 a       647     0    44     1     2
 -9.5043768349991939E-02 a       648     0    44     1     3
  3.4674660248687655E-01 a       649     0    44     1     4
  2.3966607499450612E-01 a       650     0    44     1     5
  2.0844116888911546E-01 a       651     0    44     1     6
  2.9738736834443169E-01 a       652     0    44     1     7
  4.7827939750830377E-02 a       653     0    44     1     8
  1.1220715056647170E+00 a       654     0    44     1     9
 -2.2809664809870450E-01 a       655     0    44     1    10
 -1.5655348743544761E-01 a       656     0    44     1    11
  5.9175539077302684E-02 a       657     0    44     1    12
  3.8633851699402977E-02 a       658     0    44     1    13
 -2.3513554722147073E-01 a       659     0    44     1    14
  4.6460472194342800E-01 a       660     0    44     1    15
  1.9543974165693628E-02 a       661     0    45     1     1
 -8.5523723736196725E-02 a       662     0    45     1     2
 -2.7784429209426093E-01 a       663     0    45     1     3
 -3.2082322495682430E-01 a       664     0    45     1     4
  3.5884621403146311E-01 a       665     0    45     1     5
 -2.3461867454847588E-01 a       666     0    45     1     6
  1.2581366639849184E-01 a       667     0    45     1     7
 -4.3248711509209149E-02 a       668     0    45     1     8
  4.3521309014468844E-02 a       669     0    45     1     9
  1.9810458279753102E-02 a       670     0    45     1    10
 -3.9573001130386566E-02 a       671     0    45     1    11
 -1.2451764501059006E-02 a       672     0    45     1    12
  4.5627487934173638E-01 a       673     0    45     1    13
  5.7497014489646843E-02 a       674     0    45     1    14
 -7.3049010504543904E-02 a       675     0    45     1    15
  1.7454128644352243E-01 a       676     0    46     1     1
 -2.4264454723915449E-01 a       677     0    46     1     2
 -2.7109981348039563E-01 a       678     0    46     1     3
  3.3218772795117013E-01 a       679     0    46     1     4
 -2.9921576320332166E-03 a       680     0    46     1     5
  1.0996438345503286E-01 a       681     0    46     1     6
 -9.7001552675271788E-02 a       682     0    46     1     7
 -2.6271617445486478E-01 a       683     0    46     1     8
  1.3405074712976156E-01 a       684     0    46     1     9
  6.5071255236606507E-02 a       685     0    46     1    10
 -3.3377299540608879E-01 a       686     0    46     1    11
 -5.3117838893171537E-02 a       687     0    46     1    12
 -9.4396428033029320E-02 a       688     0    46     1    13
 -3.5086766783435003E-01 a       689     0    46     1    14
  4.9525195347979423E-01 a       690     0    46     1    15
 -4.7699391667072141E-02 a       691     0    47     1     1
  5.8473754653457055E-02 a       692     0    47     1     2
 -4.2916372569496469E-01 a       693     0    47     1     3
 -3.1891559904976004E-02 a       694     0    47     1     4
 -2.0158630610316788E-01 a       695     0    47     1     5
 -2.1616325884463289E-01 a       696     0    47     1     6
  1.8240175668606573E-01 a       697     0    47     1     7
  2.6862397509163144E-01 a       698     0    47     1     8
 -3.9500560481631058E-01 a       699     0    47     1     9
 -6.0039825900700998E-02 a       700     0    47     1    10
 -2.4255502017755134E-01 a       701     0    47     1    11
  9.4119933464869243E-02 a       702     0    47     1    12
 -6.2133821465937419E-02 a       703     0    47     1    13
  2.6434278739628869E-01 a       704     0    47     1    14
 -3.3805613044124427E-01 a       705     0    47     1    15
 -2.6194858603839879E-02 a       706     0    48     1     1
 -3.8611526521515627E-01 a       707     0    48     1     2
 -2.0826702944581918E-01 a       708     0    48     1     3
 -4.8937795699327102E-02 a       709     0    48     1     4
 -4.5478272665049385E-01 a       710     0    48     1     5
  4.7220402908095721E-01 a       711     0    48     1     6
 -1.4122066906758610E-02 a       712     0    48     1     7
 -6.8454214127084834E-01 a       713     0    48     1     8
  4.9022513434711812E-02 a       714     0    48     1     9
 -1.0669986741149855E-01 a       715     0    48     1    10
  3.5536195131869225E-01 a       716     0    48     1    11
  2.2856676112392366E-01 a       717     0    48     1    12
 -2.8053322129204938E-01 a       718     0    48     1    13
  1.6499676809725367E-01 a       719     0    48     1    14
 -1.5709822912836896E-01 a       720     0    48     1    15
 -1.6885923796968327E-01 a       721     0    49     1     1
  1.8697172323500755E-01 a       722     0    49     1     2
  2.0390028298399225E+00 a       723     0    49     1     3
 -1.7610044223749932E+00 a       724     0    49     1     4
 -3.5524521633927133E+00 a       725     0    49     1     5
 -8.6881898343840036E-01 a       726     0    49     1     6
  2.6401489096675568E+00 a       727     0    49     1     7
 -1.1303632237152386E+00 a       728     0    49     1     8
  1.2374843860230624E+00 a       729     0    49     1     9
  2.6232203942188914E-01 a       730     0    49     1    10
  5.3280620071017037E-01 a       731     0    49     1    11
  1.2514618040489886E-01 a       732     0    49     1    12
  1.1104070398204088E-02 a       733     0    49     1    13
 -3.4252744604822867E-02 a       734     0    49     1    14
  1.6191164440266810E+00 a       735     0    49     1    15
 -1.6784210274608879E-01 a       736     0    50     1     1
 -1.2844524161091528E-01 a       737     0    50     1     2
 -3.2396576727056681E-01 a       738     0    50     1     3
  1.6926521488390917E-01 a       739     0    50     1     4
 -6.4088939315635907E-01 a       740     0    50     1     5
 -7.0535313328768645E-01 a       741     0    50     1     6
 -2.0992269200078842E-01 a       742     0    50     1     7
  1.3946296500026290E-01 a       743     0    50     1     8
  2.1794395967617791E-01 a       744     0    50     1     9
  1.5799690734835287E-01 a       745     0    50     1    10
  1.4913317285669142E-01 a       746     0    50     1    11
 -1.4492155156890357E-01 a       747     0    50     1    12
  1.2309318152264320E-01 a       748     0    50     1    13
 -5.0302563046176163E-01 a       749     0    50     1    14
  5.2009924352905756E-01 a       750     0    50     1    15
 -9.3373419245197997E-01 a       751     0    51     1     1
  1.3286215866958618E-02 a       752     0    51     1     2
  5.4274459346731430E-01 a       753     0    51     1     3
  3.9838461786906948E-01 a       754     0    51     1     4
  7.3784209707531606E-02 a       755     0    51     1     5
  3.1324335557885391E-01 a       756     0    51     1     6
 -2.8059395016189248E-01 a       757     0    51     1     7
  4.4073284024126141E-01 a       758     0    51     1     8
  4.7196462715492848E-01 a       759     0    51     1     9
 -4.8108866758170693E-01 a       760     0    51     1    10
 -1.2911896921957971E-02 a       761     0    51     1    11
 -1.5482922508148386E-01 a       762     0    51     1    12
 -7.0894493781582235E-01 a       763     0    51     1    13
  4.6423113115024822E-01 a       764     0    51     1    14
 -9.8346332454049168E-01 a       765     0    51     1    15
 -8.8835597881205944E-02 a       766     0    52     1     1
 -4.2219193327515653E-01 a       767     0    52     1     2
  7.6468386813688227E-01 a       768     0    52     1     3
  1.2759508650767264E-02 a       769     0    52     1     4
  3.3963382673278120E-01 a       770     0    52     1     5
 -4.9428339151082623E-01 a       771     0    52     1     6
 -3.3292358793232707E-01 a       772     0    52     1     7
 -3.1878688874170003E-01 a       773     0    52     1     8
  5.1252470584905663E-01 a       774     0    52     1     9
 -9.2170988581155977E-01 a       775     0    52     1    10
 -8.4970124784307099E-01 a       776     0    52     1    11
  6.8116900252254742E-01 a       777     0    52     1    12
  6.7165484406729725E-01 a       778     0    52     1    13
 -7.3643227906012743E-01 a       779     0    52     1    14
 -3.3079609794864566E-02 a       780     0    52     1    15
  2.7736450836059745E-01 a       781     0    53     1     1
 -2.9214887746625728E-01 a       782     0    53     1     2
  5.0956502400464676E-01 a       783     0    53     1     3
  2.3710971969377589E-01 a       784     0    53     1     4
 -1.3722882592959820E-01 a       785     0    53     1     5
  1.0415581508299829E+00 a       786     0    53     1     6
 -1.1678624680830106E-01 a       787     0    53     1     7
 -7.4222738631069829E-01 a       788     0    53     1     8
  1.1969628685764495E+00 a       789     0    53     1     9
 -2.2075073881097701E-01 a       790     0    53     1    10
 -3.9095357435903849E-01 a       791     0    53     1    11
  6.4145496076875697E-01 a       792     0    53     1    12
  4.6579115368447671E-01 a       793     0    53     1    13
  8.2650144186540417E-02 a       794     0    53     1    14
 -7.2278362972896870E-01 a       795     0    53     1    15
  1.2961955045765552E-02 a       796     0    54     1     1
  2.7251862627800899E-01 a       797     0    54     1     2
  8.3628224679799801E-01 a       798     0    54     1     3
 -3.5337921941879152E-01 a       799     0    54     1     4
  1.2342262332589784E+00 a       800     0    54     1     5
 -9.7196080949767938E-01 a       801     0    54     1     6
  7.3950729704965790E-01 a       802     0    54     1     7
 -1.7250027664211371E+00 a       803     0    54     1     8
  6.9114973127431556E-01 a       804     0    54     1     9
  1.9924613327122751E+00 a       805     0    54     1    10
  3.0054031231525467E+00 a       806     0    54     1    11
 -2.6232061302621335E-01 a       807     0    54     1    12
 -3.9060565535365183E-01 a       808     0    54     1    13
  1.9621144561300037E+00 a       809     0    54     1    14
 -2.8457555764683368E-01 a       810     0    54     1    15
 -1.6197913268284264E-01 a       811     0    55     1     1
 -1.8444008138596570E+00 a       812     0    55     1     2
 -1.7973192124305701E+00 a       813     0    55     1     3
  1.3502094542293361E+00 a       814     0    55     1     4
  2.9575000944016110E+00 a       815     0    55     1     5
 -1.8801906375357642E+00 a       816     0    55     1     6
  3.9058991375560809E-01 a       817     0    55     1     7
 -1.3682476083443089E+00 a       818     0    55     1     8
  4.2915980645725632E-01 a       819     0    55     1     9
  4.0851893546556189E-01 a       820     0    55     1    10
  1.4929795163614710E+00 a       821     0    55     1    11
  5.9826969031482088E-02 a       822     0    55     1    12
  7.2320813066230016E-01 a       823     0    55     1    13
 -3.4185240016582794E+00 a       824     0    55     1    14
  2.7584709065689994E+00 a       825     0    55     1    15
  1.1882326156999258E-01 a       826     0    56     1     1
 -6.2168042573986650E-02 a       827     0    56     1     2
  4.5429468821745439E-01 a       828     0    56     1     3
  7.3374688852602343E-02 a       829     0    56     1     4
  1.0101302331541101E-01 a       830     0    56     1     5
 -6.8251834547918555E-03 a       831     0    56     1     6
  4.1822235921331391E-01 a       832     0    56     1     7
 -6.2656029297959059E-01 a       833     0    56     1     8
  3.1761704785073769E-01 a       834     0    56     1     9
 -1.5185705715952702E-01 a       835     0    56     1    10
 -1.1945879236044214E-01 a       836     0    56     1    11
  2.9894445396474451E-01 a       837     0    56     1    12
  2.0669158749352916E-03 a       838     0    56     1    13
  6.7721622450660757E-01 a       839     0    56     1    14
  3.3734082989377703E-02 a       840     0    56     1    15
  1.0109512360092670E+00 a       841     0    57     1     1
  1.2047685284784562E+00 a       842     0    57     1     2
 -7.9294469984113525E-01 a       843     0    57     1     3
 -6.6546107574063740E-01 a       844     0    57     1     4
  3.1891202844511377E+00 a       845     0    57     1     5
 -8.0494623277764632E-01 a       846     0    57     1     6
  1.0419399084168124E+00 a       847     0    57     1     7
  1.5074559734726898E+00 a       848     0    57     1     8
  1.4154779330618081E-01 a       849     0    57     1     9
 -6.2382623660423069E-02 a       850     0    57     1    10
 -1.2644529684819827E-01 a       851     0    57     1    11
  3.4676706253492079E-01 a       852     0    57     1    12
  1.9516432055088462E+00 a       853     0    57     1    13
 -8.4268185422018815E-01 a       854     0    57     1    14
  1.7280629895279943E-02 a       855     0    57     1    15
  3.9148198066025980E-01 a       856     0    58     1     1
  1.2671898716456240E-01 a       857     0    58     1     2
 -6.0524477411871835E-01 a       858     0    58     1     3
 -8.9466688002775396E-01 a       859     0    58     1     4
 -5.2858110412285508E-01 a       860     0    58     1     5
  7.3165021393910823E-01 a       861     0    58     1     6
 -3.3166089900859119E-01 a       862     0    58     1     7
  2.6609870539426306E-01 a       863     0    58     1     8
 -4.9445570102815695E-01 a       864     0    58     1     9
 -1.4059481884205699E-01 a       865     0    58     1    10
  4.1580872462844687E-01 a       866     0    58     1    11
 -1.1473735587114779E-02 a       867     0    58     1    12
  7.0826222831199381E-01 a       868     0    58     1    13
 -4.5796757149437178E-01 a       869     0    58     1    14
  6.1378089513572798E-01 a       870     0    58     1    15
 -2.1598667306153124E-01 a       871     0    59     1     1
  4.5139204844433928E-01 a       872     0    59     1     2
  1.2147302998230141E+00 a       873     0    59     1     3
 -3.9186918903724399E-01 a       874     0    59     1     4
 -1.2760806028899490E+00 a       875     0    59     1     5
  3.7342971526004534E-02 a       876     0    59     1     6
  1.2213793697106554E+00 a       877     0    59     1     7
  6.8846353218602696E-01 a       878     0    59     1     8
 -3.2333750232040159E-01 a       879     0    59     1     9
  7.7979217426443023E-02 a       880     0    59     1    10
 -5.4686333880237470E-01 a       881     0    59     1    11
 -4.7424919170437513E-01 a       882     0    59     1    12
  4.6337449269228032E-01 a       883     0    59     1    13
 -8.1198713307537496E-01 a       884     0    59     1    14
  5.6561713209961872E-01 a       885     0    59     1    15
 -1.1914445322577434E+00 a       886     0    60     1     1
 -2.0614319978913684E-01 a       887     0    60     1     2
  1.6278227689850873E+00 a       888     0    60     1     3
  8.1016161897606420E-01 a       889     0    60     1     4
 -2.8603445769961726E+00 a       890     0    60     1     5
  1.5158846169039428E-01 a       891     0    60     1     6
 -3.8964773905254900E-02 a       892     0    60     1     7
  4.3291224947980778E-01 a       893     0    60     1     8
 -1.4800916290174477E-02 a       894     0    60     1     9
  5.8852832449697356E-01 a       895     0    60     1    10
  5.0827932735036985E-01 a       896     0    60     1    11
  5.8813015057998108E-01 a       897     0    60     1    12
 -5.1302296370815148E-01 a       898     0    60     1    13
  8.3670670162421301E-01 a       899     0    60     1    14
 -1.3584847849647048E+00 a       900     0    60     1    15
  2.4105237168039118E-01 a       901     0    61     1     1
 -2.1284102448136044E-01 a       902     0    61     1     2
 -9.9521181882777066E-01 a       903     0    61     1     3
  1.0279001884938876E-01 a       904     0    61     1     4
 -1.2336347693192216E+00 a       905     0    61     1     5
  2.3901046265107344E+00 a       906     0    61     1     6
 -1.3598689231748844E+00 a       907     0    61     1     7
  1.1768972602303012E+00 a       908     0    61     1     8
 -5.7208094755288630E-01 a       909     0    61     1     9
  2.1463049414225749E-01 a       910     0    61     1    10
  1.4814466175067602E+00 a       911     0    61     1    11
 -9.5727899252942700E-02 a       912     0    61     1    12
  2.7456006137087399E+00 a       913     0    61     1    13
  1.5762788734711901E+00 a       914     0    61     1    14
 -7.7362627808925255E-01 a       915     0    61     1    15
  1.6575499111319084E-01 a       916     0    62     1     1
 -1.0446611324550900E-01 a       917     0    62     1     2
  2.3355583865665608E-01 a       918     0    62     1     3
 -5.2464570633585617E-02 a       919     0    62     1     4
  2.9393966882330225E-01 a       920     0    62     1     5
 -3.5959865417430420E-01 a       921     0    62     1     6
 -3.5394655286582644E-01 a       922     0    62     1     7
  1.4569723547708921E-01 a       923     0    62     1     8
 -2.0609555302441857E-01 a       924     0    62     1     9
 -5.8457035254877221E-02 a       925     0    62     1    10
 -4.0536509111906910E-01 a       926     0    62     1    11
  5.7964024575207926E-02 a       927     0    62     1    12
 -7.8579206900246140E-02 a       928     0    62     1    13
 -7.3928639610278613E-01 a       929     0    62     1    14
 -1.2455974939253624E-01 a       930     0    62     1    15
  4.2336037219685207E-01 a       931     0    63     1     1
 -1.0395652609202257E+00 a       932     0    63     1     2
 -6.5311152714035237E-01 a       933     0    63     1     3
 -7.7522045001818607E-01 a       934     0    63     1     4
  2.1529741093284116E-01 a       935     0    63     1     5
 -2.8909454590917961E-02 a       936     0    63     1     6
 -4.8472750484175947E-01 a       937     0    63     1     7
 -9.5008399886756856E-01 a       938     0    63     1     8
 -1.9254789865150129E-01 a       939     0    63     1     9
  1.1390383672339546E+00 a       940     0    63     1    10
  1.9201350220609644E-02 a       941     0    63     1    11
 -8.3144755249261112E-02 a       942     0    63     1    12
 -2.8699681278601741E-01 a       943     0    63     1    13
 -3.8471120756094235E-01 a       944     0    63     1    14
  1.6081597543466255E+00 a       945     0    63     1    15
 -2.0336632344758823E-01 a       946     0    64     1     1
 -6.0012128151446453E-01 a       947     0    64     1     2
  5.9414933414110671E-01 a       948     0    64     1     3
 -1.3675754767153253E-01 a       949     0    64     1     4
  2.1238085098800791E-01 a       950     0    64     1     5
 -1.9107804776720949E-01 a       951     0    64     1     6
 -6.6476552118472565E-01 a       952     0    64     1     7
 -1.0972921321426119E+00 a       953     0    64     1     8
 -2.9100175900689584E-01 a       954     0    64     1     9
 -4.0416175284457495E-01 a       955     0    64     1    10
  1.5140205267676371E-01 a       956     0    64     1    11
 -8.2859855535744611E-02 a       957     0    64     1    12
 -2.6450958435206295E-01 a       958     0    64     1    13
  4.8144038113133947E-01 a       959     0    64     1    14
 -5.6591705090755784E-01 a       960     0    64     1    15
  4.2266648380095681E-02 a       961     0    65     1     1
  1.9465899832065482E-03 a       962     0    65     1     2
 -1.8759703645326609E-01 a       963     0    65     1     3
 -2.1420833750103183E-01 a       964     0    65     1     4
  7.2134964961699566E-01 a       965     0    65     1     5
 -3.0169700945188277E-01 a       966     0    65     1     6
 -4.0238058037907126E-01 a       967     0    65     1     7
  7.5831311035707771E-01 a       968     0    65     1     8
  2.2031859343145995E-02 a       969     0    65     1     9
  5.4119604822979639E-01 a       970     0    65     1    10
  3.2380522012307289E-01 a       971     0    65     1    11
 -2.1333809766604248E-01 a       972     0    65     1    12
 -1.2389898887190225E+00 a       973     0    65     1    13
  1.0190349052315060E+00 a       974     0    65     1    14
  1.0854315801322285E+00 a       975     0    65     1    15
 -1.9661923617308677E-01 a       976     0    66     1     1
  1.7425173683777513E+00 a       977     0    66     1     2
 -1.2351525275259418E+00 a       978     0    66     1     3
 -6.4485094072920868E-01 a       979     0    66     1     4
 -2.1039743918349623E+00 a       980     0    66     1     5
  3.0922805945002158E-01 a       981     0    66     1     6
 -1.5548706074003134E+00 a       982     0    66     1     7
 -1.0191358863326547E+00 a       983     0    66     1     8
 -5.7305722049430707E-01 a       984     0    66     1     9
 -1.9250697047373473E+00 a       985     0    66     1    10
 -1.6664726036516895E+00 a       986     0    66     1    11
  1.2497334797338129E+00 a       987     0    66     1    12
  2.3339479516277533E+00 a       988     0    66     1    13
 -9.2251909353983830E-01 a       989     0    66     1    14
 -1.2664938413463473E+00 a       990     0    66     1    15
  3.7239473899149333E-02 a       991     0    67     1     1
  1.1416156668393562E+00 a       992     0    67     1     2
  8.4504438028598594E-01 a       993     0    67     1     3
 -8.9859959721244209E-01 a       994     0    67     1     4
 -1.8475489819239366E-01 a       995     0    67     1     5
 -2.6890395859044611E+00 a       996     0    67     1     6
 -2.9836974311601026E+00 a       997     0    67     1     7
  4.5314949480628586E-01 a       998     0    67     1     8
  5.9680319556660380E-02 a       999     0    67     1     9
 -6.3404367050875071E-02 a      1000     0    67     1    10
  4.4077719358011352E-01 a      1001     0    67     1    11
  1.5040403838465763E-01 a      1002     0    67     1    12
 -7.6420269256216655E-01 a      1003     0    67     1    13
  1.3369824213277695E+00 a      1004     0    67     1    14
 -3.2731945768624309E+00 a      1005     0    67     1    15
 -2.5498336185489345E-01 a      1006     0    68     1     1
  3.0319161643601023E-01 a      1007     0    68     1     2
 -1.9193266683581802E+00 a      1008     0    68     1     3
 -1.1035748951511994E+00 a      1009     0    68     1     4
 -8.1029526183371681E-01 a      1010     0    68     1     5
 -7.9687752123311117E-01 a      1011     0    68     1     6
 -6.8856543005728921E-01 a      1012     0    68     1     7
 -2.4004625141807723E-01 a      1013     0    68     1     8
 -8.5364438112973040E-01 a      1014     0    68     1     9
  3.6308285579078114E-01 a      1015     0    68     1    10
  4.5494921546562272E-01 a      1016     0    68     1    11
 -1.7254743401518974E-01 a      1017     0    68     1    12
 -4.5940730767021776E-01 a      1018     0    68     1    13
 -2.2317259614752075E-01 a      1019     0    68     1    14
 -1.3487918001136763E+00 a      1020     0    68     1    15
 -2.9302298232988533E-01 a      1021     0    69     1     1
 -7.3154990864222347E-01 a      1022     0    69     1     2
 -5.1491841795160787E-01 a      1023     0    69     1     3
  3.4816609986564723E-01 a      1024     0    69     1     4
 -1.1641321712572386E+00 a      1025     0    69     1     5
 -2.3776164365463552E+00 a      1026     0    69     1     6
  3.0542047756204588E-01 a      1027     0    69     1     7
 -1.0758935107946102E+00 a      1028     0    69     1     8
  1.5910643973649125E-01 a      1029     0    69     1     9
 -3.3129685613556098E-01 a      1030     0    69     1    10
 -1.0291885775640865E-02 a      1031     0    69     1    11
 -3.1789042347819879E-01 a      1032     0    69     1    12
 -1.1522255971245037E+00 a      1033     0    69     1    13
  9.9069377850013518E-01 a      1034     0    69     1    14
 -3.5013350287704642E-01 a      1035     0    69     1    15
  1.4370932977287657E-01 a      1036     0    70     1     1
  5.4562065462221865E-01 a      1037     0    70     1     2
 -1.9474388460574962E-01 a      1038     0    70     1     3
 -3.7137571800762903E-01 a      1039     0    70     1     4
 -6.0782712987564713E-01 a      1040     0    70     1     5
  1.7147449057606218E-01 a      1041     0    70     1     6
  8.3126197208574643E-02 a      1042     0    70     1     7
 -2.1897659565905257E-02 a      1043     0    70     1     8
 -2.4814551459590606E-01 a      1044     0    70     1     9
 -5.2564050364472437E-01 a      1045     0    70     1    10
 -1.2001557278907107E-01 a      1046     0    70     1    11
  3.8822948567944854E-01 a      1047     0    70     1    12
 -5.0402232558222848E-01 a      1048     0    70     1    13
 -2.1979711613733316E-01 a      1049     0    70     1    14
  2.7595857003901453E-01 a      1050     0    70     1    15
  9.3967928432832793E-03 a      1051     0    71     1     1
 -2.9027810433066059E-01 a      1052     0    71     1     2
  4.7203041503314652E-01 a      1053     0    71     1     3
 -4.1165809889868532E-01 a      1054     0    71     1     4
  1.1828878221798842E+00 a      1055     0    71     1     5
 -4.7330235571151635E-01 a      1056     0    71     1     6
 -3.9362731246008642E-01 a      1057     0    71     1     7
 -1.8219614670574635E-01 a      1058     0    71     1     8
 -6.1229148132314802E-02 a      1059     0    71     1     9
  3.2095199428410509E-01 a      1060     0    71     1    10
  2.6990299026732034E-01 a      1061     0    71     1    11
 -1.9464825263742611E-01 a      1062     0    71     1    12
  4.8579590238529863E-01 a      1063     0    71     1    13
  3.4533504145032307E-01 a      1064     0    71     1    14
  9.4986045392812424E-01 a      1065     0    71     1    15
  4.7785578936893121E-02 a      1066     0    72     1     1
  4.6382535984707052E-01 a      1067     0    72     1     2
  8.5554539990099387E-01 a      1068     0    72     1     3
  4.9158590941456048E-01 a      1069     0    72     1     4
 -1.1828786848024410E-01 a      1070     0    72     1     5
  7.3915273846389004E-02 a      1071     0    72     1     6
 -4.0652624211404448E-02 a      1072     0    72     1     7
  1.2214614847846335E+00 a      1073     0    72     1     8
  6.8152898703191367E-01 a      1074     0    72     1     9
  4.4986871766358995E-02 a      1075     0    72     1    10
 -4.7403653179369010E-01 a      1076     0    72     1    11
 -5.1260198650657496E-01 a      1077     0    72     1    12
 -4.7935988092766457E-01 a      1078     0    72     1    13
  1.1186218403817743E+00 a      1079     0    72     1    14
  1.3282824903984742E+00 a      1080     0    72     1    15
 -2.4033602030967580E-01 a      1081     0    73     1     1
  9.1429602425816636E-01 a      1082     0    73     1     2
  7.3141085449046817E-01 a      1083     0    73     1     3
  8.8433466312994757E-01 a      1084     0    73     1     4
  8.4521261072121523E-01 a      1085     0    73     1     5
  5.4461919708071549E-01 a      1086     0    73     1     6
  1.4597267970990424E+00 a      1087     0    73     1     7
 -5.0944292218862219E-01 a      1088     0    73     1     8
 -2.9027916258191616E-01 a      1089     0    73     1     9
 -2.2067279677496562E-01 a      1090     0    73     1    10
 -2.5947030414781698E+00 a      1091     0    73     1    11
 -1.8227083167961092E-01 a      1092     0    73     1    12
 -2.0557668308036763E+00 a      1093     0    73     1    13
 -9.6095596403105943E-01 a      1094     0    73     1    14
 -1.2755668732694592E+00 a      1095     0    73     1    15
  1.2943946713801247E-01 a      1096     0    74     1     1
  3.5882200416626436E-01 a      1097     0    74     1     2
  4.7924565774099920E-01 a      1098     0    74     1     3
 -2.7471506598778589E-01 a      1099     0    74     1     4
  5.4556112709052973E-01 a      1100     0    74     1     5
  1.1868662013488191E+00 a      1101     0    74     1     6
 -1.7758807802293672E-01 a      1102     0    74     1     7
  3.3664891471775787E-02 a      1103     0    74     1     8
 -4.2145895256426114E-01 a      1104     0    74     1     9
 -1.4023289946181705E-01 a      1105     0    74     1    10
 -2.2686506194166828E-01 a      1106     0    74     1    11
  2.4132272010851699E-01 a      1107     0    74     1    12
 -1.0257682695720045E-01 a      1108     0    74     1    13
  4.6320656627444723E-01 a      1109     0    74     1    14
 -4.5047226678966756E-01 a      1110     0    74     1    15
  1.1189562819396697E+00 a      1111     0    75     1     1
  1.0203289162670282E+00 a      1112     0    75     1     2
  1.1147540582538640E+00 a      1113     0    75     1     3
 -1.1387764507687861E-01 a      1114     0    75     1     4
 -2.0083794218738413E+00 a      1115     0    75     1     5
  4.7571163110494452E-01 a      1116     0    75     1     6
 -6.4201394207910087E-02 a      1117     0    75     1     7
 -7.3745259623937853E-01 a      1118     0    75     1     8
  3.3223227501555858E-01 a      1119     0    75     1     9
 -3.0112817926372909E-01 a      1120     0    75     1    10
 -2.6911523402773485E-01 a      1121     0    75     1    11
  2.4252306009462657E-01 a      1122     0    75     1    12
  7.1556111723040206E-01 a      1123     0    75     1    13
 -2.6680536353744250E-01 a      1124     0    75     1    14
 -3.1538760021866330E-01 a      1125     0    75     1    15
 -1.4336145240012196E-01 a      1126     0    76     1     1
  3.1350743184920260E-01 a      1127     0    76     1     2
  2.3597934483023564E-01 a      1128     0    76     1     3
  3.9140435435015553E-01 a      1129     0    76     1     4
  7.3596111876865533E-01 a      1130     0    76     1     5
 -1.0562319936264775E+00 a      1131     0    76     1     6
 -4.1385202730782544E-01 a      1132     0    76     1     7
  3.3522103043929968E-01 a      1133     0    76     1     8
  1.0276969782795693E+00 a      1134     0    76     1     9
  4.9366322929838014E-01 a      1135     0    76     1    10
 -1.8642359587876366E-02 a      1136     0    76     1    11
 -7.6133180448251514E-01 a      1137     0    76     1    12
  6.3785010761299155E-01 a      1138     0    76     1    13
 -4.8013407827175558E-01 a      1139     0    76     1    14
  3.8953879396743624E-01 a      1140     0    76     1    15
 -3.2359902533936075E-01 a      1141     0    77     1     1
  4.4716649362664958E-02 a      1142     0    77     1     2
 -3.9213712905189180E-01 a      1143     0    77     1     3
 -1.0740524471368708E-01 a      1144     0    77     1     4
 -5.8955462745174947E-01 a      1145     0    77     1     5
  3.7692743457638522E-01 a      1146     0    77     1     6
 -1.9773105773901939E-01 a      1147     0    77     1     7
  1.5328427808000833E-01 a      1148     0    77     1     8
  5.5931913248780047E-03 a      1149     0    77     1     9
 -4.0148127075137341E-01 a      1150     0    77     1    10
 -6.5061056370033135E-02 a      1151     0    77     1    11
 -7.6321961593358389E-01 a      1152     0    77     1    12
 -7.4800178285709551E-01 a      1153     0    77     1    13
  1.5639034447984390E-01 a      1154     0    77     1    14
  3.1853578885095539E-02 a      1155     0    77     1    15
 -1.4111426887155790E-01 a      1156     0    78     1     1
 -2.3311727563281726E+00 a      1157     0    78     1     2
 -3.4449789597755986E-01 a      1158     0    78     1     3
 -1.1083297695899512E+00 a      1159     0    78     1     4
  1.2360881288298158E+00 a      1160     0    78     1     5
 -1.8317975641119386E-01 a      1161     0    78     1     6
  7.5994290835326817E-01 a      1162     0    78     1     7
  5.3577323213788031E-01 a      1163     0    78     1     8
 -1.5243908700029460E-01 a      1164     0    78     1     9
  5.9121199508306799E-02 a      1165     0    78     1    10
  1.2340477070216043E+00 a      1166     0    78     1    11
 -2.5173120598344850E-01 a      1167     0    78     1    12
 -1.1132784067732961E+00 a      1168     0    78     1    13
  2.3818295220472560E-01 a      1169     0    78     1    14
  1.3880097411512022E+00 a      1170     0    78     1    15
  1.6386464643688761E-01 a      1171     0    79     1     1
  8.9577937856128520E-01 a      1172     0    79     1     2
  8.1297009293379185E-02 a      1173     0    79     1     3
  1.7494344541517950E+00 a      1174     0    79     1     4
 -5.8903546790701355E-01 a      1175     0    79     1     5
  1.7785537256174926E+00 a      1176     0    79     1     6
 -2.3987330387767908E-01 a      1177     0    79     1     7
  1.0886907187110522E+00 a      1178     0    79     1     8
 -1.6799640697414380E+00 a      1179     0    79     1     9
 -1.3594805155515013E+00 a      1180     0    79     1    10
 -2.0679965677230383E+00 a      1181     0    79     1    11
 -7.3062016729413773E-02 a      1182     0    79     1    12
 -1.1002316410030277E+00 a      1183     0    79     1    13
  1.0439876366303682E+00 a      1184     0    79     1    14
 -3.1343390996741849E-01 a      1185     0    79     1    15
 -5.4547965166427681E-02 a      1186     0    80     1     1
 -2.3824374108159169E-01 a      1187     0    80     1     2
  2.6788550057970351E-01 a      1188     0    80     1     3
  2.3616499720448644E-02 a      1189     0    80     1     4
  9.1517984537126074E-01 a      1190     0    80     1     5
  5.0698410070582656E-01 a      1191     0    80     1     6
  5.0232972628026472E-02 a      1192     0    80     1     7
  8.3663240074149470E-01 a      1193     0    80     1     8
 -8.6824422554001357E-02 a      1194     0    80     1     9
  3.0196469471555576E-02 a      1195     0    80     1    10
 -3.5335634018067047E-01 a      1196     0    80     1    11
 -5.5438556782345072E-01 a      1197     0    80     1    12
  1.3534253556467674E-01 a      1198     0    80     1    13
 -3.8967575762928219E-01 a      1199     0    80     1    14
  3.8472659957973837E-01 a      1200     0    80     1    15
 -1.0520142734302291E+00 a      1201     0    81     1     1
 -2.4703073486736753E+00 a      1202     0    81     1     2
  3.4634124354236906E-01 a      1203     0    81     1     3
 -8.0417256045970187E-01 a      1204     0    81     1     4
 -5.2690285407362336E-01 a      1205     0    81     1     5
  9.8213724418935988E-01 a      1206     0    81     1     6
 -1.1492949475974295E+00 a      1207     0    81     1     7
 -1.6776565821336353E+00 a      1208     0    81     1     8
 -8.9078257071819478E-01 a      1209     0    81     1     9
  8.2724714617249118E-01 a      1210     0    81     1    10
  6.0768860335016628E-01 a      1211     0    81     1    11
 -4.3687498306070388E-01 a      1212     0    81     1    12
 -1.2865860002006384E+00 a      1213     0    81     1    13
  1.0353578233317011E+00 a      1214     0    81     1    14
  1.6279675009021559E+00 a      1215     0    81     1    15
  1.3376628487200515E-01 a      1216     0    82     1     1
 -6.5948592065679257E-01 a      1217     0    82     1     2
  3.0356958070248397E-01 a      1218     0    82     1     3
  4.8636960323437883E-01 a      1219     0    82     1     4
  1.7405376846350393E-01 a      1220     0    82     1     5
  5.0274662793803426E-01 a      1221     0    82     1     6
  4.2218021534054939E-01 a      1222     0    82     1     7
  4.8673251782621829E-01 a      1223     0    82     1     8
  4.1316820031899106E-02 a      1224     0    82     1     9
 -2.6802921444840461E-01 a      1225     0    82     1    10
 -1.2917044172042955E-01 a      1226     0    82     1    11
 -2.7983784057699307E-01 a      1227     0    82     1    12
 -6.4576849012495074E-01 a      1228     0    82     1    13
  7.4677831299734587E-01 a      1229     0    82     1    14
 -4.2246056045525554E-01 a      1230     0    82     1    15
  1.7942730894282985E-01 a      1231     0    83     1     1
 -1.0157908364067799E-02 a      1232     0    83     1     2
 -2.7865999003994063E-01 a      1233     0    83     1     3
  2.7169619706556104E-02 a      1234     0    83     1     4
  1.2916587161275954E+00 a      1235     0    83     1     5
 -1.1121485993453610E+00 a      1236     0    83     1     6
 -5.5983820423190866E-01 a      1237     0    83     1     7
  2.7517750644957056E-01 a      1238     0    83     1     8
 -1.1683556039503575E+00 a      1239     0    83     1     9
  5.9814077278167088E-01 a      1240     0    83     1    10
  6.5637989827255538E-01 a      1241     0    83     1    11
  5.6451185029982409E-01 a      1242     0    83     1    12
 -1.9568232136208724E-01 a      1243     0    83     1    13
  9.4242700629502796E-01 a      1244     0    83     1    14
 -2.5726031407874195E-01 a      1245     0    83     1    15
  1.0451303208112432E+00 a      1246     0    84     1     1
  2.3343665096246338E+00 a      1247     0    84     1     2
 -1.2191115119233977E+00 a      1248     0    84     1     3
  7.6453457756415300E-01 a      1249     0    84     1     4
 -5.2977649987091435E-01 a      1250     0    84     1     5
  1.1426225356531501E+00 a      1251     0    84     1     6
 -2.8072200354978749E-01 a      1252     0    84     1     7
  9.3326300685485453E-01 a      1253     0    84     1     8
  2.6767054995378103E-01 a      1254     0    84     1     9
 -2.6959339696083222E+00 a      1255     0    84     1    10
 -2.2674698479759186E+00 a      1256     0    84     1    11
  2.8502534957074238E-01 a      1257     0    84     1    12
  2.3126629334390375E-01 a      1258     0    84     1    13
 -3.9660319416850021E-01 a      1259     0    84     1    14
 -5.4504110246579895E-01 a      1260     0    84     1    15
 -7.2340469229044746E-02 a      1261     0    85     1     1
 -1.8964575304029374E-01 a      1262     0    85     1     2
  9.8499318762265020E-01 a      1263     0    85     1     3
  5.6266739004593846E-01 a      1264     0    85     1     4
  3.3355212720758503E+00 a      1265     0    85     1     5
  4.5168100560560775E-01 a      1266     0    85     1     6
 -1.1264379856129114E+00 a      1267     0    85     1     7
  8.3913026360781059E-02 a      1268     0    85     1     8
  1.2385834989249846E+00 a      1269     0    85     1     9
 -2.3332876240775227E-01 a      1270     0    85     1    10
 -1.1053297937496323E+00 a      1271     0    85     1    11
  7.4880854692061419E-02 a      1272     0    85     1    12
 -2.4775058328053920E+00 a      1273     0    85     1    13
 -1.5522868736758932E+00 a      1274     0    85     1    14
  1.3215172047616055E+00 a      1275     0    85     1    15
 -2.1145455203413174E-01 a      1276     0    86     1     1
  2.0447390224963037E-02 a      1277     0    86     1     2
 -1.6301154920658437E-01 a      1278     0    86     1     3
  1.7427916491438716E-01 a      1279     0    86     1     4
  2.4673388104833976E-02 a      1280     0    86     1     5
  6.4548954158092631E-01 a      1281     0    86     1     6
  8.0872856618341860E-01 a      1282     0    86     1     7
 -2.8892264233408566E-01 a      1283     0    86     1     8
  3.0342584937804590E-01 a      1284     0    86     1     9
  1.1708392780557982E-01 a      1285     0    86     1    10
  6.6866073719935948E-01 a      1286     0    86     1    11
 -1.1019337870743706E-01 a      1287     0    86     1    12
  7.7204642368653140E-02 a      1288     0    86     1    13
  9.9314435392094114E-01 a      1289     0    86     1    14
  2.6528446833532765E-01 a      1290     0    86     1    15
 -5.8903070395425705E-01 a      1291     0    87     1     1
  1.2086110429596726E+00 a      1292     0    87     1     2
  5.6440223674630274E-01 a      1293     0    87     1     3
  1.2007833132786589E+00 a      1294     0    87     1     4
 -3.2286159688232602E-01 a      1295     0    87     1     5
  9.0000820779217017E-01 a      1296     0    87     1     6
  5.3003376986612738E-01 a      1297     0    87     1     7
  1.3306138081400878E+00 a      1298     0    87     1     8
  5.9093751559725982E-01 a      1299     0    87     1     9
 -1.3715661661282796E+00 a      1300     0    87     1    10
  2.0567528199718407E-01 a      1301     0    87     1    11
  1.5021568336544100E-01 a      1302     0    87     1    12
  4.3912803138974160E-01 a      1303     0    87     1    13
  5.4517735566880432E-01 a      1304     0    87     1    14
 -1.1576586461223715E+00 a      1305     0    87     1    15
  2.1596168539301169E-01 a      1306     0    88     1     1
  1.2513522752109909E+00 a      1307     0    88     1     2
  7.4218844104385395E-02 a      1308     0    88     1     3
  2.7168873707933600E-01 a      1309     0    88     1     4
 -5.0671579151637836E-01 a      1310     0    88     1     5
 -1.9872102438750472E-01 a      1311     0    88     1     6
  2.6827759978216392E-01 a      1312     0    88     1     7
  1.3901418009363107E+00 a      1313     0    88     1     8
  6.4485606345903834E-01 a      1314     0    88     1     9
  1.4879635675464933E-01 a      1315     0    88     1    10
  5.3906669858456102E-01 a      1316     0    88     1    11
  2.1469534902763238E-02 a      1317     0    88     1    12
 -5.1905554641029916E-01 a      1318     0    88     1    13
  2.9772191418032451E-01 a      1319     0    88     1    14
  7.2604130788513266E-01 a      1320     0    88     1    15
 -8.0144394189301915E-02 a      1321     0    89     1     1
  7.3900345116264948E-03 a      1322     0    89     1     2
 -3.9190786612982148E-01 a      1323     0    89     1     3
  3.9378899330445388E-01 a      1324     0    89     1     4
  6.0752690228567670E-02 a      1325     0    89     1     5
  1.2714432306272527E-01 a      1326     0    89     1     6
  6.2659423810362924E-01 a      1327     0    89     1     7
 -6.7373544750439796E-01 a      1328     0    89     1     8
 -3.3944624920796557E-01 a      1329     0    89     1     9
 -4.4879494568636369E-01 a      1330     0    89     1    10
 -3.6025227422467565E-01 a      1331     0    89     1    11
  2.9165502894758094E-01 a      1332     0    89     1    12
  1.4337290521774124E+00 a      1333     0    89     1    13
 -1.5233000205622893E+00 a      1334     0    89     1    14
 -9.1724460983532430E-01 a      1335     0    89     1    15
  3.1902436977285936E-01 a      1336     0    90     1     1
 -2.6263741909084892E+00 a      1337     0    90     1     2
 -1.4201495389212317E+00 a      1338     0    90     1     3
  9.9631390941934350E-01 a      1339     0    90     1     4
  1.0132481983679138E+00 a      1340     0    90     1     5
 -5.4732343614925916E-01 a      1341     0    90     1     6
  1.8537561087040272E-01 a      1342     0    90     1     7
  1.2225153888559614E+00 a      1343     0    90     1     8
 -1.0244260854590065E-01 a      1344     0    90     1     9
  1.9573373264778404E+00 a      1345     0    90     1    10
  1.9244004428096029E+00 a      1346     0    90     1    11
 -1.9660954317337118E+00 a      1347     0    90     1    12
 -2.0117840827290903E+00 a      1348     0    90     1    13
 -2.1427266741699613E+00 a      1349     0    90     1    14
  1.3915026058219251E+00 a      1350     0    90     1    15
  2.3100116045139993E-01 a      1351     0    91     1     1
 -4.2977956590001798E-01 a      1352     0    91     1     2
  2.6736085081956058E+00 a      1353     0    91     1     3
  5.6980557862208947E-01 a      1354     0    91     1     4
 -7.8755242576674267E-01 a      1355     0    91     1     5
  2.0713833038582314E+00 a      1356     0    91     1     6
  1.9822600849809888E+00 a      1357     0    91     1     7
  5.4749444508372747E-01 a      1358     0    91     1     8
 -1.4444552225259649E-01 a      1359     0    91     1     9
  2.3727082147400802E-01 a      1360     0    91     1    10
 -1.9730378186909370E+00 a      1361     0    91     1    11
 -8.3618695058006991E-03 a      1362     0    91     1    12
 -1.4343862649475724E-02 a      1363     0    91     1    13
  3.1524696190529750E-01 a      1364     0    91     1    14
  2.8313356778612340E+00 a      1365     0    91     1    15
  4.0408521225623628E-01 a      1366     0    92     1     1
 -1.8144480469227817E-01 a      1367     0    92     1     2
  1.0202745827260822E-01 a      1368     0    92     1     3
  7.0090454739124586E-01 a      1369     0    92     1     4
  7.9648400738521363E-02 a      1370     0    92     1     5
 -3.5672146807728772E-01 a      1371     0    92     1     6
 -1.6864995238905667E-01 a      1372     0    92     1     7
  2.9628058778594096E-01 a      1373     0    92     1     8
  6.5863000157632201E-01 a      1374     0    92     1     9
  6.4969484209259243E-02 a      1375     0    92     1    10
  1.9174152625875873E-01 a      1376     0    92     1    11
  2.8269279473980696E-01 a      1377     0    92     1    12
  2.2186951139076208E-01 a      1378     0    92     1    13
  5.3997895489687406E-02 a      1379     0    92     1    14
  7.7245622946625947E-01 a      1380     0    92     1    15
  1.6851977273116811E-01 a      1381     0    93     1     1
  6.3010643359866170E-01 a      1382     0    93     1     2
 -1.8571021539752603E-03 a      1383     0    93     1     3
  1.8156924111832212E-01 a      1384     0    93     1     4
 -1.2730989005758522E+00 a      1385     0    93     1     5
  1.2369267957893335E+00 a      1386     0    93     1     6
 -7.0936124462349082E-01 a      1387     0    93     1     7
  3.6752092796130154E-01 a      1388     0    93     1     8
  1.9028480940048480E-02 a      1389     0    93     1     9
  1.8790120609306356E-02 a      1390     0    93     1    10
  1.7485631554543671E-01 a      1391     0    93     1    11
  2.1770595372026347E-01 a      1392     0    93     1    12
 -9.6206418016745643E-01 a      1393     0    93     1    13
 -4.5468102211111550E-01 a      1394     0    93     1    14
 -2.3475722396296492E-01 a      1395     0    93     1    15
 -3.5347381040132292E-01 a      1396     0    94     1     1
 -3.1033436143124998E-01 a      1397     0    94     1     2
 -4.8564995108429909E-01 a      1398     0    94     1     3
 -2.8077678966971314E-02 a      1399     0    94     1     4
  9.9861647004838372E-01 a      1400     0    94     1     5
  7.5252808827918860E-01 a      1401     0    94     1     6
  5.3098410326996459E-01 a      1402     0    94     1     7
 -3.3498183276590099E-01 a      1403     0    94     1     8
 -7.3059279304115132E-01 a      1404     0    94     1     9
  8.2554274569629460E-01 a      1405     0    94     1    10
  4.0219194932208539E-02 a      1406     0    94     1    11
 -4.9555956973302212E-01 a      1407     0    94     1    12
  1.3631344302817314E+00 a      1408     0    94     1    13
  3.2291435876535152E-01 a      1409     0    94     1    14
 -1.0130995495725041E+00 a      1410     0    94     1    15
 -8.6179595813232368E-02 a      1411     0    95     1     1
  3.4136161223843747E-01 a      1412     0    95     1     2
 -1.9918498981913291E-01 a      1413     0    95     1     3
  6.6215618921453012E-01 a      1414     0    95     1     4
 -5.2069113137901601E-01 a      1415     0    95     1     5
  1.0852568618445819E+00 a      1416     0    95     1     6
 -2.1939524837928343E-01 a      1417     0    95     1     7
 -1.5678894792309495E-01 a      1418     0    95     1     8
  1.0739331714386587E-01 a      1419     0    95     1     9
 -8.9029206237813879E-02 a      1420     0    95     1    10
 -2.0585124598000562E-01 a      1421     0    95     1    11
  1.9348271926069871E-01 a      1422     0    95     1    12
 -5.8195761819268921E-01 a      1423     0    95     1    13
 -2.4416295961792295E-01 a      1424     0    95     1    14
 -2.1995730945763189E-01 a      1425     0    95     1    15
  3.4128580767341138E-01 a      1426     0    96     1     1
  1.2771795829958324E-01 a      1427     0    96     1     2
  5.6072130296443874E-02 a      1428     0    96     1     3
 -5.8027018996126323E-01 a      1429     0    96     1     4
  1.2816497047852871E+00 a      1430     0    96     1     5
  6.7074274567781178E-01 a      1431     0    96     1     6
 -1.6620165177224580E-01 a      1432     0    96     1     7
 -1.6748531353085477E-01 a      1433     0    96     1     8
 -5.1980186866520739E-01 a      1434     0    96     1     9
  4.0896508436700257E-02 a      1435     0    96     1    10
  5.9065008692692558E-02 a      1436     0    96     1    11
  4.7164588772100036E-01 a      1437     0    96     1    12
  1.0539318963389965E+00 a      1438     0    96     1    13
 -1.7994301006218687E+00 a      1439     0    96     1    14
  3.1561903997771222E-02 a      1440     0    96     1    15
 -1.5163713994123634E-01 a      1441     0    97     1     1
 -7.6666891350586663E-01 a      1442     0    97     1     2
 -2.1916507562682246E+00 a      1443     0    97     1     3
  1.3735406343968106E+00 a      1444     0    97     1     4
  1.1028638717957406E+00 a      1445     0    97     1     5
 -1.3597151011747038E-01 a      1446     0    97     1     6
  2.6648240636825711E+00 a      1447     0    97     1     7
  2.9927584272170377E-01 a      1448     0    97     1     8
 -5.2240263777519536E-01 a      1449     0    97     1     9
 -5.0702671255922249E-01 a      1450     0    97     1    10
  1.9432512108205986E+00 a      1451     0    97     1    11
  1.8005054179584706E-01 a      1452     0    97     1    12
  2.1596600409393827E+00 a      1453     0    97     1    13
 -9.8730209748081521E-01 a      1454     0    97     1    14
  2.1284261222967957E-01 a      1455     0    97     1    15
 -5.6925937154307119E-02 a      1456     0    98     1     1
 -1.7249819424701451E-01 a      1457     0    98     1     2
 -1.8065139145792403E-01 a      1458     0    98     1     3
  6.4181985555666857E-02 a      1459     0    98     1     4
 -1.0087829292783849E-01 a      1460     0    98     1     5
 -3.4174542532561292E-01 a      1461     0    98     1     6
 -3.3234499806520344E-02 a      1462     0    98     1     7
 -1.2468555163448175E-01 a      1463     0    98     1     8
  3.4351895032421170E-01 a      1464     0    98     1     9
  9.7264067403786750E-02 a      1465     0    98     1    10
  1.9172553276975199E-01 a      1466     0    98     1    11
 -1.7445887666796378E-01 a      1467     0    98     1    12
  3.0468736844761923E-01 a      1468     0    98     1    13
  5.2134342650657528E-01 a      1469     0    98     1    14
 -1.2071292347956714E-01 a      1470     0    98     1    15
 -1.5974614456042321E-01 a      1471     0    99     1     1
 -9.9337400006890730E-01 a      1472     0    99     1     2
 -3.5735213800073906E-01 a      1473     0    99     1     3
 -4.7001707598990689E-01 a      1474     0    99     1     4
  1.6123420980458465E+00 a      1475     0    99     1     5
 -2.6539520241365933E-01 a      1476     0    99     1     6
 -3.0496300240751451E-01 a      1477     0    99     1     7
  8.2848375988077949E-01 a      1478     0    99     1     8
 -2.7122173286083212E-01 a      1479     0    99     1     9
  4.9482520357596732E-01 a      1480     0    99     1    10
  4.0993992450500683E-01 a      1481     0    99     1    11
 -7.4455839495474768E-02 a      1482     0    99     1    12
  5.9759486853419619E-01 a      1483     0    99     1    13
 -1.1334626418228846E+00 a      1484     0    99     1    14
  1.0372778677266823E+00 a      1485     0    99     1    15
  2.1505011364538343E-01 a      1486     0   100     1     1
 -9.0472662763836742E-01 a      1487     0   100     1     2
  5.5998913454625987E-01 a      1488     0   100     1     3
  1.2123170010009141E-01 a      1489     0   100     1     4
 -7.2011058782476778E-01 a      1490     0   100     1     5
  5.7331780839846536E-01 a      1491     0   100     1     6
  9.1616944726685479E-01 a      1492     0   100     1     7
  1.1069067798428332E-01 a      1493     0   100     1     8
 -1.0345244532812192E+00 a      1494     0   100     1     9
  2.2083893498404983E-01 a      1495     0   100     1    10
  6.6469585410161525E-01 a      1496     0   100     1    11
  2.0858655344050284E-01 a      1497     0   100     1    12
 -7.7180714121423066E-01 a      1498     0   100     1    13
  9.6818096191121206E-01 a      1499     0   100     1    14
 -3.6217827464731689E-01 a      1500     0   100     1    15
  1.9394774950990165E-01 a      1501     0   101     1     1
 -3.6798593206091706E-01 a      1502     0   101     1     2
  6.9973920448062688E-01 a      1503     0   101     1     3
 -4.8958158876528812E-01 a      1504     0   101     1     4
 -9.4464350563502719E-01 a      1505     0   101     1     5
 -9.3533971212066436E-01 a      1506     0   101     1     6
  1.4536038246374389E-02 a      1507     0   101     1     7
  2.4196216438200163E-01 a      1508     0   101     1     8
  1.2454451662158530E+00 a      1509     0   101     1     9
 -4.4883897765915132E-01 a      1510     0   101     1    10
  5.3626551831382396E-01 a      1511     0   101     1    11
  2.7531091607528158E-01 a      1512     0   101     1    12
 -3.1093390997495050E-02 a      1513     0   101     1    13
 -2.6329177250587793E-01 a      1514     0   101     1    14
  6.2538572726744446E-01 a      1515     0   101     1    15
 -7.0171114511851218E-01 a      1516     0   102     1     1
  9.9161412358072756E-02 a      1517     0   102     1     2
  1.6793384183810314E+00 a      1518     0   102     1     3
 -1.4800465034447357E+00 a      1519     0   102     1     4
  2.2227954187333637E-01 a      1520     0   102     1     5
  2.3713731908987498E-02 a      1521     0   102     1     6
  3.1740851073956554E-03 a      1522     0   102     1     7
  3.2958873325987803E-01 a      1523     0   102     1     8
 -6.2820491729062344E-01 a      1524     0   102     1     9
 -1.4728709441249088E+00 a      1525     0   102     1    10
 -1.6636793537594190E+00 a      1526     0   102     1    11
  4.1568837217692894E-01 a      1527     0   102     1    12
 -7.0684053638183875E-01 a      1528     0   102     1    13
 -1.0717932900152052E-01 a      1529     0   102     1    14
 -1.1613420113033701E-01 a      1530     0   102     1    15
  3.2577369043364246E-01 a      1531     0   103     1     1
 -1.8443264381407454E-01 a      1532     0   103     1     2
  1.5303199418462134E+00 a      1533     0   103     1     3
  2.6954341094366463E-01 a      1534     0   103     1     4
 -3.4921707166378537E+00 a      1535     0   103     1     5
  3.6518587951192609E+00 a      1536     0   103     1     6
 -2.6061275651514442E+00 a      1537     0   103     1     7
  2.8647105360621883E-01 a      1538     0   103     1     8
  1.3624664184933934E+00 a      1539     0   103     1     9
  4.5520526269668482E-01 a      1540     0   103     1    10
  1.1980283773850383E-02 a      1541     0   103     1    11
  9.9193204033106122E-02 a      1542     0   103     1    12
  7.0823861015954295E-02 a      1543     0   103     1    13
  2.7382428037324580E+00 a      1544     0   103     1    14
 -1.6518872342166135E-01 a      1545     0   103     1    15
  1.0889440325323121E-01 a      1546     0   104     1     1
 -2.5179539399693340E-01 a      1547     0   104     1     2
 -5.3696953171248074E-01 a      1548     0   104     1     3
 -7.2836256370119135E-01 a      1549     0   104     1     4
 -4.0114791664457616E-01 a      1550     0   104     1     5
 -4.3855832193221383E-01 a      1551     0   104     1     6
 -3.8388818656923468E-01 a      1552     0   104     1     7
 -5.1757734764628183E-01 a      1553     0   104     1     8
 -1.6204459666502638E-01 a      1554     0   104     1     9
  4.1851944953335579E-01 a      1555     0   104     1    10
  9.7263142621992926E-01 a      1556     0   104     1    11
  4.9274995398620608E-01 a      1557     0   104     1    12
  1.0721962278479376E-01 a      1558     0   104     1    13
  6.8376662049111053E-02 a      1559     0   104     1    14
 -9.4046670975872870E-01 a      1560     0   104     1    15
  3.1824993382514828E-02 a      1561     0   105     1     1
  1.0422933394490010E+00 a      1562     0   105     1     2
 -1.3381705006667637E+00 a      1563     0   105     1     3
  6.3353782652598067E-01 a      1564     0   105     1     4
 -6.7641870369092716E-01 a      1565     0   105     1     5
 -1.5349224657146234E+00 a      1566     0   105     1     6
  2.5205172773721057E-01 a      1567     0   105     1     7
  3.1901789136736769E-01 a      1568     0   105     1     8
  7.7712963424585790E-01 a      1569     0   105     1     9
 -1.4158919860892155E-01 a      1570     0   105     1    10
  6.4090276204701324E-01 a      1571     0   105     1    11
  1.1296549268771991E-01 a      1572     0   105     1    12
 -4.5078915236649819E-01 a      1573     0   105     1    13
  1.9736993411574369E-01 a      1574     0   105     1    14
 -1.1755406351684636E+00 a      1575     0   105     1    15
 -2.4941203036037532E-01 a      1576     0   106     1     1
  5.9179650571341769E-01 a      1577     0   106     1     2
 -2.1536822471587194E-01 a      1578     0   106     1     3
  6.4888371990446947E-01 a      1579     0   106     1     4
 -2.9092925463598168E-01 a      1580     0   106     1     5
 -8.3532055809494221E-01 a      1581     0   106     1     6
  1.5532806452668529E-01 a      1582     0   106     1     7
 -3.9143134053134870E-01 a      1583     0   106     1     8
 -7.8983099877462295E-03 a      1584     0   106     1     9
  4.6023658791790623E-01 a      1585     0   106     1    10
 -7.3307313412326069E-01 a      1586     0   106     1    11
  2.3589945456563549E-01 a      1587     0   106     1    12
 -2.9923156547426566E-01 a      1588     0   106     1    13
  3.0999218803559811E-02 a      1589     0   106     1    14
  2.3286765617931279E-01 a      1590     0   106     1    15
 -6.8748384189715767E-02 a      1591     0   107     1     1
  4.8273212794099324E-01 a      1592     0   107     1     2
 -1.6107805480026285E+00 a      1593     0   107     1     3
  9.2397819233132394E-01 a      1594     0   107     1     4
  1.3402092369436673E+00 a      1595     0   107     1     5
 -1.1404781848121175E-01 a      1596     0   107     1     6
  1.0266053688592418E-01 a      1597     0   107     1     7
 -5.7697873208352135E-01 a      1598     0   107     1     8
 -3.9352950233334955E-01 a      1599     0   107     1     9
  1.7527456159232230E-01 a      1600     0   107     1    10
  4.1387791248903022E-01 a      1601     0   107     1    11
 -1.1089804387915915E-01 a      1602     0   107     1    12
  3.5839224428149291E-01 a      1603     0   107     1    13
  3.2770180663383730E-01 a      1604     0   107     1    14
 -5.6721229984543386E-01 a      1605     0   107     1    15
  6.0172423974591027E-01 a      1606     0   108     1     1
  1.7598295475924874E+00 a      1607     0   108     1     2
 -2.3510636502837388E+00 a      1608     0   108     1     3
  6.0197648871672316E-01 a      1609     0   108     1     4
 -1.3646496441652760E+00 a      1610     0   108     1     5
  2.2543359838781547E+00 a      1611     0   108     1     6
  9.5105024489626794E-02 a      1612     0   108     1     7
 -1.6107921122585740E+00 a      1613     0   108     1     8
 -6.9415867690248467E-01 a      1614     0   108     1     9
 -4.3326798638177517E-02 a      1615     0   108     1    10
 -1.3211923328771986E+00 a      1616     0   108     1    11
 -3.5643394285826313E-01 a      1617     0   108     1    12
  1.6195324516852356E+00 a      1618     0   108     1    13
 -3.2990108660668083E-01 a      1619     0   108     1    14
 -7.3692365517847525E-02 a      1620     0   108     1    15
 -3.9207380755102378E-03 a      1621     0   109     1     1
  3.0016225650677925E-01 a      1622     0   109     1     2
 -5.7447890016577874E-01 a      1623     0   109     1     3
